-0.081482396
0.015046418
0.055687055
-0.07670075
0.01800692
-0.029967323
-0.00942941
-0.002951026
-0.034185868
-0.032373745
-0.016094685
-0.030819286
0.030578401
-0.019138608
0.018944101
0.05617777
0.076092884
-0.02618013
0.040740997
-0.08589542
0.027642049
-0.03308425
0.06574808
0.010523699
0.0638759
-0.05587693
0.047625005
-0.060585134
0.00670442
0.03854327
0.023206003
-0.067405194
-0.0070056687
0.119009644
0.051254574
0.080024235
0.18218763
0.2702236
0.40149668
0.2965364
0.35518146
0.49023712
0.115717866
-0.010413111
-0.005842284
0.5395721
0.57467365
0.3695377
0.34815967
0.26553518
0.24166816
0.27418453
0.076862335
-0.05619507
0.076869294
-0.07669697
-0.0009018928
0.027781911
0.054055717
-0.038742684
0.22645923
0.24119729
0.17616473
0.1224032
0.020583551
0.04525297
0.30165148
0.29131797
0.16827384
0.16476199
0.23304786
-0.029570244
-0.025886951
0.16835618
0.4527071
0.71030676
0.57352144
0.5781472
0.6203173
0.4056779
-0.03150985
-0.15129827
-0.056446433
-0.033342887
-0.04966756
0.07061456
-0.16151921
-0.14560057
0.13991515
0.16247374
0.031046443
0.034752905
0.026314631
-0.11298104
-0.0026226803
0.09797845
0.16805448
0.085984066
0.31978676
0.22651081
-0.077056095
0.14000419
0.26526955
0.3210083
0.4061774
0.435549
0.5974705
0.8652756
0.5266427
0.13857755
0.19156645
0.013371237
0.07517807
-0.035607897
-0.18914406
0.1884919
0.17202066
0.106838204
-0.0147854565
0.17978214
0.07738181
-0.11388182
-0.26199853
-0.030330077
-0.03950092
-0.031522032
-0.029199135
0.0090020625
0.01768307
0.19486393
0.26843742
0.304691
0.36697906
0.36311692
0.4233965
0.5328676
0.63157743
0.39823702
0.2439054
0.21058756
-0.007907286
-0.06931704
-0.109625675
-0.10127108
-0.00495769
-0.031063592
-0.01704243
0.09199605
0.06649785
-0.11752801
-0.35322893
-0.28060418
-0.21447776
-0.24783795
-0.041654926
-0.0046301857
-0.077575885
0.062132444
0.14986531
0.27087772
0.22873022
-0.012571401
0.0498669
0.19386749
0.31318563
0.5971708
0.15712719
0.08765203
0.03750892
0.08079241
0.07616647
0.22421627
0.15630345
0.048541646
0.016328573
0.12550232
0.108542815
-0.05159596
-0.2497396
-0.21493158
-0.18366276
-0.11122417
-0.011657869
0.096143164
0.03363355
0.11783398
-0.12681639
-0.046647206
-0.04515365
0.108154915
0.026156878
0.17009448
0.32740986
0.682087
0.06931909
0.16274467
0.061132167
0.15465257
-0.008758254
0.44398415
0.3014589
0.13646017
-0.0017831376
0.24329036
0.054932985
0.034329142
-0.13529104
-0.23893216
-0.08325572
-0.10769901
-0.024405763
0.2830464
0.20017765
0.03703461
-0.086267084
-0.06843311
-0.10583213
-0.024245016
-0.3073126
0.16699201
0.49247864
0.54379493
0.31290004
0.10841153
-0.24248026
-0.14368352
-0.0054644207
0.5015708
0.29858366
0.053630274
0.1352328
0.07474467
0.03970796
-0.08878252
-0.26201162
-0.29502514
-0.08181718
0.00057527144
-0.021484768
0.07907018
0.10599395
0.07207973
-0.10205198
-0.13237569
-0.16415572
-0.113689154
-0.15045464
0.061201256
0.52404785
0.27213952
-0.007235206
-0.021458434
-0.042380106
-0.21441711
0.010338401
0.119258255
0.055151097
-0.04658293
0.015500174
-0.06194669
-0.12718819
-0.26902205
-0.25519142
-0.18907565
-0.13545074
0.03734648
-0.15441833
-0.35911807
-0.13294423
-0.082807474
-0.13471653
-0.14151138
-0.028445225
-0.01102201
0.036154095
0.20804255
0.26891032
-0.061521515
0.093967415
-0.22907735
-0.0515245
-0.07952049
-0.11222653
0.27592194
0.32567075
-0.03260161
0.046569154
0.23867074
0.19005302
0.13457017
0.2372187
0.22088231
0.25964093
0.3199827
-0.05906066
-0.3440789
-0.23979475
-0.12659128
-0.02257539
0.025065813
0.09544266
0.12200144
0.15186283
0.22523859
0.041979063
-0.250377
-0.15032126
-0.17834614
-0.023567326
-0.17240883
0.13203834
0.4896666
0.40724152
0.44001368
0.70768887
0.80313027
0.8080604
0.90446395
0.99050367
0.6488714
0.51018584
0.6371697
0.22997141
-0.03411306
0.069294676
0.21309438
0.25989813
0.020205043
0.113396704
0.15068406
0.28271744
0.2410752
0.19910282
-0.103820026
-0.13997582
-0.10088574
0.03250482
0.030241562
0.018986775
0.57585055
0.5106756
0.85051584
1.3283057
1.5260452
1.1529534
1.0155398
0.96808445
0.7119179
0.36702845
0.54926723
0.3463508
0.2245939
0.48087758
0.53763634
0.32181424
0.16268212
0.18800512
0.17503059
0.4193757
0.50567174
0.12238063
-0.36271963
-0.44026363
-0.35056636
-0.031635575
0.00052090007
0.15079644
0.5023814
0.69676363
1.2473449
1.350257
1.0967754
0.7637362
0.54328936
0.35133997
0.35330176
0.25119507
0.12779726
0.06885996
0.18282413
0.47230062
0.43144083
0.4388207
0.31452972
0.20472017
0.2720135
0.33303967
0.21405777
-0.010514909
-0.51719064
-0.7085706
-0.3270465
-0.050773285
0.103951134
0.092876576
0.38913026
0.4899499
0.9578699
0.7125388
0.25158417
0.041286323
-0.14647135
-0.07659398
0.06444659
0.0045567052
-0.13738553
-0.18712337
0.06657648
0.12212908
0.3930345
0.20303725
0.33736846
0.23536167
0.20987439
0.042586192
0.00077823305
-0.06896943
-0.2865933
-0.57412755
-0.36721757
0.06696785
0.068084724
0.20118473
0.2416551
0.17326827
-0.15883468
-0.1667389
-0.14491308
-0.27672613
-0.14666305
-0.08471254
-0.018889114
-0.011216442
-0.2555322
-0.38135716
-0.091662765
-0.01939978
0.3168066
0.29004428
0.29327968
0.3730294
0.11185587
-0.0423156
-0.05341996
-0.22929904
-0.2386548
-0.7097266
-0.18608302
-0.033340786
0.16252008
0.40481278
0.16492532
-0.054665606
-0.4166421
-0.47776365
-0.38595894
-0.23553541
-0.2682211
-0.13466312
-0.014510321
-0.09590378
-0.4908221
-0.4038065
-0.20622087
-0.037309293
0.23108415
0.33177254
0.24566859
0.1351294
-0.16453278
-0.1170199
-0.13317372
-0.23499401
-0.54409015
-0.90014
-0.33140185
-0.04763548
0.100474186
0.27601582
0.17361031
-0.09841716
-0.4749643
-0.5102145
-0.33529803
-0.2512051
-0.12585947
-0.064108625
-0.09110378
-0.17109363
-0.5479616
-0.49371627
-0.23382576
0.094738714
0.4422306
0.42905232
0.13770334
-0.070040874
-0.060963616
-0.11772797
-0.14801803
-0.2394673
-0.5818831
-0.6664383
-0.2946043
-0.07460723
0.05101405
0.44327906
0.2671174
-0.04891912
-0.30097315
-0.39512438
-0.32533354
-0.045242053
-0.12007663
-0.13337389
-0.093297966
-0.41341108
-0.5539022
-0.53068835
-0.059940368
0.25121164
0.28963223
0.34054184
0.21973728
0.079827785
-0.03398088
-0.056267418
-0.2642638
-0.38719812
-0.46893373
-0.387673
-0.24632336
0.052453186
-0.091406666
0.5247062
0.25406352
-0.0013635348
-0.014880446
-0.06846897
-0.27219218
-0.2116858
-0.09867293
-0.10994166
-0.2532337
-0.37412366
-0.36487016
-0.15239047
0.14555852
0.259861
0.20912479
0.20086527
0.064263895
0.10429834
0.10168619
-0.0151750045
-0.10381631
-0.35887575
-0.70595646
-0.33936182
-0.16762331
-0.0726114
-0.042217497
0.41506678
0.21128976
-0.08469016
0.017758366
-0.09721342
-0.04175114
-0.25432166
-0.327516
-0.33399853
-0.23677742
-0.13727607
0.007455102
0.23894595
0.3076852
0.08016906
0.057804342
-0.012438051
-0.04945645
0.08436398
0.08035392
-0.120371595
-0.1242082
-0.24556148
-0.68365586
-0.24211526
-0.010018402
-0.04847269
-0.08800433
0.20924823
0.009975915
-0.10721125
-0.0798294
-0.029674316
-0.020177558
-0.09486734
-0.17350851
-0.18387061
-0.12198475
0.09876565
0.33734307
0.3079099
0.040012766
0.021356525
-0.11779756
-0.15361689
-0.16669738
-0.0012716213
-0.13082384
-0.09913599
-0.21693845
-0.43824387
-0.60660285
-0.20433947
-0.0808765
-0.17015363
-0.015264859
0.2104742
-0.18461367
-0.3018541
-0.28721514
-0.068645276
-0.08109644
-0.1383119
-0.039345283
-0.038916662
0.1815766
0.38995403
0.3568791
0.1469822
0.04031968
-0.02518616
-0.16213258
-0.2773847
-0.22430703
-0.28726295
-0.30900037
-0.35675523
-0.32789987
-0.41855392
-0.37588757
-0.0745302
0.08168577
-0.03744803
0.031555086
0.38980174
0.052616946
-0.081221394
-0.3013811
-0.047744714
0.042969435
0.30831978
0.23077533
0.24016392
0.30224216
0.16972671
0.29085204
0.2513169
0.18409592
0.015636504
-0.14532003
-0.055720262
-0.18922345
-0.21574391
-0.23546642
-0.4688472
-0.21459608
-0.14882696
-0.23259549
-0.35028157
-0.040014535
-0.061845403
0.008464344
0.17163387
0.5621078
0.2355305
0.004501788
0.20614985
0.33184788
0.48586982
0.5504521
0.5107322
0.3773953
0.29308423
0.3857259
0.27727205
0.47669646
0.21906872
-0.096488684
-0.010872678
0.17665175
-0.12565131
-0.26611763
-0.18224752
-0.07225319
-0.29553413
-0.42792186
-0.16082601
-0.053448416
-0.027154762
-0.0016414672
0.06771568
0.22291106
0.01624625
0.22840777
0.45673034
0.30780178
0.30857158
0.50854015
0.6998575
0.72283536
0.864176
0.9264996
1.0246861
0.96916443
0.7514403
0.5648861
0.552784
0.5348818
0.2251542
0.057052173
0.21331987
0.26130152
-0.057852797
-0.24271189
-0.09490359
-0.07866891
-0.021574527
-0.032448716
-0.03909142
-0.006591087
0.168201
0.309732
0.29479203
0.07807325
0.17906334
0.080980785
0.10837513
0.19248661
0.2455154
0.28488684
0.40821958
0.6542345
0.54446733
0.50060344
0.4068457
0.45484278
0.4013891
0.31860223
0.20546879
0.08240873
0.051518094
-0.06246456
-0.05121752
-0.04084899
0.08061552
-0.010498695
-0.085625164
0.010931797
0.04849437
-0.07144567
-0.005434486
0.05823721
-0.029008353
0.0049429047
-0.009380754
0.10985456
-0.053621948
0.0030196307
0.026475212
-0.0060187806
-0.0014823278
0.15406002
0.10468553
-0.042291064
0.15909888
0.060473308
0.10137609
-0.13347222
0.046984196
0.0066486076
-0.017812714
0.021648712
-0.013091683
-0.00872799
0.058736593
0.017724708
-0.07410394
0.060631037
0.03192532
0.061075985
0.047664285
0.0344508
-0.07397261
0.066096365
-0.10097654
-0.19356503
0.048377816
0.043914355
-0.019021876
0.008544497
0.008460395
-0.014037617
-0.045819703
-0.024569798
-0.068596296
0.08444975
0.08558333
-0.02772658
0.031136684
-0.017867818
-0.080986395
0.08462469
0.0075653195
-0.05129379
-0.023158686
-0.19962959
-0.03887784
-0.26433206
-0.100971416
-0.25173676
-0.2120611
-0.36768305
-0.27539188
-0.58682936
-0.4368807
-0.4277251
-0.15088804
-0.6370943
-0.7530412
-0.5227352
-0.40651968
-0.257452
-0.3147231
-0.020627046
0.07080282
0.07250342
-0.036784682
0.016168043
-0.044218995
0.06020458
-0.084952615
-0.11206071
-0.3026004
-0.13191673
-0.2805074
-0.35704204
-0.11048842
0.11483123
0.078896195
-0.02495128
-0.3239178
-0.49487156
-0.72363275
-0.6886387
-0.6281485
-0.5513785
-0.48386136
-0.5983203
-0.49316627
-0.48917797
-0.5789874
-0.28064826
-0.13092265
0.004425191
0.006330237
-0.025616594
-0.0025660694
-0.027374081
-0.049934212
-0.18404177
-0.18150783
0.045014594
0.053236667
0.21303824
0.21091206
0.36420202
0.3087127
0.12746704
-0.12179714
-0.3308984
-0.3262762
-0.40407375
-0.38355246
-0.22597858
-0.4046267
-0.32827243
-0.19062354
-0.07277087
-0.06443483
-0.2018164
-0.21283782
-0.10878399
-0.036858022
-0.08318907
0.024678469
-0.100431934
0.1266319
-0.33223334
-0.089639634
0.108383216
0.19442175
0.28262776
0.25632975
0.26111603
0.10336515
0.10824266
0.08284245
-0.045328505
0.049979288
-0.078484245
-0.09041934
0.047654893
-0.034958232
-0.15854041
-0.11159077
-0.06296145
-0.14487004
-0.17529097
-0.15388115
-0.098678395
-0.14475988
-0.19051823
0.033051714
-0.04704946
0.078981005
-0.0060802656
0.09258461
0.0954626
0.15747526
0.16766912
0.41153094
0.23950215
0.1909473
0.10899024
0.07317042
-0.07471786
-0.043553874
-0.012044675
-0.011222914
0.04542484
-0.08581179
-0.18390661
-0.16228518
-0.24786964
-0.16391058
-0.08085151
-0.12751506
-0.049582385
-0.17589292
-0.07760535
0.011942811
-0.12246266
0.22137724
0.18330294
0.072319575
0.11623124
0.028778275
0.15692255
0.32295468
0.17572445
0.056394078
-0.055699326
-0.065159194
-0.017536703
-0.01965191
0.009538235
-0.062999204
-0.032676417
-0.18546516
-0.111282386
-0.31110895
-0.15367547
-0.32281122
-0.31058997
-0.14116146
-0.0040972917
0.2134486
-0.22013652
-0.06504125
-0.2008197
0.39251488
0.099711336
0.061491024
0.04490365
0.16698012
0.19946322
0.19910386
0.15189455
0.03694567
0.121196255
-0.018349988
-0.09015418
0.03997941
-0.036865067
0.0041060415
-0.21227664
-0.19935456
-0.17666014
-0.17685656
-0.18187211
-0.12987392
-0.32605785
-0.20974784
-0.030280191
0.13821489
-0.24401163
-0.081363276
0.22226183
0.38724342
0.13192669
0.07196121
0.15784378
0.2094816
0.2720511
0.17217982
0.10377959
-0.017940104
0.03406809
0.020526733
0.00041022358
-0.09946483
-0.03459898
-0.10439372
-0.087510265
-0.12986106
-0.16642268
-0.12907448
-0.1510637
-0.18838271
-0.29235852
-0.26181296
-0.13365121
-0.19180724
-0.2837713
0.15314792
0.0409903
0.4659237
0.054027174
-0.058704976
0.23768917
0.1411208
0.08977291
0.03373183
0.08897053
0.049599227
0.1288489
0.14694877
-0.036866203
-0.11295714
0.06887318
-0.022256434
0.10949201
0.04323549
0.0005949854
-1.44889345e-05
-0.18275279
-0.20984577
-0.27020097
-0.498785
-0.48891437
-0.25842053
-0.14357527
0.03713819
0.0635223
0.20444681
-0.04397585
-0.046871707
0.15727574
0.22433303
0.1111078
0.02874958
0.114973605
0.11054253
0.054138813
0.07851906
-0.34351647
-0.351402
-0.09182051
0.09612556
0.13210264
0.20684674
0.11893458
0.073889226
-0.020981751
-0.22418399
-0.5991874
-0.6733043
-0.7405081
-0.46607405
-0.12105041
-0.025589025
0.288786
0.5026898
-0.0002898999
0.28010246
0.3078249
-0.14588797
-0.13693628
-0.059758663
-0.032904644
0.13661847
7.238978e-05
-0.1830543
-0.5626589
-0.5424772
-0.1833797
0.2179057
0.22516224
0.21889015
0.18808866
0.17178062
0.006328527
-0.23050757
-0.66113734
-0.76822263
-0.58936137
-0.40124577
-0.081679806
-0.030400228
0.23308681
0.715177
0.17569228
0.33403796
-0.09887752
-0.4144084
-0.31344533
-0.0019415318
-0.04377609
-0.040461224
-0.035270523
-0.19966549
-0.48904675
-0.41452506
-0.06017587
0.22933649
0.073819615
0.12980643
0.33395067
0.2641879
0.11335081
-0.2272828
-0.6995381
-0.22093043
0.039252684
0.16586818
0.14571469
-0.05300291
0.062156226
0.52181816
0.16714431
0.18928282
0.0027612122
-0.239996
-0.109992705
-0.11315446
-0.024755558
0.092573956
0.16087423
-0.2562361
-0.30897912
-0.26838464
0.061300565
0.2414134
0.24706471
0.33245122
0.41523844
0.46560326
0.17629473
-0.36711773
-0.5169282
-0.04499191
0.4735238
0.5698195
0.19221884
-0.13426083
-0.07618433
0.30595723
0.25184855
0.59227353
0.043352704
0.12787189
0.05577734
0.009208159
-0.0750594
0.114445664
0.13628997
0.036000215
-0.316998
-0.19207576
0.21210097
0.4202952
0.49213198
0.3677364
0.57304406
0.35498577
-0.07582549
-0.43239507
-0.27654177
-0.12993146
0.4170039
0.60875237
0.27635732
-0.07685961
-0.08766127
-0.08175289
0.2323918
0.4410125
0.21217397
0.20269033
0.13528468
0.10563929
-0.10256134
-0.09420276
-0.054559823
-0.1810912
-0.18187411
0.032222126
0.5367223
0.6390082
0.434166
0.40978476
0.38645023
0.19330312
-0.19628079
-0.28457028
-0.2742751
-0.12217368
0.30030948
0.6475054
0.21437138
0.1001924
-0.22776595
-0.21122177
0.13143481
0.29455537
0.21439634
0.30165905
0.29079387
0.1753538
-0.015049736
-0.07247878
-0.017885204
0.03147683
0.21561442
0.3715669
0.53959596
0.5258682
0.46814072
0.335323
0.26256058
0.07865116
-0.12135898
-0.18532409
-0.3011801
-0.0061673084
0.675126
0.6632034
0.23096706
0.07469872
-0.15843385
-0.14435136
0.045545388
0.25933626
0.081211634
0.07659554
0.13769552
0.1864281
-0.05572346
-0.07391628
0.044850618
0.28884414
0.47782996
0.6172269
0.6188225
0.30230048
0.433545
0.225312
-0.0071084113
-0.016696682
-0.19826742
-0.2521774
-0.24062076
0.24022904
0.90673715
0.5696517
-0.00056496053
0.09949297
-0.14832531
-0.23933345
0.10837132
0.21659991
0.15160996
0.11693595
0.11450513
-0.13859807
-0.29392174
-0.18852189
-0.031251263
0.25911674
0.48605812
0.42863348
0.33752427
0.17261115
0.13048999
-0.0021269536
-0.015781261
-0.17756458
-0.0782287
-0.1671831
0.026207797
0.42993993
0.688393
0.57707334
0.12786043
-0.05213166
-0.2691597
-0.25468028
-0.06763791
0.12431163
0.1021946
0.030498138
0.0081930375
-0.22383676
-0.3357188
-0.32056656
-0.2456913
-0.043658566
0.072727
0.07428282
0.042925667
0.046347033
-0.09969652
-0.2412072
-0.1578915
-0.16492279
-0.09653187
-0.089784205
-0.019221323
0.15416288
0.5618388
0.41919908
0.06212217
0.0050527677
-0.13394499
-0.17184456
-0.102232926
0.066787
-0.055239126
-0.03346961
-0.008885845
-0.10099078
-0.16674261
-0.40120867
-0.44382748
-0.42686355
-0.25780103
-0.21102273
-0.21730854
-0.15893999
-0.251635
-0.2782918
-0.210529
-0.18170947
-0.047427528
0.0027789283
0.052339714
0.29115203
0.4529485
0.09312258
-0.0017360538
-0.077388264
-0.057344887
-0.08751508
-0.20884416
-0.0070061227
-0.2706416
-0.3093865
-0.24615203
-0.07532324
-0.060512308
-0.10035565
-0.28941125
-0.36241502
-0.5302358
-0.47239715
-0.4103373
-0.25545803
-0.39481413
-0.31184658
-0.13104688
-0.09038488
0.013224427
-0.00069547846
0.29508656
0.47872612
0.37496984
0.24094236
-0.013719062
-0.043830313
-0.036671795
0.10534258
0.026985299
0.17793036
-0.13645561
-0.18239646
-0.12659083
0.029719543
0.023596492
-0.0224324
-0.13795292
-0.23036672
-0.40014133
-0.23573026
-0.39761597
-0.24124794
-0.40260816
-0.24629717
-0.09383701
0.10231424
0.22247374
0.42151147
0.4649711
0.6244113
0.106932625
-0.24805337
-0.072378255
0.04991527
0.035409816
-0.23270124
-0.17201608
-0.059890695
0.020044927
-0.032013793
-0.060729317
-0.048557535
-0.11780846
-0.052569635
-0.06471676
-0.312176
-0.46204516
-0.33609405
-0.46417758
-0.4045502
-0.29294756
-0.012512513
0.11136777
0.33622828
0.48526993
0.5695458
0.39923504
0.13335289
0.12570283
-0.07362706
-0.064762585
0.019384764
0.00793723
-0.11955634
-0.5923832
-0.23076253
0.06909683
0.056682557
0.06508843
-0.09277512
-0.33072814
-0.2669422
-0.19741172
-0.31557605
-0.20674066
-0.20058186
-0.26569352
-0.09596819
0.087454
0.24088705
0.30666336
0.59213454
0.49534017
0.51657486
0.37067816
0.34980577
0.22805332
0.022740623
0.032175794
0.006816119
-0.011235401
-0.14341056
-0.201297
0.27133992
0.551898
0.35772333
0.31816778
0.17645107
0.13312949
0.1834701
0.35703877
0.3535926
0.36081746
0.45598024
0.52797556
0.38996056
0.38528135
0.4147859
0.43053457
0.60805404
0.41566378
0.24307926
0.1702361
-0.057580967
0.1086543
0.09807521
-0.04575138
-0.038758993
0.08634195
-0.06254712
0.0073842593
0.14180005
0.37827343
0.6194589
0.550559
0.535094
0.4921641
0.57022184
0.4612845
0.36952478
0.46566862
0.7674352
0.54355603
0.47887853
0.44207373
0.48634636
0.44830135
0.2773
0.029242333
0.03405583
0.068788156
-0.04858454
0.082080856
0.023601197
-0.060528185
-0.06224262
-0.013401546
-0.015108794
-0.011322737
-0.016958252
0.022974271
0.07148652
0.2974616
0.3774049
0.26854917
0.14759144
0.068510465
0.17240259
0.46214905
0.51901734
0.3872731
0.40780988
0.5139292
0.38327023
0.27533874
0.10263448
0.2739192
0.14651139
0.08726337
-0.062047318
0.012049332
0.056162864
0.062876195
-0.06142766
0.007555224
-0.023599237
-0.06705388
-0.011489615
0.07960501
-0.07417341
-0.06951952
-0.05053685
-0.023234658
0.013539821
-0.016659953
-0.044599295
0.006025109
0.11770564
0.041048102
-0.024313934
-0.0823688
0.05111897
0.02717217
-0.043725453
-0.029222045
0.006402135
0.07553777
-0.0029952526
-0.019687846
-0.035032358
-0.008779526
-0.0034487993
0.015231073
-0.035438623
-0.06781885
-0.07800692
0.033866197
-0.15029538
-0.07939389
-0.036514793
-0.14986293
-0.19001286
-0.20206785
-0.30852085
-0.095296934
-0.23384856
-0.3464711
0.119799994
0.18851206
-0.044017304
-0.21934013
-0.19740862
-0.044273395
-0.06930634
-0.049244333
-0.060947333
-0.0514146
0.048066437
0.04349816
0.08178137
-0.00082895905
0.05792784
0.07964274
0.08164627
0.034094114
-0.14067788
-0.15418434
-0.20692894
-0.19642644
-0.21309571
-0.15880415
-0.16485955
-0.22429591
-0.08626685
-0.13398287
-0.2358795
-0.046370964
-0.12577672
-0.19900642
-0.21008727
-0.28308788
-0.3296519
-0.2461385
0.12585393
0.15866692
0.0409528
-0.0820934
0.028422467
0.0684879
-0.10591194
0.10769584
-0.07741632
-0.052723672
-0.036506504
-0.019859802
0.06139298
-0.055509172
0.053367972
0.20689486
0.33722576
0.14431873
0.13355903
0.06341725
0.20155635
0.20189123
-0.03240898
-0.022115646
-0.03841995
-0.15779498
-0.2976624
-0.37512857
-0.056438394
0.14999546
0.0041767666
-0.019695714
0.052062303
0.08739096
0.04030672
0.0794766
-0.21662407
-0.20879827
-0.07721886
-0.17381793
0.11336704
0.14695047
0.28501475
0.36395642
0.34949628
0.2233021
0.27274236
0.26801017
0.34355053
0.13930242
0.021580374
-0.0013237752
-0.27058285
-0.24403518
-0.4380084
-0.46331337
-0.07152481
0.21549235
0.16414471
-0.098877355
0.08166546
0.0767121
-0.15958224
0.028139
-0.12772267
-0.09285993
-0.06466588
0.013496394
0.23190753
0.26597157
0.26026917
0.46101674
0.43850833
0.47728252
0.41899127
0.3508139
0.43840194
0.41219294
0.29120895
0.032996915
-0.054943096
-0.061867654
-0.21727249
-0.53773445
-0.23642348
0.37997988
0.112165794
-0.0974836
-0.012748174
-0.01850658
0.17256136
0.21376033
0.044443373
0.11161865
0.1822567
0.30047587
0.4346925
0.4409792
0.3162292
0.43147066
0.39812
0.4849708
0.40061536
0.32610112
0.41113612
0.40897608
0.25601596
0.16126518
0.13447605
0.18169
0.09993362
-0.26866838
0.045338564
0.31999385
0.29050022
-0.030526718
-0.03476289
0.18617414
0.32287687
0.43784085
0.1548825
0.3364456
0.4940374
0.3124518
0.53086406
0.37009674
0.30864385
0.25976723
0.18955448
0.14342707
0.100723684
0.106964976
0.19063282
0.20981404
0.25857916
0.22908372
0.20324832
0.22260478
0.3274886
0.12054993
0.21272378
0.33342516
0.15751186
0.016523467
0.16592741
0.30755267
0.29427636
0.44222745
0.25309265
0.39259
0.35949492
0.2968465
0.42582828
0.4756603
0.4248974
0.2716632
0.31284082
0.13318072
0.17589897
0.10290381
0.2186906
0.18643378
0.2308895
0.31898084
0.40593737
0.32557848
0.44726962
0.6004567
0.646989
0.54258066
0.5159133
0.24371319
0.09189503
0.19503017
0.41483405
0.6529878
0.37677732
0.43978703
0.23992719
0.30619207
0.28802598
0.41730526
0.2868299
0.30174002
0.26995188
0.19184536
0.19720422
0.04820613
0.19254781
0.3438895
0.3434032
0.3547589
0.32726744
0.46319076
0.4682734
0.65757215
1.1092927
1.1136208
0.8457159
0.25749618
0.032983124
0.0646316
0.41686162
0.6320708
0.21752518
0.16205889
0.2219604
0.081559286
0.12825418
0.09227988
-0.008288898
0.16252115
0.074819125
0.053153228
0.17665844
0.07593987
0.24183579
0.398378
0.22966544
0.26484492
0.26846558
0.3342228
0.3686158
0.48453432
0.75851744
0.7647451
0.79368216
0.1897156
0.053558353
0.4052093
0.40265867
0.3324175
-0.09316673
-0.20197065
-0.16282263
-0.1694139
-0.17293426
-0.28740606
-0.26233178
-0.07730253
-0.2267186
-0.054875605
-0.3420009
-0.335444
-0.13289456
-0.055174243
0.014643302
0.025155695
-0.005624625
-0.069458224
0.009718118
-0.08058134
0.16977593
0.18852177
0.4507266
-0.21018055
-0.039847504
0.26863506
0.28792042
0.09561083
-0.26340666
-0.49455658
-0.6845813
-0.38961416
-0.24333045
-0.3496335
-0.4051423
-0.28077564
-0.17991973
-0.41753414
-0.6243037
-0.65939945
-0.31513128
-0.18784645
-0.15234113
-0.02767841
-0.13256407
-0.28153032
-0.68631595
-0.6796194
-0.30134323
-0.08333842
0.32692215
-0.0712554
-0.12734275
-0.07526657
0.3627737
-0.027988272
-0.56567556
-0.68235666
-0.63088083
-0.38486558
-0.39733493
-0.28871334
-0.21225554
-0.10963077
-0.13906391
-0.29502642
-0.40407637
-0.38249686
-0.22295965
-0.10288388
-0.14064035
-0.18720518
-0.24483806
-0.3856347
-0.5734315
-0.6359103
-0.42541084
-0.079768464
0.32095695
0.10487914
0.21075223
-0.23843491
0.2406773
-0.029925672
-0.3156836
-0.44658592
-0.65396166
-0.42590395
-0.44334733
-0.22672623
-0.0087925475
-0.08872804
-0.13488035
-0.13100393
-0.29260334
-0.30788642
-0.28666154
-0.15644042
0.013710272
-0.2073605
-0.28992292
-0.4386991
-0.68660825
-0.5687234
-0.25427133
0.18406203
0.5572413
0.19128907
0.17784837
-0.14749683
0.05115968
0.39533344
0.28558916
-0.15868182
-0.49401236
-0.55158234
-0.398673
-0.235116
-0.18032138
-0.16442144
-0.103628844
-0.26428384
-0.3648863
-0.28633916
-0.26503685
-0.19041014
0.05863541
-0.103959985
-0.24608138
-0.31596586
-0.33397532
-0.32417884
0.12082858
0.32368246
0.5093554
0.3114434
0.050746817
-0.06034064
0.1875386
0.65627325
0.7169799
0.2957834
-0.25966948
-0.67702305
-0.47581792
-0.20770948
-0.25835255
-0.21886812
-0.050597906
-0.18803163
-0.52338916
-0.40188524
-0.20845324
0.18441369
0.111503325
0.106741
0.023173654
0.0016768185
0.13663897
0.26393613
0.47899583
0.40211684
0.6045221
0.22983615
0.0451196
-0.14033347
0.09115793
0.694803
0.8909017
0.5669805
0.11205351
-0.41470852
-0.4312557
-0.31262004
-0.36677864
-0.32384974
-0.23452166
-0.43865687
-0.45357144
-0.3153198
-0.0085935285
0.24958748
0.08925382
0.076176286
0.114379235
0.1233076
0.25097868
0.6182924
0.73581433
0.48735902
0.5492114
0.27073264
0.09276391
-0.106432445
-0.04758081
0.5760173
0.9059868
0.7323019
0.44196606
0.18012315
-0.15494578
-0.30535957
-0.32571408
-0.29086176
-0.36144593
-0.31446174
-0.35569116
-0.11294892
0.048911005
0.18465947
0.12281032
0.17372265
0.16211645
0.30718622
0.3622647
0.56391996
0.81313115
0.48851138
0.2626672
-0.07129555
-0.14855142
0.2976317
0.095407285
0.50695246
0.84623337
0.8004636
0.65407157
0.38917843
0.254018
0.05889577
0.04374696
-0.1232318
-0.013707828
-0.054843727
0.039438684
-0.08130972
-0.042146266
-0.06939247
-0.0024852143
-0.04446571
0.07618421
0.15314832
0.39365524
0.540512
0.71852124
0.5984492
0.090485424
-0.101969115
0.012103468
0.12268026
0.22496401
0.57230306
0.7943605
0.74018234
0.52823496
0.5167253
0.40440482
0.28011024
0.15418364
0.02243195
-0.046468444
-0.05149426
-0.20947716
-0.044168748
-0.20501217
-0.17163353
-0.09221531
0.009936849
-0.018928645
0.14530851
0.494124
0.6511798
0.6141054
0.5514141
0.017398413
0.013999486
-0.097495675
0.014366689
5.911175e-05
0.42250606
0.4510763
0.24499546
0.3858548
0.48415223
0.24303977
0.18167284
-0.061459985
0.073246464
0.049759023
-0.05407244
-0.20206691
-0.10270093
-0.1165012
-0.2249681
-0.07813868
-0.13904992
-0.107568994
0.22969973
0.3258061
0.44298285
0.46083912
0.5140258
0.19288987
0.07415515
-0.20298617
-0.059157778
-0.1479072
0.22600058
0.2902965
-0.2220256
0.11398663
0.32932067
0.37843654
0.318985
0.25755438
0.16897386
0.328474
0.26197153
0.16723664
0.11441756
0.06995017
-0.046367332
-0.0488877
-0.003869388
0.01383622
0.099836834
0.28715056
0.23878069
0.27112818
0.294287
-0.22043695
-0.051909905
0.043509528
0.05458401
0.013424337
0.33430246
-0.07383214
-0.44852284
-0.44396484
-0.039574645
0.0674932
0.12363629
0.42902234
0.45445317
0.3496695
0.40754402
0.49085727
0.28399986
0.3343197
0.023662318
-0.01796338
-0.13209069
-0.06269546
-0.04782311
-0.030623863
-0.07598559
-0.03552896
0.15255353
-0.17849223
-0.014814526
-0.060253922
0.060541973
-0.015681995
0.29391205
0.016391201
-0.36495712
-0.22378579
-0.19103518
-0.06772922
-0.02574057
0.0743456
0.1557451
0.3881855
0.37521735
0.4290979
0.43748894
0.29774132
0.2381804
-5.7452256e-05
-0.13771649
-0.09322516
-0.28982088
-0.37562767
-0.32453117
0.09384251
-0.011904833
0.15901038
-0.06769773
0.054819107
-0.053473048
-0.20490585
0.039480746
0.18433999
0.08982281
0.11281692
-0.03225425
-0.19642146
-0.0894674
-0.023025587
0.14223357
0.109630875
0.08149393
0.023852807
0.33033255
0.31771952
0.240808
0.28948823
0.21795253
-0.20820503
-0.0040560826
0.06519815
-0.07669654
0.13738428
0.11630167
0.1514552
0.017029583
0.0066881254
0.07205813
-0.01788205
-0.11445841
-0.21998048
-0.016643828
-0.13121866
0.017303146
0.12996547
0.22329868
0.14869726
0.17646994
-0.010828411
0.16379163
0.2449679
0.26249826
0.34218296
0.40308163
0.4005935
0.5254359
0.121841885
0.09203654
0.3462307
0.12533264
-0.00374025
-0.039716836
0.023934409
0.06909716
0.050617844
0.03688497
0.038688287
0.03652242
0.16366106
0.20988078
0.3280679
0.2303312
0.4381478
0.4783517
0.68809617
0.3748843
0.42676884
0.8154992
0.6753751
0.4665498
0.71210814
0.7394048
0.43916708
0.42493337
0.10336506
0.2105172
0.23120572
0.3248941
-0.011520483
0.038804144
0.05409661
0.060641497
0.0569949
-0.013932273
0.06216088
-0.040939283
-0.04565632
0.048906267
0.020666502
0.07387918
0.010834113
0.048822314
-0.028586242
0.06451151
-0.09240849
0.08049227
-0.025408827
0.11302491
0.023334593
0.055315822
-0.053932663
0.028207876
0.05970122
-0.008712567
-0.043003965
-0.06404768
0.004166782
-0.023305155
0.040979818
0.036107585
-0.07416371
-0.06346311
-0.008144692
0.06776267
-0.0036546974
-0.15712166
-0.31755632
-0.33146685
-0.3868987
-0.3545022
-0.50644755
-0.37469146
-0.08122443
0.034684636
-0.014862949
0.15320651
0.2997965
0.07934796
-0.14290865
-0.3302694
-0.24255218
-0.18721515
-0.060032085
0.01537614
-0.031850927
-0.054408222
0.038685128
-0.0062702
0.009920679
0.0349883
0.006956746
0.1613699
0.06858259
-0.26600915
-0.40640908
-0.5884492
-0.7001943
-0.37119496
-0.4784639
-0.40151966
-0.27660856
0.011657334
-0.072708815
0.061661992
-0.017641507
0.016583344
-0.21304008
-0.5742953
-0.5967979
-0.71444666
-0.5782225
-0.44036925
-0.25668344
-0.039452337
-0.046497755
0.07526301
-0.058325082
0.07290664
0.07891298
0.21593423
0.021384334
0.13634717
-0.18133162
-0.23155703
-0.20531173
-0.046037912
-0.039055493
-0.060334753
0.17627116
0.2968597
0.14233461
0.2613141
0.20778127
0.04089225
-0.3291156
-0.20225114
-0.39352196
-0.58704853
-0.8742659
-0.92688876
-0.58813375
-0.26633605
-0.12432931
0.036594294
1.809001e-05
0.0901219
0.20827912
0.24690773
0.31946242
0.47335073
0.26115188
0.2451279
0.19325665
0.040885363
0.07915364
0.15060541
0.13985027
0.35931107
0.27770206
0.28515112
0.10626419
0.037569407
0.041076485
0.09749899
0.023909442
-0.1001401
-0.14473231
-0.31245628
-0.4817847
-0.74124765
-0.33976805
-0.26722702
0.067607045
0.010846525
0.17098533
0.35376897
0.6140611
0.7733141
0.5225225
0.39921612
0.09074943
-0.044527996
-0.06539227
-0.1474697
-0.1395043
0.084490076
0.004940651
0.21274416
0.32296807
0.1367501
0.13681252
0.19714011
0.07032913
0.060198784
-0.04705985
-0.092990644
-0.34532088
-0.92896354
-0.38126272
-0.1265734
-0.061317362
0.103311844
0.030602815
0.67265517
0.7225807
0.70111483
0.64459527
0.301004
0.1492807
-0.031924285
0.03670049
-0.18992156
0.0027499944
0.052349567
0.08287796
0.030079791
0.22437535
0.049026776
0.17527841
-0.023524698
0.06817165
0.27857703
0.060689222
-0.37185854
-0.55939424
-1.0429934
-0.4410128
-0.08450834
-0.07082761
0.2753033
0.11905362
0.7563831
0.83883005
0.8559827
0.57914615
0.22365353
-0.0929148
0.058670808
-0.07268681
0.022108616
0.117397256
0.020096986
-0.0017992224
-0.01916855
-0.074453786
0.112637274
-0.039083045
-0.06304903
0.056265112
-0.058525037
0.1451381
-0.29921144
-0.868494
-1.011676
-0.42961314
-0.23382434
0.103398755
0.27851152
0.37083822
0.7738488
0.92516714
0.68151397
0.33387038
0.18557207
-0.08848247
-0.1357147
-0.089141734
-0.11268333
-0.08369103
0.1550128
0.21068475
0.33407965
0.20609209
0.19577901
0.22069903
0.1716057
0.14404632
-0.14149868
-0.09237766
-0.36241165
-0.8261573
-0.9447266
-0.5925801
-0.20027396
0.12351058
0.3955077
0.41185147
0.8842069
0.8903543
0.5630992
0.26051006
-0.0018434353
-0.21727215
-0.24147369
-0.2141022
-0.38374895
-0.30472928
0.26873064
0.72774136
0.68992645
0.42203292
0.33044672
0.41217712
0.30224302
0.14047553
0.07821521
-0.059617728
-0.29854912
-0.88512814
-0.9647769
-0.4125875
-0.1595623
0.124382466
0.3768297
0.61138827
0.963753
0.75517505
0.6535773
0.10360916
-0.16916099
-0.35976624
-0.22801226
-0.24613199
-0.5249175
-0.5687813
0.05190129
0.8426117
0.73889416
0.6495166
0.55174845
0.5493874
0.38222066
0.3487549
0.18465464
0.0077996003
-0.2585604
-0.56662977
-0.8754105
-0.42470282
-0.004728187
0.07179551
0.3243845
0.65194
1.0070713
0.7202366
0.28359744
-0.17274551
-0.35028964
-0.43193156
-0.3089607
-0.39588556
-0.43648255
-0.5827821
-0.4504478
0.35131085
0.47676995
0.29092813
0.28723997
0.342474
0.36237505
0.34065303
0.26090962
0.24700266
0.005197382
-0.46900854
-0.6874256
-0.24982144
0.0109883575
0.09348819
0.29174936
0.5520119
0.78202915
0.7463098
0.024277668
-0.4699318
-0.349792
-0.30954248
-0.2124117
-0.19678688
-0.5167116
-0.68386114
-0.6911581
0.0050338535
0.030656792
-0.004593484
0.033817727
0.035733923
-0.20643651
-0.096255146
-0.20319088
0.056731258
0.18289928
0.1385321
-0.04552024
0.13710508
0.30618602
0.11733961
0.2481389
0.3918984
0.811565
0.5070355
-0.10558501
-0.36814705
-0.23977801
-0.1547717
-0.1028173
-0.13755575
-0.46025637
-0.7525749
-0.45452335
-0.074723475
-0.24878466
-0.16653144
-0.160471
-0.17276335
-0.23364876
-0.33270064
-0.16468558
-0.02867115
0.3525554
0.49244097
0.25437242
0.4739613
0.16855158
-0.13695332
0.037175346
0.33032113
0.46117398
0.2715924
0.039612193
-0.17998433
-0.12166569
0.016361529
-0.17106164
-0.34099865
-0.61840796
-0.5760096
-0.24854408
-0.040690515
-0.20781626
-0.24106735
-0.0964552
0.06564386
0.0779971
0.027767655
0.048217006
0.253021
0.41476062
0.36382562
0.18261665
0.78985417
0.15435895
-0.08815535
0.08225082
0.091190755
0.29698378
0.38035426
0.44980976
0.18189642
0.09693408
-0.069319874
-0.22455162
-0.33429372
-0.4159414
-0.39996773
-0.03690587
0.058691945
-0.016743733
-0.16191956
-0.04254668
0.120598726
0.121585794
0.23551589
0.4048763
0.44257766
0.36652294
0.24519719
0.08042611
0.8389143
0.3953005
0.06843151
0.1537221
0.30012792
0.45403695
0.5926616
0.47464275
0.27205652
0.12759456
-0.13786153
0.016668024
-0.29471323
-0.40105394
-0.28307706
-0.058367323
0.02192508
-0.03948686
-0.018035665
0.057685487
0.124428414
0.2617761
0.2720045
0.45197132
0.30927566
0.34079456
0.3210679
0.24554192
0.8481172
0.46930087
-0.08415408
0.076334685
0.33528912
0.5428218
0.3224521
0.4364136
0.08186575
0.027942067
-0.06415017
-0.19634147
-0.13610405
-0.33309576
-0.284423
-0.06073708
0.07718358
-0.048604514
-0.008461971
0.06092196
0.12582156
0.20398575
0.14174005
0.17816305
0.17096616
0.00954462
0.0407774
0.5278091
0.8729918
0.39299312
0.10880249
0.1048791
0.3276682
0.6089537
0.3150938
0.09887759
-0.13989855
-0.10825756
-0.06496566
-0.24057177
-0.28733492
-0.40824422
-0.3767597
-0.033856563
0.09193085
0.1272045
-0.02303522
0.13119178
0.17821793
0.1863611
0.0117893545
0.18248117
0.18898813
-0.00069982227
-0.03478638
0.40684268
0.6171202
0.40760568
0.017527046
0.28026295
0.48043916
0.76500934
0.3439693
-0.058534965
-0.09462893
0.0050684083
-0.1150419
0.032280948
-0.18252504
-0.27496055
-0.22033973
0.05343828
0.13983202
0.025138078
0.04708335
0.15181392
0.18618323
0.12222459
0.15336207
0.08037734
-0.027356768
-0.17401813
-0.115434125
0.5098396
0.5981212
0.274151
-0.07720437
0.13247728
0.15179767
0.62322795
0.4586795
0.04539089
0.082837835
0.08547253
0.15395828
0.23963308
0.17062405
0.11292325
-0.03686871
0.09859515
0.17904904
0.060440708
0.04693818
0.10554786
-0.0018005145
0.028659457
0.08211616
0.060688313
-0.10901966
-0.32723618
0.15210938
0.44151005
0.44433013
0.07149977
0.023560291
0.061162762
0.0232057
0.37804726
0.2832355
0.15156189
0.12682632
0.22573644
0.039736282
0.15034372
0.051160417
0.052070275
-0.12848386
-0.09132157
0.09580822
-0.012803739
0.082091644
-0.0060261493
0.08995913
0.018739363
-0.09292332
-0.01742328
-0.21196891
-0.1756142
0.3449602
0.47597185
0.38614836
0.08185684
-0.034987036
-0.024041781
0.17267153
0.14506496
0.111055814
0.19902508
0.32797012
0.31998917
0.13058443
0.09159676
0.14623186
0.02100842
-0.11463559
-0.1816118
-0.12376117
0.11292688
0.04477193
0.06964772
-0.045933962
0.11654425
0.023376733
-0.23615964
-0.1873767
-0.15516208
-0.027435604
0.1902482
-0.02845337
0.08657878
0.00095594674
-0.019962028
0.1011131
-0.032463074
0.23587228
0.25379124
0.362631
0.37448433
-0.0076268557
0.0827568
0.088464625
0.043651145
-0.0003421027
-0.14506692
-0.02917478
0.01779693
-0.06955039
0.13609841
0.041825067
-0.21062419
-0.5395374
-0.47907642
-0.4065031
-0.55492646
-0.20523258
-0.116900064
0.1781613
-0.01823347
0.031669617
0.07605858
0.16583641
0.06083894
0.39720842
0.4948114
0.38746083
0.27852982
0.03436253
0.033702224
0.02640307
-0.05836476
0.05855111
0.088301554
0.0698936
-0.11174595
-0.105091006
-0.21747725
-0.42697972
-0.6072093
-0.73855233
-0.6567104
-0.39070588
-0.45251137
-0.23742744
-0.017940179
0.21974066
-0.059623614
0.029547617
0.044285253
-0.13124575
-0.058431853
0.072168075
0.26415673
0.12711787
0.07800354
0.34231624
0.2194857
0.12106302
0.27082193
0.20152225
0.06815347
-0.08548819
-0.078891665
-0.23493177
-0.2681897
-0.05630778
0.0018465533
-0.46775624
-0.31167972
-0.19786455
-0.55771434
-0.204825
-0.1390511
0.07311248
0.013045661
-0.07223704
-0.08632326
-0.07686196
-0.11141824
-0.23667976
0.15065561
0.061996482
0.14881101
0.22746411
0.14586622
-0.014186566
0.09347551
-0.049983963
-0.029709665
0.019053688
0.08945859
0.18592644
0.26325223
0.30292964
0.42808127
0.15522295
0.18398848
0.27367184
-0.06396389
-0.020103041
-0.04822
0.048458874
0.041368797
0.011320263
-0.016574226
0.079691514
-0.016373917
0.033007253
0.15098381
0.02119947
0.10115489
0.26199093
0.4683753
0.42347646
0.2265221
0.20446956
0.73096544
0.35549527
0.30296266
0.37780067
0.48305783
0.36710253
0.4729613
0.24690971
0.1710526
0.19030339
0.28674543
-0.08537304
-0.08193972
-0.048549242
0.07056028
0.054515734
0.070210755
-0.04352893
-0.022264674
0.07440473
-0.053440403
-0.045057848
-0.06198977
-0.057579163
0.0781351
-0.08003464
0.031923525
0.21162173
0.19184016
0.049808923
-0.048417926
-0.07085608
-0.03760524
-0.04113052
-0.01362747
0.07479975
-0.033900082
0.041419044
-0.07120337
0.006839946
0.06609543
-0.007312946
0.024299175
0.043681145
-0.08016683
0.074805856
-0.016008168
0.07899664
0.12389697
0.2607052
0.39006144
0.25989723
0.28594664
0.32262984
0.3388697
0.3291936
0.39128837
0.10689202
0.3409705
0.23365209
0.18850513
0.40311506
0.46112025
0.41431597
0.24356039
0.2898467
0.10779617
0.020108506
0.012899682
-0.06649765
-0.05619356
0.046711877
-0.043538988
0.10638535
0.061465777
0.23035967
0.20222823
0.30921465
0.65352416
0.6878922
0.9035957
1.1211728
0.9385905
1.1705034
0.9563725
0.8139415
1.0203846
0.8785838
0.850813
1.0360798
0.820764
0.78633183
0.55832756
0.37606293
0.4029002
0.3608899
0.052269366
-0.00017213821
0.027058072
0.080850124
-0.058477666
0.044197526
0.27103645
-0.022964599
-0.099603996
0.19418523
0.51064014
0.8078304
0.7432887
0.60889536
0.45378694
0.32937065
0.49329844
0.3436642
0.28034678
0.12629631
0.15732314
0.2519272
0.21871924
0.4451156
0.46996123
0.60085875
0.6834654
0.43321592
0.03426521
0.049339697
0.005659193
-0.028548416
0.033713583
-0.011577421
-0.080670394
-0.35196328
-0.020855952
0.132658
0.18606871
0.15117058
0.17165485
0.046051834
-0.04863804
-0.030307524
-0.00898957
0.20339838
0.10188771
0.11421209
-0.034990843
-0.07805325
-0.018449457
0.26198956
0.22525524
0.058720462
0.019382106
-0.14839159
-0.029016906
0.1631874
0.33784208
-0.057532065
-0.067979306
0.2698793
-0.37482303
-0.4216858
-0.21381201
-0.06726933
-0.10530381
0.0081384415
-0.14328708
-0.19241314
-0.022255635
0.035646908
0.050339263
0.12256467
0.008340135
0.008209647
0.12422268
0.12998852
0.059617214
0.14449266
0.13053904
0.03651252
-0.1416333
-0.21247952
-0.212968
0.18450853
0.257134
-0.05360164
-0.048682388
-0.19176143
-0.29917282
-0.28211683
-0.19763121
-0.20009385
-0.03232811
-0.21127746
-0.10759387
-0.11238254
-0.13173042
0.029281184
-0.03598888
0.08392565
0.067344785
0.09596999
0.019639507
-0.046993583
0.0034627896
-0.09751573
-0.15643373
-0.22466774
-0.20557763
-0.32195476
-0.07927733
-0.06873433
0.14230414
0.062170435
-0.23272045
0.107865036
-0.26975596
-0.11961147
-0.030170133
0.058018383
0.070795484
-0.040391102
-0.23011744
-0.16199473
-0.13197201
-0.18521355
-0.018547503
0.06804517
0.11297321
0.10786515
-0.09876854
-0.111377224
-0.12875865
-0.20981652
-0.20451213
-0.15411605
-0.27868053
-0.1420155
-0.27401647
-0.12867412
0.12877592
-0.11592622
0.017517667
0.20688169
-0.07873743
0.1128059
-0.03272072
-0.03416341
0.029616833
0.025600392
-0.16656213
-0.043231003
-0.067570016
-0.11239465
0.084683396
0.09177704
0.05545594
-0.058951173
-0.17580555
-0.3813027
-0.2798779
-0.32873377
-0.2898596
-0.2235862
-0.27055338
-0.27382138
-0.21181269
0.08544481
0.12614346
0.06709381
-0.20748727
-0.084582664
0.15104078
0.3304027
0.21177189
0.07106294
-0.008565783
0.03671763
0.043793023
0.15041943
0.117483884
0.046675242
0.010521282
0.015479279
-0.23708041
-0.4739087
-0.33230022
-0.43904757
-0.35147986
-0.287289
-0.28704152
-0.2325388
-0.069417365
-0.24520029
-0.27346683
-0.0048391074
-0.14183615
0.018994965
0.13258478
-0.017013766
-0.01641447
0.25643924
0.19249578
0.22177824
0.1418787
0.109456256
0.022133937
0.0813961
0.000621894
-0.14635
-0.15716338
-0.10466902
-0.7117505
-0.58665
-0.49667147
-0.1357127
-0.23159067
-0.18085407
-0.12920012
-0.17360687
-0.08919311
-0.22877991
-0.5436274
-0.19149026
-0.13831544
0.014291373
-0.075720824
-0.31755078
-0.28887072
0.16017471
0.34854537
0.16070542
0.15064211
0.11675696
-0.056019697
-0.0858753
-0.2798901
-0.419151
-0.20047599
-0.13992256
-0.49669525
-0.59410095
-0.38212812
-0.013978273
0.068488844
0.03006724
0.16349366
0.06375025
0.1426576
0.10114094
-0.25273487
-0.14540808
-0.11939856
0.056768227
0.14235778
-0.35036957
-0.084038325
0.033982337
-0.0043027154
-0.029664624
0.0015778803
-0.17177625
-0.14900428
-0.27326664
-0.4412275
-0.3417391
0.023679197
0.12572466
-0.2809748
-0.2619003
-0.113459535
-0.009558072
0.09772253
0.11997413
0.22132778
0.14279847
0.16404766
0.2568112
0.0738247
0.11854485
0.18666555
0.0280645
-0.04524206
-0.027563628
-0.0751149
-0.32653582
-0.32749557
-0.28677687
-0.34617734
-0.2138747
-0.20736438
-0.40968084
-0.3769618
-0.09216183
0.3417494
0.325687
0.09682363
-0.08849476
-0.10681905
-0.10720027
-0.103520066
-0.050989553
0.008547709
0.06537264
0.045626745
0.0539343
0.07290388
0.2278557
0.22316477
0.1807684
-0.23867927
-0.17375404
-0.27913445
-0.69026697
-0.5384016
-0.3949257
-0.22960773
-0.23994198
-0.24532811
-0.3328459
-0.12203338
0.10326588
0.53742015
0.47099563
0.3557077
0.0014901967
-0.12298843
-0.16606657
-0.36780185
-0.19743353
-0.103295706
-0.0315906
-0.029960353
-0.18080936
0.073683694
0.42694247
0.16255827
0.09412424
-0.21771023
-0.131762
-0.032268625
-0.42723325
-0.37060055
-0.18761106
-0.23735987
-0.3428149
-0.27941877
-0.22327831
0.019723468
0.3145633
0.5273127
0.570568
0.20539038
0.08091235
-0.022516739
-0.26914987
-0.26040182
-0.2181267
-0.100308925
-0.13462651
-0.27480623
0.013786312
0.41495958
0.1950934
0.29391456
-0.014749749
-0.17492907
-0.11837926
0.12638332
-0.19014214
-0.07376055
-0.1068881
-0.22496602
-0.18442221
0.021522595
0.21519686
0.31635973
0.2134368
0.391305
0.3867152
0.20979716
0.14205737
-0.13787687
-0.19148447
-0.1130202
-0.20191398
-0.07314145
-0.22683924
-0.14580478
-0.15885654
0.5642247
0.37627885
0.20268211
-0.061491977
-0.21397056
-0.10872581
0.0452765
-0.17510732
-0.13676567
-0.060855065
0.0028814191
0.118005425
0.3413756
0.4266912
0.37449172
0.22056775
0.21569592
0.184443
0.08193172
-0.034350358
-0.1146069
-0.11419697
0.045661226
0.0051083895
-0.09229517
-0.113858186
-0.04642186
-0.0039866087
0.6099755
0.2847805
0.10024016
0.06776072
-0.16984996
-0.30248582
-0.0617144
-0.18545626
-0.035537478
-0.09480006
-0.033779643
0.16020417
0.17669833
0.3302057
0.2654082
0.29242036
0.2520061
0.1624931
0.1466455
0.030760203
0.13758461
0.18225786
0.08708248
0.06298291
-0.036622334
0.018170359
0.016185531
0.0016110932
0.70378864
0.12615854
0.173144
0.028197862
-0.21515648
-0.43707335
-0.17350535
-0.21363296
-0.18019295
0.03738694
-0.050264604
0.14999278
0.29235035
0.24755478
0.24693826
0.29030365
0.2619939
0.23863092
0.16966379
0.12902077
0.23985268
0.23450965
0.15942904
0.098388255
-0.049872078
0.049587253
-0.0077470867
0.0705511
0.42417306
0.40146226
0.17226563
0.033466004
-0.19616123
-0.4554576
-0.2704648
-0.30714297
-0.052589875
0.053716365
0.2601151
0.12559654
0.23116362
0.26260838
0.29559958
0.2855172
0.15338716
0.16018003
0.17479043
0.10994052
0.020213665
0.12961988
0.08894319
0.112294994
0.058921743
0.095243484
0.05849783
0.024165763
0.19775839
0.18499656
-0.024217924
0.0025633452
-0.17635438
-0.097382404
-0.12965153
-0.13013223
-0.023377988
0.086952366
0.2363952
0.09526621
0.11132175
0.2158745
0.17606771
0.121757366
0.23568004
0.15944104
0.060265932
-0.016125428
0.1843178
0.12370336
0.104019076
0.07323126
0.11086901
0.15360649
0.14093003
-0.02743685
0.31072915
0.09311441
-0.07957957
0.009181351
0.034314107
-0.113542005
0.007593625
0.16029051
0.2760251
0.21307315
0.21054372
0.08962673
0.0787429
0.054762896
-0.08246004
0.052410267
0.013624051
0.05979973
0.08966765
0.020021936
0.11941113
0.19995162
-0.0087280655
0.042955305
0.13919386
0.015107754
-0.13710958
-0.070832744
0.20392333
-0.15410598
-0.08504263
0.073884726
0.061993197
-0.31876844
-0.48178726
-0.17472103
0.088847384
0.11033906
0.009051792
0.16259633
0.13603419
0.010440304
-0.099615805
0.07916466
0.05808948
-0.012589165
0.052842144
0.18185124
0.061360296
0.121712
0.083760574
0.17972356
0.22272599
0.17176373
0.106028415
-0.06260962
0.098422796
-0.056924187
-0.04183863
-0.074609324
-0.07980624
-0.15484808
-0.83455855
-0.83886284
-0.7173517
-0.6144826
-0.4659495
-0.24042593
-0.13900055
-0.11093743
-0.0015182564
0.054549575
0.12105081
0.12124238
0.12208236
0.2455604
0.22048923
0.21937473
0.2716171
0.202971
0.13064627
0.02939979
0.09186144
0.2204896
0.274776
0.18938212
0.0070217922
-0.06152528
0.04805027
-0.06609572
-0.34139544
-0.63505775
-0.9655748
-0.8345691
-1.0079668
-1.0171047
-1.0707417
-0.7369777
-0.3767848
-0.21462609
-0.23130865
-0.03673213
0.1442272
0.2939432
0.5886481
0.50371194
0.31186977
0.26660624
0.0067319516
-0.46100432
-0.40058416
-0.15607168
-0.14448427
0.16575193
0.06867951
-0.0049459785
-0.02295947
-0.008974604
-0.13033742
-0.3363465
-0.36789447
-0.504269
-0.39563602
-0.34934348
-0.34517828
-0.2847858
0.061903358
0.19405971
-0.103937596
0.06098403
0.01200533
0.24753794
0.3933595
0.31539732
0.20415428
0.21627502
0.019573363
-0.22603956
-0.030936595
-0.15296239
-0.049470115
0.032462656
0.02318085
0.031064436
0.06986791
0.057896316
0.045207113
0.022394095
-0.11210268
-0.017404731
-0.04752314
-0.029788135
0.046374474
-0.08016083
0.11670762
0.3946445
0.17358214
0.621437
0.52303886
0.46676692
0.3013115
0.0713232
0.06781093
-0.06514746
-0.11911414
-0.17396931
0.0568485
0.053658366
-0.045359552
-0.069559224
-0.027272515
-0.024970759
-0.010067381
0.06458014
0.072579846
-0.026272077
-0.069832265
0.027059823
-0.083321504
-0.03589733
-0.07632271
-0.06652893
0.024944969
-0.15603717
-0.16045551
-0.0057693333
0.034098256
-0.050109606
0.028985903
-0.02259487
0.08527069
-0.06587306
-0.050727837
0.004331343
-0.031790037
0.053891644
-0.085309766
0.015660606
0.014501467
0.06781596
-0.0102388635
-0.0013580173
0.022178784
-0.05457096
-0.08792639
-0.14018668
-0.29734388
-0.18518607
-0.31049234
-0.31671956
-0.4068463
-0.31312507
-0.41761914
-0.052094497
0.072859995
0.1560661
-0.06175945
-0.21859708
-0.38039255
-0.28274325
-0.1631725
-0.21619728
-0.08579687
-0.001546219
-0.003977813
0.04914452
-0.07195381
0.08599532
0.022003584
-0.012290482
-0.08153995
-0.22340316
-0.38055092
-0.4337182
-0.46128738
-0.4551576
-0.44004962
-0.33149144
-0.31482023
-0.2908252
-0.1919315
-0.2601677
-0.105629966
-0.0613746
0.026184704
0.007297721
-0.37161598
-0.37793988
-0.4301305
-0.46390826
-0.3151555
-0.11604393
-0.01747983
0.06376578
-0.04107479
0.026492596
-0.05049165
-0.080174446
-0.1514474
-0.087866105
0.1876823
-0.3156377
-0.33052373
-0.27638775
-0.18932435
-0.1340857
-0.14900579
-0.010962783
-0.058763377
-0.020737281
0.0657807
0.047565795
-0.059710763
-0.10225257
-0.326732
-0.39284852
-0.5481788
-0.4477518
-0.5435916
-0.5668254
-0.08712983
-0.002126061
-0.061642148
-0.048785247
-0.056331873
0.09028185
0.020463247
-0.15305498
0.14530411
0.2068538
0.12395538
0.2509871
0.08452121
0.25513336
0.22548096
0.37996647
0.23256305
0.3185143
0.2619541
0.14074808
0.0059972126
0.057513256
0.07864314
-0.006311013
-0.28873497
-0.42266238
-0.5793975
-0.33425862
-0.04935056
0.12667502
0.17517161
-0.007766612
0.06964353
0.179434
0.3202887
0.2787536
0.4396635
0.29220065
0.095572285
0.09733021
0.08744297
0.009128926
0.03397082
0.15417023
-0.029513022
0.0122052105
0.09959366
0.08706602
0.02963603
-0.05425249
-0.03283593
-0.11192341
-0.06695737
-0.21403933
-0.32348204
-0.24404025
-0.0078884885
0.161019
0.120439164
-0.014121734
0.018500125
-0.27217025
0.27392974
0.268661
0.1425802
0.0523852
-0.07962261
-0.06963084
0.0056739426
0.061798513
0.029244563
0.04775406
-0.04609156
-0.012802695
0.11210489
-0.005818441
0.07157389
-0.018166574
0.06031818
0.06435453
0.046012316
-0.25860575
-0.170734
-0.13822348
-0.3500921
-0.14281666
0.09490409
0.08440649
0.079291716
-0.025655827
0.12519787
0.37672386
0.16386
0.02115238
-0.038047027
0.023140913
-0.038635205
0.043304358
-0.031766653
0.07449676
0.14952691
0.031243265
0.048847232
-0.07802473
-0.16462673
-0.07820139
0.035012618
0.105392285
0.060262516
0.07684663
-0.023478018
-0.07213104
-0.20753656
0.0009398227
0.24778464
-0.21388353
-0.03559457
-0.3145884
0.12433527
0.3578819
0.17137812
0.053653903
0.14055851
-0.16395457
0.0005689939
-0.03619559
0.0020271235
0.09323294
0.1952125
0.06227151
0.10634417
-0.041728336
0.074420944
0.13228516
0.1522647
0.14775062
0.06923941
0.19290973
0.17587121
0.14911723
-0.052578337
0.15212247
0.22664706
0.021105688
-0.19981737
-0.2670431
0.06524692
0.2919775
0.05714933
0.12749079
0.09391151
0.048702
-0.069191545
-0.16336542
-0.055411506
-0.22529078
-0.028976565
0.107701786
0.15259561
0.14723408
0.13129011
0.12523592
0.1603039
0.25977
0.26687145
0.41850957
0.30221674
0.28732562
0.12822454
0.14829461
-0.13501298
0.019634062
-0.16934481
-0.17837226
0.07348468
0.18025844
0.10731209
0.232645
0.12347028
-0.030465882
-0.0733047
-0.19984145
-0.2867129
-0.3051253
-0.15178142
0.38210735
0.31868607
0.05569712
0.13126227
0.1467256
0.25767037
0.10492925
0.22711833
0.33840835
0.51026195
0.49007866
0.31467777
0.3092591
0.020265518
0.016256498
-0.15026438
-0.309445
0.10317767
0.0744711
0.13806921
0.08640075
-0.10792733
-0.1512827
-0.19048119
-0.27029708
-0.41458303
-0.416843
0.21143624
0.65948147
0.1814697
-0.113759555
-0.014767205
-0.02406486
0.13959353
-0.13711894
-0.06929866
0.080766976
0.23141943
0.48967856
0.5931894
0.47826552
0.06276267
-0.021487923
-0.1456552
-0.42222
-0.0055878027
0.059678826
0.026806094
-0.44143757
-0.3488743
-0.36513755
-0.2724086
-0.40159398
-0.5402091
-0.25598788
0.32104594
0.5723013
0.17089297
-0.18829821
-0.13764198
-0.03437625
0.042999677
-0.07212062
-0.061002083
-0.1630326
-0.21965608
0.11270765
0.41366923
0.529734
0.030356482
0.053637184
-0.19049554
-0.13288693
-0.18669267
-0.5113307
-0.6191114
-0.66916955
-0.5649033
-0.4306621
-0.17715208
-0.28443563
-0.39314774
0.10691072
0.4553961
0.48222706
0.16864023
-0.089785986
-0.071422055
0.039486416
0.03481605
0.029453404
-0.113004364
-0.4098514
-0.52272105
-0.14850107
0.28763843
0.6270217
0.2848413
-0.031077044
-0.014763158
-0.21576943
-0.31335577
-0.50086194
-0.8429873
-0.69131964
-0.40656677
-0.26691717
-0.12786502
-0.23021261
-0.13593599
0.20410916
0.4687616
0.42066178
0.09932094
0.023786593
-0.006522007
0.20046276
0.017476331
-0.20069435
-0.1435762
-0.32650167
-0.46610266
-0.4361712
-6.793684e-05
0.8765736
0.30487147
-0.15539339
0.020750154
-0.046822283
0.14322624
-0.22202668
-0.6396201
-0.52228194
-0.32880336
-0.25243503
0.015367707
-0.075020045
-0.092403054
0.19351575
0.59787285
0.44450158
0.11189096
-0.0010290558
-0.1429115
-0.16124992
0.007346935
-0.13887052
-0.1794806
-0.35816655
-0.40194285
-0.2961882
0.04447886
0.4879327
0.3695239
-0.07371552
0.043642834
0.15985705
0.54912066
0.09805169
-0.21980897
-0.14689161
-0.20398237
-0.2504768
-0.0797853
-0.040809345
-0.03995651
0.32838413
0.6363028
0.39060858
0.032310747
-0.09596066
-0.14471743
-0.21289335
-0.23132665
-0.23264712
-0.1839891
-0.19522692
-0.015666699
0.05248991
0.2158577
0.6687379
0.164432
0.03039983
-0.0060341484
0.23058805
0.56042033
0.29399225
0.08617957
-0.116249144
-0.07379911
-0.07484771
-0.033890124
-0.17562723
-0.0028583102
0.5136254
0.61665326
0.22646132
-0.23873684
-0.15192187
-0.23372649
-0.2514993
-0.119427115
-0.096382156
-0.118807614
-0.032317188
0.17580916
0.17872961
0.30124253
0.68441105
0.26870093
-0.010368274
0.03485524
0.088487044
0.43900248
0.101034135
0.33822194
0.21922357
-0.063164264
-0.07984515
-0.090523325
0.024704387
0.19044612
0.5773339
0.4912783
0.03904805
-0.19527514
-0.21395081
-0.13971484
-0.01584696
0.051146306
-0.0075783357
-0.042140834
0.14424519
0.30613044
0.12594526
0.40099198
0.2719496
0.23420016
-0.014052873
-0.16906446
-0.044551205
0.1471935
-0.14150408
0.31862536
0.1229857
0.13172448
0.09310813
0.22563371
0.25521302
0.21415648
0.32767028
0.20306371
-0.23363455
-0.08338185
-0.024078349
0.008714424
0.10239287
0.07448369
0.028923232
0.15583274
0.3111569
0.35623705
-0.04836847
0.39044493
0.3523511
0.19286129
0.00061108917
-0.16579725
-0.057437684
0.095823266
-0.24796769
0.082773246
0.26388073
0.23420258
0.3139276
0.33133104
0.29588506
0.19039683
0.021958956
-0.058351878
-0.14595252
-0.20574984
-0.034264155
0.012654004
0.03818909
0.050138034
0.21531233
0.271449
0.13734102
0.36857134
0.072875924
-0.08707088
0.05915312
-0.03573532
-0.075257406
0.074728
0.2552626
0.16741455
-0.0592139
0.027480263
0.13024563
0.23718023
0.33547235
0.36307648
0.2409547
0.008520618
-0.22232813
-0.07109696
-0.061103683
-0.18966798
-0.11185004
0.096285276
0.12745735
0.07834628
0.15374663
0.16577558
0.1387657
0.22155347
0.014063617
0.0358445
-0.07235444
-0.029476551
0.010156753
-0.027765032
0.30382776
0.35833353
0.2509156
0.036331236
0.22180574
0.26369098
0.25581437
0.16289818
0.054263704
-0.020836966
-0.050682876
-0.091796905
-0.11108974
-0.14863436
-0.10361905
-0.129337
0.07737433
0.10439534
0.010036693
0.07843233
0.1361449
0.18928355
0.009701537
-0.06416163
-0.21828225
-0.06366961
0.053968906
0.035842717
0.35216868
0.4248175
0.40651286
0.21464457
0.14973524
0.09540901
0.14588653
0.081414975
0.049595386
-0.10273298
-0.08213297
-0.074711315
-0.07891466
-0.12508726
-0.011618927
-0.091488115
0.13444312
0.113844186
0.0009411932
0.003528329
0.07848598
0.09533203
-0.034013204
-0.102324106
-0.015948595
-0.07650513
-0.022582151
-0.08395592
0.070869185
0.14913614
0.28750032
0.13016565
0.013251196
0.09363332
0.105681054
-0.087053545
-0.15967862
0.009300646
0.08065059
0.046893165
0.15666676
0.032493044
-0.07001697
-0.14722037
-0.08623428
0.007991436
-0.1455226
-0.2530853
-0.16591035
-0.05141832
0.16950627
0.095904976
0.18513745
0.011673443
-0.0640673
0.0007542595
0.037047077
-0.14088486
0.31320456
0.099741586
0.023357844
0.00078063586
0.0315653
-0.054814246
-0.13356237
-0.122271515
-0.01077159
-0.01227912
0.091359675
-0.11102053
-0.05704754
-0.107889056
-0.3613285
-0.30314416
-0.46811226
-0.7130111
-0.5002979
-0.25539696
0.15981002
-0.12590072
0.13394064
-0.034747895
0.029699177
0.0698079
-0.0738369
-0.10598093
-0.2758753
-0.52047735
-0.6855499
-0.41719475
-0.453652
-0.5015894
-0.4657505
-0.40584165
-0.39758304
-0.28269622
-0.48119348
-0.57429194
-0.39708066
-0.25197077
-0.32045817
-0.31604567
-0.29681695
-0.45294276
-0.36259273
-0.039993044
-0.03348141
-0.120510414
0.0033475012
-0.054780476
-0.085058324
0.070999175
-0.026545286
0.06850867
0.033948272
0.049845885
-0.033765197
-0.072411746
-0.015344933
0.0126800155
-0.14873433
0.05185249
-0.15853824
-0.06533625
-0.098095275
-0.006208241
0.046992455
-0.072653286
-0.25498873
-0.29850724
-0.31583962
-0.321215
-0.17101543
-0.013233054
0.022999547
0.04904437
0.06941177
0.06381163
0.056003526
-0.0764218
0.022252738
-0.038727567
-0.0400249
0.0258087
-0.031314936
-0.06317732
-0.037444707
0.018401168
0.007774502
0.07818784
-0.010493694
0.013230314
-0.03729212
0.0700654
-0.0855435
-0.06591274
-0.08093961
-0.078666486
0.07223584
-0.058692794
0.02142921
0.030716442
0.083622366
0.056002945
0.028190099
0.0275646
0.023527421
0.0733805
0.04848534
0.06526263
0.09061738
0.08936643
0.055659804
-0.015073277
0.041613594
0.3124478
0.49862754
0.39863223
0.28040364
0.47435126
0.3584917
0.20622997
-0.061520882
-0.03803862
0.24705578
0.25860405
0.0008671532
0.09251376
0.17855583
0.092272624
-0.07270266
0.017090805
0.07008253
0.04860924
0.039241835
-0.037368827
0.034442447
-0.003942859
0.14742094
0.013687631
-0.11231363
0.08522185
0.0120639615
0.66086525
0.6220109
0.60986376
0.4383338
0.3664962
0.71005833
0.89481974
0.39908314
0.0056106253
0.2706252
0.26751935
0.116844095
0.13859944
0.15291367
0.08735762
0.029498864
-0.025602113
-0.076062344
-0.015686892
0.026235014
-0.056170315
0.21110368
-0.03472229
-0.04125005
0.24702676
0.3006399
0.48280093
0.33268434
0.44051158
0.35703456
0.46570572
0.66574615
0.61601424
0.48301196
0.45140684
0.12930742
0.16437793
0.13992083
0.061103348
0.194357
0.04513274
-0.17652698
-0.1414647
0.015963497
-0.10324595
0.054730013
0.024483413
-0.011326708
0.15567088
0.2048545
0.31685862
0.19020031
0.12959877
0.39803588
0.23216358
0.19681856
0.0310586
0.31025362
0.23584263
0.062756285
-0.025607608
-0.175773
-0.28316244
-0.3206211
-0.26232848
-0.031761818
-0.29070565
-0.61840016
-0.23657627
0.050911743
0.3003767
0.2681925
0.32825384
0.17668743
0.04502793
-0.067582935
0.06394419
0.14525655
0.27631742
0.29432434
0.270431
0.033453047
-0.018630976
-0.021363536
-0.061939385
0.13880007
0.24163227
0.11620892
0.035880968
-0.19469558
-0.28160968
-0.420859
-0.339715
-0.25080782
-0.15100822
-0.3173042
-0.17961006
-0.23281714
-0.0555933
0.46966067
0.2881816
0.3402523
0.14904808
-0.017280005
0.010957415
0.18198502
0.43932462
0.19789866
-0.108729094
0.13257559
-0.09507554
0.016357446
0.15934163
0.35514575
0.3583383
0.3449379
0.27005237
0.35216606
0.32571387
0.31988913
0.26727217
0.20336643
0.05697463
0.27600047
0.18226132
-0.106707916
-0.29692408
-0.011372383
0.13425592
0.11886444
0.11605585
0.021052647
0.17960231
-0.026999243
0.1926387
0.017928343
-0.14105026
-0.02616402
-0.08404952
-0.049288165
0.09863499
0.18977298
0.24449612
0.4548842
0.46299878
0.5471416
0.5699218
0.58602226
0.51868004
0.29501727
0.14895761
0.31192562
0.14648452
0.07675614
-0.16484946
-0.25436115
-0.0042508114
0.09971686
0.16044368
-0.22290386
0.35762653
-0.14431669
0.08316862
0.008675925
0.004027784
-0.008046687
0.10966448
0.14192644
0.055841707
0.062300757
0.17636979
0.21592186
0.20531751
0.45938256
0.3173577
0.22313152
0.07675332
-0.033948462
-0.11105365
-0.14518358
-0.02034476
-0.16194424
-0.17547528
-0.23255423
-0.24279167
0.19816014
0.1694308
0.08555076
0.26218912
0.17269796
0.27287865
0.1314105
0.10913615
0.14539538
0.1263554
0.08395116
0.11435117
0.12394523
0.13123181
0.14266495
0.38455948
0.5276124
0.31144446
-0.114474155
-0.20488611
-0.07871602
-0.18632977
-0.27342105
-0.31338245
-0.23805042
-0.30512702
-0.1475634
-0.26148334
-0.09036373
0.24581945
0.13553952
0.05871557
0.21055095
0.43949464
-0.085344695
0.12243063
0.24247415
0.061392132
0.1433131
0.01826463
0.18320476
0.1629478
0.1485158
0.40619844
0.44498095
0.08871012
-0.091889694
-0.14995535
-0.1068217
-0.25163263
-0.09074021
-0.2276288
-0.184527
-0.3713313
-0.39651
-0.04507381
0.10616511
0.17828102
0.05430431
0.14462394
0.44449437
0.28290153
0.18732572
0.17279945
0.24076626
0.1536322
0.08975409
0.04271855
0.0762334
0.15454367
-0.058967706
0.13752939
0.24297109
0.04753485
0.04304547
0.2231803
0.22000682
0.0037359023
0.113528945
0.058311492
-0.028380265
-0.12993349
-0.36624888
-0.098410875
0.027414534
0.30235076
0.015585865
0.22886452
0.45556083
0.21717493
0.44957566
0.29773822
0.036299855
0.026085233
0.02830527
-0.10189836
-0.234398
-0.24613254
-0.35355237
-0.22198713
0.24193816
0.14607422
0.052632727
0.25495452
0.23788676
0.11936732
0.0016912565
-0.10310457
-0.052900795
-0.050815016
-0.46976817
0.08915093
0.20464593
0.32395384
-0.023596441
-0.06234816
0.26286605
0.32982284
0.52337736
0.20549572
-0.013545993
-0.14444296
-0.1753157
-0.18366754
-0.34342042
-0.50749147
-0.5449429
-0.19104749
0.27022913
0.1634064
0.19899122
0.15774505
0.24592106
0.11534548
0.08002749
-0.11101738
-0.19881915
-0.21849231
-0.16100445
0.083747625
0.029838588
0.09642387
-0.07060931
-0.008401417
0.28877965
0.16454177
0.15650167
-0.023842363
-0.08010599
-0.2182101
-0.27513656
-0.29863966
-0.3144132
-0.57080007
-0.5562614
-0.21572472
0.092848115
0.098057374
0.058424886
0.13303387
0.079491034
0.08148921
0.10719181
0.050217304
-0.039264984
-0.17060879
-0.2007362
0.17103766
0.2914171
-0.033583023
0.056233987
0.11972985
-0.1448281
-0.15672426
-0.17525046
-0.08492999
-0.09159457
-0.33030716
-0.3200826
-0.17732896
-0.16252539
-0.25803635
-0.3416188
-0.2668133
-0.15981753
-0.095331825
-0.0819897
0.17542653
0.11536536
0.068410024
0.12683547
0.07748851
0.022983894
-0.13693869
-0.047266368
-0.12091736
-0.07096868
0.39664444
0.05856682
0.20971902
0.33374554
-0.13314234
-0.04687154
-0.10756665
-0.1415822
-0.09617187
-0.09828309
-0.06127025
0.03354018
-0.11496551
-0.29842782
-0.29958946
-0.22416797
-0.20195244
0.021979725
0.012103437
0.14809579
0.10949804
-0.016006364
0.11499427
0.115079746
-0.27531645
-0.12246827
-0.3645823
0.08713736
0.36252362
0.027481139
0.32062933
0.07278777
0.3652757
-0.16683578
-0.095327705
-0.015478772
-0.0070889797
0.01946491
-0.062427443
-0.025033895
-0.16298993
-0.24984567
-0.24689506
-0.23948309
-0.046234988
-0.068396136
0.09189306
0.1253615
0.22873212
0.08622991
0.14309807
0.16762333
0.091602
0.035668377
0.26261842
0.3301496
-0.070922166
0.29822803
0.2686486
0.47426632
0.45713726
0.0024509504
-0.32676125
-0.17610429
-0.10322244
-0.2509534
-0.27754915
-0.3346047
-0.41689155
-0.4620451
-0.19846372
-0.017297605
-0.010338223
0.06373214
0.17715655
0.23037185
0.20649129
0.15963903
0.18549602
0.24196585
0.20490816
0.07785691
0.12450781
0.41343522
0.34212524
0.089003555
0.18018778
0.4471454
0.5760058
0.04309656
-0.24374512
-0.37702933
-0.58727694
-0.61498994
-0.7568997
-0.6728381
-0.46789873
-0.3987697
-0.11722153
-0.09003942
-0.018835971
0.04098973
-0.010443517
0.0050904755
0.17291896
0.15917578
0.08717001
0.18753663
0.20880383
0.3059993
0.49891385
0.3773373
0.24342376
0.042924985
-0.14908308
0.27582008
0.6399719
0.20129444
-0.10887893
-0.47406566
-0.82485473
-0.6018352
-0.71218824
-0.66020936
-0.43136582
-0.19904551
0.04717002
0.03151811
-0.19450557
-0.05581367
-0.076626346
-0.031260207
0.016985804
-0.045312356
-0.10453541
0.0659416
0.1816663
0.39396623
0.5210843
0.336416
0.14065538
0.043924853
0.025312986
0.39231604
0.4582275
0.32563373
-0.21811122
-0.27246255
-0.37514192
-0.30734146
-0.27843487
-0.07861279
-0.12992845
-0.033677965
-0.15369321
-0.12540862
-0.14422154
-0.15310985
-0.27956754
-0.26532668
-0.06249826
-0.06427157
-0.16869135
-0.16699953
-0.10138692
0.1823459
0.38398907
-0.14531828
0.0632078
0.06308189
0.12132707
0.35121194
0.43946263
0.36965013
-0.13540728
-0.2747639
-0.06245879
-0.011501666
0.2670146
0.19267601
0.0043509947
0.11718564
-0.1590903
-0.047111236
-0.08494838
-0.20540214
-0.28718966
-0.24082555
-0.31324032
-0.3112261
-0.41682747
-0.119353235
0.09940584
0.06933968
0.2020556
-0.17308414
-0.034961786
0.05527939
0.035338312
0.36778134
0.5400635
0.6277322
0.33072245
0.2787734
0.30910563
0.19139592
0.10969499
0.04744482
0.0155384485
-0.047524583
-0.16379902
-0.17014487
-0.28143972
-0.28129697
-0.22536892
-0.37907216
-0.38761327
-0.46363473
-0.2268188
0.07779693
0.0884294
0.40628436
-0.040808246
-0.096265785
-0.008131869
0.05189483
-0.006569855
0.08814074
0.39483687
0.91350645
0.9722812
0.68281126
0.7022496
0.3956344
0.014428137
0.09557884
0.00794003
-0.04369889
0.014112753
-0.17363426
-0.075495176
-0.16928263
0.03758372
-0.17729808
-0.10117126
0.07425308
0.23635821
0.27576914
0.09139779
0.12842965
-0.039383925
-0.05123179
-0.04532226
-0.06835614
0.015124552
0.19324479
0.17492196
0.7469819
1.0851194
0.8874014
0.85033023
0.75725484
0.6651278
0.3596611
0.425188
0.41445142
0.27893746
0.24269956
0.14670873
0.26979974
0.34905875
0.4761632
0.38235167
0.3347184
0.52546424
0.3847134
0.15830405
0.17377643
-6.694032e-05
-0.2275098
0.0050486624
-0.082052395
0.08478044
0.033945262
0.07315515
0.4583021
0.57127786
0.7767931
0.7301594
0.7756434
0.944742
0.8737448
0.7747368
0.7246362
0.9679757
1.1016415
0.7925098
0.73075426
0.75154066
0.9253219
0.8338233
0.75882775
0.6040442
0.5298728
0.11517572
0.2125003
0.0033742785
0.07858582
-0.04511393
0.07507774
0.012159012
0.032555692
-0.0629881
0.054076575
0.15090302
0.23828548
0.21071865
0.3753867
0.38848278
0.39609373
0.19062383
0.26960438
0.47817072
0.7064583
0.45916855
0.40593123
0.47087863
0.47903535
0.2875975
0.30270007
0.2606153
0.30468792
0.18375991
-0.0033373833
-0.061264813
-0.019018784
0.06496976
0.009820826
0.045033157
0.08573197
0.03018596
-0.04600987
0.014941946
0.024351038
0.07611729
0.03674861
-0.06738441
0.024121769
0.025448896
-0.00804334
-0.043065872
-0.027913643
0.08583142
-0.056363948
0.07286024
0.008911841
-0.043476176
0.07892464
0.061208338
-0.038897578
-0.0729474
-0.04240409
0.019040897
0.047882676
0.058432966
0.057086155
0.015963301
-0.044304475
0.08036932
0.13752139
0.13933322
0.057076313
0.04212716
-0.13092923
-0.09420663
-0.021026794
0.261123
0.17472322
0.21674253
0.22601925
0.41558957
0.23756474
0.4304949
0.52333474
0.3624383
0.14667742
0.08302989
0.24951288
0.23876907
-0.02398339
-0.06580703
-0.053653568
-0.073400185
-0.05536755
-0.0061994568
-0.08672284
-0.01841975
0.15755399
0.118281186
0.07011673
0.019809064
-0.13465728
-0.2644718
-0.33034354
-0.4368223
-0.21742788
-0.0017892637
-0.10525239
0.27534524
0.29899827
0.20431869
0.24709532
0.06104486
-0.08288769
-0.29998803
-0.4400019
-0.31920666
-0.3910745
-0.22004025
0.019461922
-0.0794645
0.062245324
-0.043412972
0.09574787
-0.09797739
0.101491615
-0.24298123
-0.17991848
-0.2761179
-0.36584255
-0.7121442
-0.71064776
-0.6839259
-0.4762966
-0.34538046
-0.2593765
-0.15307838
-0.11690288
-0.033237945
0.031747613
-0.07708967
-0.21619417
-0.24381089
-0.19808495
-0.26195335
-0.29234523
-0.18679185
-0.23736942
-0.0257813
0.0054257885
0.06316122
0.07561077
-0.006531117
-0.36629957
-0.63568807
-0.57039106
-0.7048312
-0.92553055
-0.7616353
-0.29416746
-0.1162641
-0.0309248
-0.14768465
0.040015697
0.0005586598
-0.21604526
-0.07986348
-0.042311948
0.013621817
0.10131443
0.2631146
-0.055800352
-0.014450955
-0.12346904
-0.19159141
-0.027883207
-0.15303144
-0.0024689212
0.01254566
0.07276758
0.06001425
-0.3434221
-0.8540491
-0.8154212
-0.6790065
-0.71919465
-0.3386177
-0.12931599
-0.02683953
-0.011560311
0.0012097486
-0.107567966
-0.107725136
-0.23582694
-0.13584217
-0.05275345
-0.131484
0.16120027
0.14632069
0.1948937
-0.21914712
-0.17936362
-0.16758636
-0.025236
-0.22033389
-0.043198135
-0.17110474
-0.10754872
-0.21907644
-0.5265227
-0.74558604
-0.6389357
-0.58618844
-0.5222013
-0.3915815
-0.12744102
-0.036830656
0.052706465
0.26683766
0.32797796
0.30399132
0.2029023
0.27164733
0.35641155
0.1418695
0.08570879
-0.031774525
-0.15531702
0.023180645
0.07188907
0.16052966
0.095686145
-0.07387414
0.01147929
-0.07634869
-0.014096621
-0.33678848
-0.78172964
-0.80299693
-0.6401397
-0.4672277
-0.3483986
-0.1978382
-0.10229653
0.1837577
0.3208057
0.30458358
0.5268079
0.2907057
0.31108028
0.26344526
0.35422102
0.18693209
0.050612226
0.029564688
-0.22685534
0.17963742
0.73692054
0.60674566
0.21296027
-0.05469707
0.20245168
0.192799
-0.007924228
-0.35348013
-0.8710706
-0.6449023
-0.5050611
-0.3504721
-0.095550634
-0.14121306
-0.10397958
0.13630556
0.17893557
0.17701325
0.26514372
0.27954653
0.1794326
0.31813282
0.2180522
-0.0016022831
-0.025592003
-0.19523108
-0.05912696
0.65630394
1.2217441
0.81871164
0.269032
-0.24032772
0.0054118186
0.37638834
0.040831298
-0.19694415
-0.6949962
-0.34527797
-0.18083933
-0.23608287
0.07584961
-0.0604086
0.09392916
0.25522166
0.23861285
0.2882163
0.31605488
0.06251821
0.07542442
0.07224593
0.06629216
-0.041928113
-0.08518126
-0.143928
0.10168986
0.8486793
1.1711221
0.82879525
0.30123132
0.16084823
0.13450737
0.27431762
0.20252387
-0.35374945
-0.37277925
-0.17905405
-0.010858304
0.2076345
0.33461112
0.3980284
0.27164418
0.3319932
0.27559957
0.24837108
0.36960307
0.23039734
0.050882377
-0.23334192
-0.12920205
-0.16658545
-0.16679615
-0.015523003
0.36145946
0.7069628
1.0470349
0.75926745
0.38315752
0.098807655
0.09186429
0.22341284
0.14478017
-0.13986094
-0.007449782
0.22567222
0.30898282
0.5132852
0.43920603
0.33674914
0.16043577
0.13035482
0.013831685
0.22242507
0.24454296
0.21634613
-0.27758756
-0.15216202
-0.14521302
-0.098361686
0.14735106
0.27222684
0.25944588
0.43161565
0.5889032
0.49325028
0.15589713
0.055308525
-0.06649873
-0.14007016
-0.11829528
0.17788565
0.2980552
0.74135613
0.6557434
0.4129293
0.31072557
0.06916489
0.15090625
-0.007985735
-0.15077953
-0.14235573
0.1254739
-0.01318062
-0.2780751
-0.10892623
-0.07764655
-0.0001585981
0.25323305
0.17367736
0.21459287
0.15664403
-0.41527882
-0.34588778
-0.25125456
0.030495811
0.04724139
0.03280064
0.13194276
0.20007358
0.53901005
0.61405504
0.4836234
0.25184932
0.16330592
0.061442077
0.014263884
-0.05646591
-0.3325737
-0.028081685
0.14129071
-0.02431072
-0.31432515
-0.17129353
0.08949364
0.22887036
0.13302258
0.13093686
0.06630488
-0.24286412
-0.34491205
-0.46309817
-0.49449342
-0.1481344
0.13626336
-0.18946913
0.20399451
0.12271756
-0.0458031
0.15910748
0.12644738
0.0421726
0.029013665
0.06857864
0.12854098
-0.17174505
-0.2995477
0.020575384
0.097346075
-0.02459048
-0.19511569
-0.14074165
-0.04298635
-0.061946943
0.055568367
-0.069860436
-0.078682244
-0.051879607
-0.002850632
-0.37929964
-0.48841372
-0.12264583
0.19517896
-0.112973206
-0.24534151
-0.34564218
-0.23231041
-0.15662926
-0.2623911
-0.097891696
-0.072304584
-0.045148328
0.059818167
-0.19862264
-0.15443505
-0.15154384
-0.23847379
-0.2713371
-0.36444896
-0.17643091
0.015909482
-0.21031864
-0.071805544
-0.198011
-0.21073593
-0.19239308
-0.099198766
-0.34223136
-0.596199
-0.3029473
-0.06568036
-0.078678094
-0.41262183
-0.3887802
-0.11705666
-0.23029613
-0.24145545
-0.2762625
-0.14937478
-0.21202503
-0.078193665
-0.17355937
-0.3740821
-0.23682632
-0.13223742
-0.2897691
-0.29081997
-0.23153555
-0.25790155
-0.23391338
-0.15841106
-0.3711874
-0.43340555
-0.4989835
-0.2959165
-0.6236476
-0.65115434
-0.2642895
0.027807228
-0.09321216
-0.620873
-0.27656558
-0.24596491
0.14800887
0.12810531
-0.12349444
-0.18894982
-0.14483051
0.03844661
-0.21648523
-0.16335805
-0.11708133
-0.060097266
-0.18906686
-0.30736813
-0.13532397
-0.19202515
-0.14589223
0.0024978328
-0.27086872
-0.33383054
-0.41547602
-0.32842624
-0.6341295
-0.34365574
-0.0966437
0.30321318
-0.11848536
-0.56806266
-0.5525096
-0.12525854
0.055318955
0.26933455
0.06306405
-0.08069148
-0.08568456
0.062875025
0.007947734
-0.104518406
0.012332746
0.069356
-0.038129676
-0.2517696
-0.17341827
-0.20672888
-0.07013532
-0.07080152
-0.28136006
-0.32230613
-0.429434
-0.40619683
-0.36629942
-0.05591246
0.015931673
0.04165667
0.17682083
-0.13734134
-0.50538677
-0.20147222
-0.10904016
0.15010771
-0.017275691
0.07791634
0.06624313
0.013771397
-0.03466462
0.17512326
0.2068055
-0.040755387
-0.0875366
-0.19330938
-0.26490575
-0.25907308
-0.13073266
-0.11211156
-0.23362935
-0.17356287
-0.27077094
-0.0236022
-0.103682525
-0.26379937
0.069459744
-0.0065139234
0.1374179
-0.2121678
-0.45880568
-0.2658828
0.010051976
-0.12066229
-0.15009193
0.085307226
0.051080164
0.185971
0.15956594
-0.044978555
0.1083682
-0.06923558
-0.23524417
-0.12976384
-0.08658017
-0.16023953
-0.09156057
-0.21951218
-0.10935575
0.041310452
-0.21723574
-0.06818072
-0.08360685
-0.065592654
0.19661705
0.104658045
-0.23161519
-0.53143054
-0.39667886
-0.15460326
0.028622653
-0.032398008
0.06456432
0.09455069
0.19389139
0.2009485
0.045198876
-0.09056751
-0.14385484
-0.17902757
-0.11315403
-0.03609773
-0.18502422
-0.2315647
-0.23053099
0.07157741
0.11051964
-0.029010875
-0.035271995
0.17320134
-0.154293
-0.13079728
0.12043835
0.083663955
-0.024939576
-0.7889423
-0.59455246
-0.24022864
-0.1661209
-0.19594045
0.0163833
0.20717001
0.17716567
0.07314764
-0.019774454
-0.1293293
-0.1661114
-0.11333025
-0.19744492
-0.014811943
0.012930955
-0.08976773
-0.17404242
-0.04174312
-0.06533242
-0.15475655
0.15484513
0.41497177
0.14851528
0.15096104
0.12556706
0.07643619
-0.063067764
-0.5226091
-0.47131938
-0.16417366
-0.0025078384
-0.0050891945
0.09595197
0.20222683
0.067928515
0.008555875
-0.045137253
-0.08560362
-0.11728994
-0.0425499
-0.06968252
0.03496395
0.08100517
-0.25133246
-0.21413855
-0.12709859
-0.18998362
0.15909998
0.43680087
0.39598322
0.08180008
-0.038020287
0.0053255484
-0.0011348352
0.011285119
-0.048736833
-0.20419009
0.032640107
0.3294773
-0.028333852
0.0031526422
-0.0897329
-0.039662916
-0.11817177
-0.27487436
-0.07322604
-0.20305084
-0.11889919
-0.031804297
-0.13149466
0.07107913
0.23084293
0.32635096
0.36627236
0.28593385
0.38772163
0.47978354
0.033597223
-0.28632376
-0.2368941
0.047322065
-0.058133904
-0.004392296
-0.0047317743
0.18296582
0.24294242
0.18441908
0.10499809
0.021744285
0.09994372
0.29199868
0.27454406
0.5199792
0.61940706
0.45953766
0.42802125
0.3463542
0.37158862
0.42181644
0.685839
0.7162372
0.6321522
0.7124676
0.58768415
0.48627585
0.34715945
-0.041991
-0.21698938
-0.012619846
0.023169003
-0.07621795
0.038084574
0.1246604
0.1947168
0.3278518
0.43899557
0.5185571
0.86285967
1.0474039
1.0261968
1.1558498
1.0334367
1.0391228
1.1309141
0.93059325
0.8032326
0.6162083
0.67084605
0.50230116
0.53016925
0.6123041
0.52544534
0.09990174
0.16700232
-0.012457854
-0.004569657
0.054090843
0.07704009
-0.044467017
-0.05560244
-0.014203399
0.082273185
-0.016590912
0.24257527
0.2514664
0.2094364
0.330062
0.40184048
0.4184418
0.4012919
0.5100187
0.6607613
0.49394763
0.2589234
0.045707155
0.36799586
0.3182555
0.29417408
0.27904236
0.14591257
-0.04638592
0.07189453
0.01954697
0.0121642575
-0.0067383796
0.05064696
-0.077906534
-0.012097277
-0.022970125
-0.053801842
0.013677999
-0.045907456
-0.057797574
-0.054585088
-0.031017669
-0.041128766
0.02644632
0.12257657
0.15117915
-0.018975537
0.026547126
0.053889945
0.011848591
-0.0057455227
0.062747225
0.02903828
0.042452097
-0.029218331
0.019724928
0.0070319474
-0.011065841
-0.08395247
-0.025427483
-0.085102364
0.042748883
0.00037486106
0.06615013
0.022961633
0.062736675
0.08773244
-0.018084241
0.18080454
0.17871575
0.047582302
0.1938717
0.13480532
0.31300867
0.23544708
0.18548216
-0.005842966
0.0038669598
0.013232795
0.19771715
0.12221385
0.05671505
0.13659412
0.037721448
-0.02974214
0.008469172
-0.009720378
-0.021870859
-0.031627107
-0.06937157
0.053008083
0.045704998
0.11616752
0.0569761
0.08956466
0.23987299
0.3381058
0.48455974
0.4891627
0.6148475
0.86641157
0.8597814
1.0001662
0.7845719
0.4135546
0.20524068
0.15907283
0.063505724
-0.015495004
0.200179
0.054050133
0.09711137
-0.009491955
-0.0806501
0.020581417
0.01984962
0.0037288442
-0.07770016
0.1316777
0.15279718
0.04202471
-0.113316655
0.10513542
0.09124268
-0.02128324
-0.14603344
-0.05867108
-0.07012559
-0.13048147
-0.08064263
-0.0009158044
-0.091411285
0.12133889
0.004484864
-0.12666745
-0.15410897
-0.17417143
-0.26600322
-0.2620437
-0.12927397
-0.22281183
0.09501677
0.08992396
-0.05829002
-0.07308593
0.08312714
-0.030342389
-0.15321963
-0.11170982
-0.27732125
-0.16702347
-0.30039957
-0.19327211
-0.175712
-0.17612799
-0.10060677
-0.010150341
-0.13272168
-0.14012177
-0.13552175
-0.03084296
-0.049468596
-0.22439553
-0.08780585
0.1120205
0.03402459
0.069920234
0.2225423
-0.18192156
-0.12139587
-0.1488215
0.10085647
0.024056807
-0.018678218
0.15777919
-0.10250584
0.02734289
-0.29995802
-0.20180158
-0.11132952
-0.11006216
-0.07026527
-0.104684636
-0.11618474
-0.05653754
0.007962563
0.020780511
-0.0510611
-0.17239062
-0.1263895
-0.04549005
-0.03658672
-0.08902529
0.016175022
0.039912306
0.07340647
-0.03252597
-0.4343066
-0.4202845
0.123446636
0.01136744
-0.11798342
-0.11185163
0.042335957
0.015288394
-0.13129432
0.020775987
0.06462617
0.066633955
-0.2079306
-0.25270683
-0.12713641
-0.07635019
-0.09585391
-0.03708765
-0.07018409
-0.12630783
-0.12744075
-0.09864126
-0.065932594
0.0045889253
0.098052114
-0.05729833
-0.16286512
-0.424785
-0.6037953
-0.3870999
-0.14142089
-0.023520056
-0.14448798
0.15471517
0.035617407
0.16637495
0.06657761
0.05807359
-0.08304821
-0.09906657
-0.12494002
-0.19779088
-0.11234641
0.026347488
0.09366587
0.006713036
-0.013372268
-0.098648354
-0.010084246
-0.01187684
0.04326666
-0.019080944
0.02772483
-0.056235105
-0.15155342
-0.42382026
-0.74959266
-0.4038067
-0.18231983
0.064202085
0.24120463
0.45892566
0.13004221
0.22521096
0.0196241
-0.131371
-0.032659
-0.052716434
-0.30527842
-0.25561088
-0.047331423
0.04377607
0.09508804
0.17192943
-0.022456868
-0.09236879
-0.034494992
0.11090471
0.009883253
9.420107e-05
-0.07596499
-0.12541027
-0.16223009
-0.6413198
-0.8560978
-0.53271735
-0.24223398
0.15060452
0.46147433
0.15359418
0.057255477
0.13085783
0.11608842
-0.10859383
-0.07353334
-0.15365921
-0.13092826
-0.15187359
-0.02064112
0.12143812
0.1908924
0.31998035
0.16926692
0.23078515
0.20942144
0.3430815
0.1948988
-0.113113254
-0.31803218
-0.39725226
-0.5184595
-0.8045236
-1.1700991
-0.4062609
-0.20119758
0.10720376
0.41371137
0.27847242
-0.18428127
-0.07539712
0.22040303
-0.039520793
-0.014131058
-0.095713615
-0.21829186
-0.1178615
-0.0485119
-0.02604272
-0.0017198359
0.17147563
0.31336734
0.25494578
0.28987977
0.20569283
0.28440976
0.05295599
0.09420709
-0.031038648
-0.25194824
-0.76967263
-1.0115478
-0.4818698
-0.014155051
0.009750775
0.35925236
0.41877192
-0.08747432
-0.007202798
0.16385263
0.072907574
0.17380784
-0.12070188
-0.13096778
-0.11745251
-0.21442096
-0.30679193
-0.27286303
-0.15163653
0.059548732
-0.015632568
-0.09380068
-0.044528253
0.17812137
0.43783817
0.5347688
0.7511138
0.6286652
0.1785372
-0.6278756
-0.3914852
0.1385252
0.070001565
0.21916515
0.37718484
-0.13140973
0.1991089
0.27378413
0.24446565
0.070442386
0.020189866
-0.013364449
-0.11541935
-0.2290683
-0.22958656
-0.3172434
-0.1760077
-0.11019686
-0.112656705
-0.19418725
-0.041466724
0.049728297
0.20656101
0.5816182
0.9057291
1.1818484
1.25523
0.35253
-0.24917716
0.13703912
0.13338566
0.32359326
0.4689753
-0.056352317
0.32869464
0.41691244
0.36657205
0.08001688
0.033524644
0.023110146
-0.14338924
-0.2528861
-0.41985744
-0.40880182
0.068924904
-0.047006123
-0.13758816
-0.14819902
-0.12848201
0.09705265
0.13385306
0.4061603
0.66009927
0.93811095
1.2882899
0.5526625
-4.4365755e-05
0.060541496
-0.07201288
0.07699777
0.31937674
0.1813227
0.54555595
0.5824516
0.56874496
0.3748325
0.3518932
0.07309811
-0.040429596
-0.19824432
-0.39637414
-0.22598417
-0.016740652
-0.06866698
-0.05780329
0.07543918
0.15259033
0.24204235
0.11629322
0.1341968
0.3491247
0.6006621
0.623937
0.38353896
0.15451394
0.119853295
-0.11761288
-0.10614569
-0.16749069
0.009350578
0.68325555
0.9346937
0.9332907
0.7302278
0.44691756
0.30313966
0.15951872
-0.107300214
-0.37653828
-0.38532382
0.0091799265
-0.022589192
0.19311239
0.22113548
0.12277778
0.094968036
0.010126046
-0.08481034
-0.10836104
0.007906652
0.26701495
0.19137529
0.06302391
0.11752837
0.07745719
-0.2520741
-0.037002094
-0.25207642
0.33307102
0.78742707
0.99361795
0.9042667
0.8358811
0.5029657
0.45968089
0.2958183
-0.21792404
-0.21251442
0.07519356
0.09332859
0.13399333
-0.0014123819
-0.05705955
-0.050757784
-0.03484037
-0.213475
-0.19903202
-0.13955446
-0.2172851
0.19075584
0.072544456
0.15837094
-0.08469428
-0.10839756
-0.028427193
-0.5108243
0.018815137
0.15040949
0.433422
0.6642904
0.8076461
0.89042264
0.9259798
0.70660967
0.4408938
0.32778105
0.37938082
0.17923085
-0.20436764
-0.13286842
-0.09251847
-0.013102566
-0.094945885
-0.13036765
-0.14420629
-0.39468828
-0.23155268
0.7813955
0.32842854
0.038595054
0.1753065
-0.041495387
-0.07815502
-0.7117461
-0.35702005
-0.29476053
-0.2468809
0.20538948
0.39092836
0.7388613
0.6997599
0.7868327
0.75641525
0.67139053
0.4054736
0.16807148
-0.17835362
-0.24722801
-0.20089744
-0.21041316
-0.011328847
-0.10207332
-0.065158196
-0.19079977
-0.030276371
1.1254214
0.47996247
-0.06295519
0.094145454
0.12099551
-0.16503249
-0.62668616
-0.58441186
-0.6522752
-0.51711315
-0.259234
-0.29524037
-0.14308739
0.020763349
0.34441113
0.4275175
0.36055592
0.42824897
0.22424065
-0.07891699
-0.19429247
-0.12594706
-0.02826194
0.030927258
-0.032217886
-0.18347976
-0.079972126
0.2821013
1.0432582
0.34653112
-0.06465294
-0.07028228
0.038550343
-0.09900586
-0.48831084
-0.61534494
-0.3865428
-0.45010272
-0.31966427
-0.44192806
-0.26716068
-0.18762885
-0.03372581
0.07037655
0.05744687
0.30338827
0.1898134
0.17545182
-0.019944808
-0.1567613
-0.07246158
0.05987987
0.13102509
-0.1824079
-0.058977213
0.420045
0.81978077
0.24046734
0.019189702
0.002362369
-0.13005799
-0.09642002
-0.26102325
-0.43723318
-0.11873585
-0.27657545
-0.19848455
-0.2428831
-0.16231999
-0.103100255
0.026756069
0.00073769444
0.021163888
0.05147427
0.15282828
0.22347856
0.027521025
0.06201409
0.0028546248
-0.05346992
0.034450673
-0.13990052
0.091233514
0.8389652
0.6813897
0.10533956
0.09674022
0.052159254
0.11068312
-0.17259128
-0.09886936
-0.2246503
0.17122766
0.015948385
0.03824818
-0.0014858621
0.048878558
-0.021976195
-0.042846426
-0.08504377
-0.16739076
0.04848051
0.19103459
0.21304236
0.18262494
-0.03763573
-0.08361296
-0.09096454
-0.09109678
-0.15849145
0.039887074
0.9828922
0.43970338
0.05353214
-0.013173629
0.07706906
-0.018322915
-0.30975184
-0.65211785
-0.4871294
0.057464607
0.03610588
-0.0026894887
-0.15306005
-0.123850845
-0.19124131
-0.13123575
-0.14134778
-0.101090066
-0.07136085
-0.11293003
0.12509575
0.2000353
0.04909216
-0.20652793
-0.40282577
-0.13651295
0.031149672
0.16159071
0.4813388
0.25492442
-0.03042249
0.064058155
0.06240636
-0.05535019
-0.06908752
-0.49253094
-0.28553146
0.10793757
-0.1687906
-0.30709195
-0.3811389
-0.46835753
-0.41403937
-0.31878966
-0.36330548
-0.3353496
-0.28371236
-0.23966499
-0.2143868
-0.10562881
-0.07704585
-0.37207618
-0.27001527
-0.114548326
-0.102868855
-0.02247909
0.17817235
0.30470186
0.22774771
0.07795307
-0.03439899
-0.01933682
-0.12566788
-0.10319211
0.15749261
0.04032727
-0.201036
-0.34860334
-0.22029081
-0.28033146
-0.37759095
-0.3534251
-0.22052965
-0.41252112
-0.38017341
-0.32258844
-0.27062082
-0.0012420902
0.019419432
-0.03731928
0.09347892
0.08351242
-0.068627164
-0.09441623
-0.115399346
-0.020348253
-0.05051809
-0.035226118
0.0514383
0.031517714
-0.0732344
0.0020965764
0.0773002
0.22630079
0.33638847
0.07767052
0.13335697
0.06384182
0.27869725
0.3212259
0.44187185
0.4881538
0.57964945
0.23394433
0.3104129
0.25502053
0.29517788
0.2665718
0.122312136
-0.072916046
-0.13422799
-0.11113258
-0.080656454
0.023031734
0.030871525
-0.08087979
0.03281629
-0.060649097
-0.046225265
0.033823542
0.0055223177
-0.026527932
0.0719305
0.112417124
0.19931059
0.3410057
0.46774757
0.20034747
0.31052703
0.53731596
0.47700286
0.4100092
0.46749064
0.46427578
0.368293
0.48662254
0.2914523
0.1759787
0.09565721
0.053070024
-0.014189377
0.017675877
-0.021926284
-0.072529554
-0.028686158
-0.041571885
-0.027151376
-0.034266517
-0.021486342
0.03145895
-0.08125091
0.04247272
-0.011440098
-0.03551826
0.0060431734
-0.013323128
-0.12090362
-0.025992647
-0.026256332
0.0036214727
-0.08299011
-0.022112772
0.037319764
-0.04973549
-0.022503674
-0.033549774
-0.062126353
-0.047066927
0.083482265
0.04186417
-0.020887725
0.06586513
0.056267977
-0.034199122
0.013110004
-0.06909981
-0.046282638
0.011101952
-0.16314366
-0.18784738
-0.1441648
-0.13635226
-0.2831795
-0.021705074
0.018429637
-0.0487065
-0.26708555
-0.18035136
0.1375606
0.092932835
0.051770188
-0.061452452
-0.03899043
0.07825201
-0.17755234
-0.10139916
-0.014726609
-0.075039215
0.0826806
0.06157781
0.04200843
0.011699289
0.046929598
0.03872623
-0.049659956
-0.07772228
-0.08761232
-0.058725744
-0.049325842
-0.114035614
-0.20858592
-0.016565688
-0.15620442
0.13202386
0.26903945
-0.036749978
0.008179022
-0.17745462
-0.10950061
-0.038634747
0.47354132
0.49561128
0.3861079
0.25408053
0.30084425
0.21304719
-0.040797763
0.036527164
0.035253413
-0.0027271807
-0.06970617
-0.14264663
-0.15981631
0.24985108
0.14028926
0.23462828
0.14697517
0.20175236
0.08404114
0.15400319
-0.13417293
-0.08159135
-0.08439676
-0.31180963
-0.10186668
-0.09945143
-0.16371839
-0.12888566
-0.2785045
-0.28222013
-0.17117856
-0.18621822
-0.02931977
0.09462755
0.08622542
-0.04167244
0.06348087
0.029359385
-0.16802216
-0.13807873
0.06129723
0.41603363
0.32115743
0.44968268
0.16246514
0.1383673
-0.030332811
0.04505999
0.13513054
0.119433016
-0.023644868
-0.22818448
-0.21983376
-0.17501667
-0.23075885
-0.11563819
-0.08932136
-0.28882867
-0.22887422
-0.42265135
-0.5682319
-0.27311885
-0.33721003
0.07547891
-0.0007757768
-0.048137963
0.044611935
0.09240398
0.17741099
0.053966966
0.13708043
0.10814049
0.039911184
0.07765728
0.23079602
0.17925635
0.30589288
0.33001906
0.27572048
0.2855828
0.12104243
0.06309499
0.0045735245
-0.06501674
-0.18472245
-0.32373223
-0.29228246
-0.3483552
-0.48703542
-0.45400053
-0.26132882
0.11657329
-0.0102773905
-0.07349294
-0.22608404
-0.17565368
0.24884216
0.010312548
0.01316997
0.065216
-0.08458524
0.07960182
-0.021054124
-0.020309387
0.028227426
0.25028038
0.1313394
0.22648181
0.25225925
0.15411623
0.15734981
-0.04333928
-0.109921865
-0.026959956
-0.07668634
-0.20768337
-0.5873574
-0.3917248
-0.21643518
-0.026015356
-0.07477033
-0.10495185
-0.106250614
-0.17342475
0.20313421
0.012222895
-0.116825275
-0.2601409
-0.17735653
-0.19371125
-0.18795772
-0.13703525
-0.16250776
0.1527821
0.12965629
0.2865544
0.19036773
0.10194775
-0.029420184
-0.14595279
-0.071071036
-0.06127219
-0.044317715
-0.16033252
-0.53058034
-0.42578238
-0.105166815
0.085144825
0.13559291
-0.34777442
-0.08974615
-0.17562446
-0.011719146
-0.14707169
-0.36879218
-0.2650212
-0.23867427
-0.27272084
-0.26157558
-0.27724582
-0.21138848
-0.07557065
0.11777371
0.16383734
0.033003606
-0.074218154
-0.16179301
-0.21119241
-0.1466376
-0.14724182
-0.07662311
-0.31494263
-0.61286116
-0.6616376
-0.2893835
-0.042231686
-0.06653409
-0.44370827
-0.1002881
-0.18689533
-0.18680626
-0.26511493
-0.17536083
-0.19413841
-0.18481845
-0.085201606
-0.025759637
-0.33076075
-0.22958049
-0.13738298
-0.007215712
0.08963379
0.045841094
-0.044507034
0.01432978
-0.14602612
-0.12820186
-0.22109072
-0.1982432
-0.20561744
-0.7047256
-1.2026224
-0.61845547
-0.3486402
-0.19088416
-0.2364548
-0.24327138
-0.20703252
-0.20839062
-0.2232097
0.05182104
-0.093767494
-0.1336099
-0.11824175
-0.22007371
-0.1854325
-0.20102698
-0.29144195
-0.31360018
-0.23143786
-0.18007888
0.005568936
0.046655513
0.09671283
-0.052876074
-0.077901274
-0.12959166
-0.21671942
-0.75482404
-1.360156
-0.7098095
-0.13639008
-0.14497359
-0.289485
-0.58176494
-0.22245203
-0.47577304
-0.2210796
-0.09338326
-0.12993912
-0.019227354
-0.022453438
-0.17919198
-0.19894895
-0.33997524
-0.6637972
-0.6075036
-0.38184333
-0.104415916
0.08835359
0.21992017
0.30690756
0.32699978
0.43033537
0.40150088
0.40446934
0.016645752
-0.9254766
-0.512321
-0.13171871
0.017481238
-0.31491268
-0.44862127
-0.38814
-0.43530682
-0.16409345
0.025136203
-0.15733726
-0.0059370142
0.038530312
-0.0043503763
-0.22413832
-0.18923432
-0.16769654
-0.17084663
-0.0061490405
0.26170203
0.2525883
0.40522078
0.4096927
0.60016054
0.6640794
1.0719047
1.1663845
1.2083087
0.03399588
-0.3151871
-0.14389886
0.034002565
-0.08353464
-0.37913528
-0.30748335
-0.13218126
-0.05574229
0.017574847
0.022371382
0.086361885
0.117199205
0.24366458
0.20341882
0.3115525
0.2845669
0.31249884
0.31432322
0.25217405
0.31212893
0.17445621
0.20747398
0.21559827
0.5527921
0.7801293
1.0346277
1.1201909
0.26222035
-0.019445447
0.12355097
-0.15082388
-0.030762346
-0.44331947
-0.18531497
0.032063797
0.088363506
0.14516905
0.24037057
0.24780364
0.28739154
0.43680787
0.61842793
0.5186373
0.46473446
0.2013712
0.046107024
0.18410702
0.21692854
-0.07762084
-0.045953773
0.031062288
0.15033866
0.2910254
0.5568169
0.8342341
0.4307204
0.37245476
0.14113717
-0.09752708
-0.13020216
-0.36662453
-0.22491616
0.31213218
0.36335552
0.21467876
0.33671454
0.30782786
0.31322962
0.410876
0.5537151
0.4417003
0.094860494
-0.081762254
-0.0030416592
0.1291012
-0.073722355
-0.1799962
-0.21744852
-0.07377715
-0.060930185
-0.051600747
0.23653932
0.4398115
0.4730466
0.6914508
0.289954
-0.057684753
-0.059604187
-0.14832687
-0.22830828
0.1015886
0.30515105
0.20340204
0.36005375
0.29364708
0.29805985
0.41437143
0.46659333
0.2593699
-0.13883328
-0.1320771
-0.11592962
0.17748941
0.027101807
-0.0076370924
-0.07569313
-0.036886178
-0.22352806
-0.042393375
-0.010252444
0.1031328
0.8267046
0.63121426
0.31527224
-0.026611544
-0.17887561
0.03284106
-0.33797368
-0.06284221
0.2015067
0.15953007
0.31451523
0.30380094
0.38114008
0.48117715
0.47022697
0.13476814
-0.23316556
-0.15685421
0.02759973
0.048395574
0.018270012
-0.022311702
-0.01755171
-0.09207839
-0.08111365
0.008600065
-0.059504345
-0.028649367
0.8254353
0.3248823
0.33171424
-0.057623964
0.101034984
-0.056434963
-0.38701984
-0.13700165
0.14682049
0.01083799
0.11744374
0.052635778
0.28935495
0.3955759
0.1953215
-0.20397095
-0.2895106
-0.16178408
-0.048143122
0.053306457
0.00041793232
-0.019908777
-0.113727115
-0.122989334
-0.049834453
-0.06772911
-0.007439419
0.04473594
0.786826
0.111507766
-0.08076437
-0.004933809
-0.23884381
-0.18478982
-0.20815824
-0.058718693
0.22512835
0.16895151
0.052994907
-0.06483789
0.11000762
0.10785602
-0.018318
-0.19004284
-0.2052715
-0.11803859
0.012445687
0.03703765
0.0015802433
0.05633403
0.018521577
-0.055358417
0.051210776
-0.08317222
-0.083557054
-0.027046867
0.7082524
0.23338449
-0.042816263
0.008957632
0.18039235
0.008099007
-0.07045643
0.17598645
0.22916572
0.22224504
0.1509573
-0.04341625
-0.08287531
-0.08103077
-0.058345214
-0.17156012
-0.05350488
-0.01675528
0.03077884
-0.01163968
-0.076694675
0.020645993
0.16003864
0.023387652
0.048133206
-0.18902889
-0.25155386
0.25152457
0.61923385
0.11301088
-0.07278739
-0.070782974
0.1903049
0.38656527
0.25616863
0.15290448
0.20754115
0.05109837
0.02698956
-0.027185924
-0.002862897
-0.058255844
-0.11378008
-0.13095792
-0.10217167
-0.13592033
-0.03880126
-0.010082408
-0.043059204
-0.050669257
0.048715133
-0.06883517
-0.17033945
-0.2197675
-0.116899416
0.3864299
0.6636974
0.055555698
0.070892155
0.015525541
0.11282155
0.6442188
0.4362639
0.20082656
0.09360142
0.18010563
0.104689024
0.20244968
0.1263889
0.048577633
-0.07638117
-0.06728148
-0.055678666
-0.16971737
-0.17560951
-0.09557894
-0.095114715
-0.16003735
-0.21618547
-0.11389291
-0.089088775
0.05964527
0.31579253
0.7031463
0.3138326
-0.21259503
-0.033527903
-0.08291982
0.076547444
0.18800041
0.14070463
-0.2488203
-0.24952672
0.038535263
0.13679743
0.31248292
0.14771317
0.100639224
0.13964872
0.060785048
-0.078359865
-0.09042096
-0.24185823
-0.12080451
-0.12508386
0.06026729
-0.039285272
0.11276187
0.4142318
0.5236868
0.4908172
0.3896937
0.115814105
-0.16940059
-0.02355928
-0.05322918
-0.016831413
-0.16325535
-0.27870393
-0.3343493
-0.46572852
-0.3500993
-0.15084428
-0.019236717
-0.050894305
-0.039231513
-0.06666575
-0.16211209
-0.19894381
-0.26456004
-0.24584746
-0.18724546
-0.12947126
-0.07951639
0.016716285
0.4557651
0.5044884
0.43917143
0.53236306
0.23476842
0.30355802
0.005481304
-0.004864916
-0.005391039
0.039334282
0.18665525
-0.30369055
-0.47799057
-0.20238051
-0.24297518
-0.2597834
-0.3567955
-0.29682404
-0.3319171
-0.47457975
-0.43485302
-0.43279818
-0.3658346
-0.35561603
-0.15029466
-0.13653132
0.008096163
0.19464865
0.5085056
0.35672334
0.15791254
0.11333179
-0.22422233
-0.042390782
-0.04195334
0.07390852
-0.014754668
0.058022887
0.07445988
0.20436712
0.17707486
0.0634374
0.3282317
0.21680035
0.23674604
-0.0078028776
0.035779387
0.09453757
0.14136459
0.0017036271
0.08965267
-0.25751993
-0.20055884
-0.04872418
-0.079671614
-0.14818539
0.07335971
0.076721594
-0.20968662
-0.027674928
0.022070594
-0.042892475
0.03903666
0.025378302
-0.04582778
-0.04746487
0.051561877
-0.032551873
-0.15890186
-0.19780393
-0.08207012
-0.0034044734
-0.1140454
-0.05175105
-0.09724313
-0.0790241
-0.033445142
-0.497805
-0.34614635
-0.46943188
-0.43042734
-0.3454392
-0.09572976
-0.23746975
0.050142206
-0.20961301
-0.2904944
-0.2957875
0.04579307
-0.06855934
-0.00522691
-0.03306501
-0.060870357
-0.021889344
0.026901744
-0.011524864
0.08035518
0.06410512
0.0705674
-0.031261727
0.028494567
-0.05635806
0.050656974
0.01973895
0.007140544
-0.109568946
-0.07480462
0.03148991
0.013681963
0.047554836
-0.07420055
0.027963534
0.045030475
-0.014993772
-0.025556099
0.07248625
0.07909945
0.04124908
0.06394917
-0.0637456
0.007689044
0.020461887
0.04673603
-0.002993621
-0.072085366
0.04251598
-0.08791841
-0.20010577
-0.120529376
-0.38497043
-0.33773106
-0.434465
-0.26723287
-0.005917387
-0.0018609894
-0.2984849
-0.19194505
-0.11134181
-0.28139803
-0.40101293
-0.34081155
-0.15953231
-0.28713265
-0.16846357
0.027751893
0.0034298673
0.07623005
-0.022428721
-0.01579009
0.03239677
-0.05810019
-0.0072136815
-0.10748691
-0.12269419
-0.27091822
-0.36357623
-0.45907193
-0.6879135
-0.96226364
-0.9316366
-1.0313983
-0.62408996
-0.585158
-0.7691579
-0.5653046
-0.48355788
-0.5476526
-0.5784026
-0.5403007
-0.24667251
-0.32484698
-0.44480816
-0.25431094
-0.22327624
-0.013780758
0.01058618
0.07429497
0.07568222
-0.009517291
-0.1548767
-0.25239962
-0.15165952
-0.5152676
-0.4347153
-0.45054695
-0.7906891
-0.7713559
-0.6728748
-0.90836555
-0.89424795
-0.80484504
-0.65831226
-0.6155497
-0.52290726
-0.61167365
-0.5496989
-0.5829868
-0.46259803
-0.2767719
-0.38902307
-0.23551115
0.12933196
-0.025667278
0.026368916
-0.06995008
0.008549867
0.08499082
-0.20164429
-0.23504731
-0.44613042
-0.34482607
-0.39055964
-0.35323286
-0.41711685
-0.4472563
-0.20382582
-0.18095429
-0.0940736
-0.14348854
0.018674362
-0.09343494
0.011016778
-0.16866258
-0.106264316
-0.04736779
-0.041261658
-0.22667108
-0.3293312
-0.09400506
0.016596233
-0.1457718
-0.23176175
-0.003846988
0.044067606
-0.40244913
-0.33471614
-0.37734482
-0.36381623
-0.4087837
-0.2750917
-0.31985712
-0.06386639
-0.13034533
0.0067011053
0.14421342
0.10376938
0.1063922
0.035677955
0.012262273
0.10492197
0.07436034
0.11193757
0.05314331
0.06624324
-0.13993205
-0.44581583
-0.47006682
-0.14335574
-0.1591368
-0.12937479
0.063996345
-0.07078261
-0.21419667
-0.4135802
-0.27202255
-0.07160161
-0.27761468
-0.20857336
9.257058e-05
-0.065250255
-0.030044777
-0.046915367
-0.08193201
-0.121316105
-0.04200077
0.0357297
0.19209468
0.28534585
0.06247995
0.29420507
0.21043947
0.22762348
0.14140463
0.023291953
-0.17097259
-0.040390745
-0.12455106
-0.14238262
0.03561417
-0.16922171
-0.16531752
0.020931462
-0.32389787
-0.09855082
-0.029956043
0.048145372
0.12900472
0.03195018
-0.018887486
-0.008776209
-0.012216599
-0.023252333
-0.095719405
0.04410746
0.13928357
0.26677316
0.18102594
0.20745876
0.2502924
0.27762207
0.29319113
0.3741156
0.20277992
-0.020278001
-0.26238096
-0.24016792
0.009593222
-0.11994153
-0.025366666
-0.01676113
-0.23267587
-0.09124709
0.21734166
0.20406444
0.17430663
0.19167496
0.07958359
0.20835309
0.2291999
0.16866493
-0.06794855
0.035295315
0.21118493
0.17403525
0.36933857
0.45015937
0.47958112
0.42826384
0.4341775
0.67486954
0.6634854
0.16592774
-0.048932847
0.14629415
-0.019187786
-0.078921005
-0.11465628
0.07958116
-0.21918374
0.093606524
0.29925755
0.20046523
0.24587046
0.46994472
0.54506695
0.5074447
0.47576115
0.46781576
0.07693344
-0.19539024
0.11786389
0.24075615
0.42172942
0.391046
0.41979083
0.39136872
0.55712914
0.8100355
0.72167045
0.13136292
-0.06612201
-0.20311897
0.07629293
-0.24552698
0.090853445
-0.075330466
0.11165046
0.38999912
0.4004356
0.47885966
0.6073212
0.73651564
0.7460686
0.53773046
0.5318164
0.40559775
0.07830053
-0.16363959
-0.17011769
0.17059574
0.27951187
0.25510147
0.24805379
0.27034315
0.6140001
0.47905028
0.09241865
-0.13236573
0.050265655
0.086507365
-0.059422605
-0.13873816
0.13527536
0.012880742
0.3461498
0.67061996
0.809746
0.83149487
0.6606574
0.6647718
0.6309838
0.34715232
0.29203987
0.3401355
0.021704672
-0.18311235
-0.019871444
0.044918276
0.19790435
0.024501694
0.041121524
0.26735687
0.29696786
0.21980283
-0.009217481
-0.18979122
0.34783205
-0.043708757
-0.06274247
0.09908364
0.048377305
0.10581114
0.3967846
0.61621505
0.7796645
0.7344723
0.3806009
0.3512606
0.16374983
-0.06953909
-0.051744383
0.10827375
-0.1641626
-0.1810653
-0.14519407
-0.026069546
-0.023773609
0.109516576
0.21994865
0.32052657
0.124992
0.1097172
-0.08493576
-0.36458164
-0.1066117
-0.18914609
-0.009247094
0.10633499
0.00073057105
-0.019447664
0.22125165
0.3532453
0.37518176
0.44327477
0.031903725
0.0841815
-0.09614051
-0.06275598
-0.3380064
-0.27848163
-0.43960828
-0.101493225
-0.065360926
-0.059709582
-0.0010176512
0.090284325
0.14034964
-0.008232242
0.094573975
-0.16151467
-0.2958052
-0.35940018
-0.09989704
-0.036125403
0.10605845
0.05255834
-0.03012504
-0.25253028
0.124938495
0.061438672
-0.014754344
0.007077651
-0.06531411
-0.12381214
-0.12885253
-0.10851911
-0.2913999
-0.33750954
-0.413029
-0.124232695
-0.10818338
0.090097286
-0.13649496
-0.08739116
0.019655067
0.015075878
-0.09559468
-0.32824364
-0.1749359
-0.17961086
-0.2222888
-0.117534615
0.15151839
-0.12342159
-0.19770353
-0.42988107
-0.07477086
-0.16761972
-0.24320962
-0.03470446
0.10950727
0.03593119
-0.029501358
-0.20777412
-0.20410436
-0.2824214
-0.28607175
-0.060119234
0.10669129
0.23003311
-0.0021573645
-0.059943505
-0.06394706
-0.07385747
-0.24181817
-0.17130694
-0.2820274
-0.53591424
-0.3732276
-0.23900807
-0.06998638
-0.24328999
-0.29288644
-0.83612067
-0.383161
-0.052790493
-0.01691919
0.026130082
0.33671823
0.19475313
0.23451065
0.10619668
-0.035111807
-0.19534682
-0.2510172
0.20837723
0.27649462
0.2150816
-0.076114535
-0.31758153
-0.3234852
-0.24058235
-0.21016659
-0.13064101
-0.40767196
-0.7262552
-0.5786287
-0.044295087
-0.017070904
-0.16073328
-0.25075582
-0.7274214
-0.38383523
-0.12092895
0.05395618
0.019996662
0.31278774
0.47399482
0.26255968
0.29431587
0.17909577
-0.15532264
-0.13626903
0.10714162
0.06510976
-0.04317019
-0.20704934
-0.3467559
-0.24379767
-0.24840632
-0.29029238
-0.2260323
-0.33423048
-0.95849526
-0.44076458
0.15873966
-0.12725733
-0.11604565
-0.046327386
-0.6426127
-0.41745868
-0.059461296
-0.045148343
-0.055676993
0.07766011
0.19137421
0.16582754
0.16438375
-0.1429515
-0.08957152
-0.073226474
0.01851196
-0.2360073
-0.27322334
-0.3589942
-0.30228168
-0.25827718
-0.35150796
-0.34915227
-0.22793381
-0.30889255
-0.92011905
-0.3821535
-0.19032146
0.018911498
0.2219927
-0.025485728
-0.6708684
-0.2831287
-0.08825473
-0.13021977
-0.12997761
-0.079985894
-0.17553714
-0.14680864
-0.32003978
-0.3108744
-0.14806889
-0.15234457
-0.3403779
-0.36360902
-0.45846853
-0.36540833
-0.27066624
-0.26118958
-0.27124587
-0.21507941
0.022597462
-0.18392137
-0.6508395
-0.3404659
-0.12945892
0.063089564
0.11646035
-0.07856717
-0.72556365
-0.33221346
-0.18911672
-0.25581524
-0.27382454
-0.30927488
-0.37678054
-0.24673519
-0.3354655
-0.21086404
-0.086492896
-0.2565234
-0.24360253
-0.28143162
-0.31898734
-0.35351554
-0.19855717
-0.2321092
-0.18298125
0.039308894
-0.023675429
-0.35978478
-0.5236715
-0.26489562
-0.14258152
-0.16905074
-0.04312135
-0.39039972
-0.6553385
-0.3534043
-0.18397659
-0.2708536
-0.19053867
-0.34666663
-0.19562997
-0.27200657
-0.05160968
-0.030813528
0.019888524
-0.10569472
-0.24744834
-0.3060315
-0.25710434
-0.37464467
-0.43268892
-0.15872248
-0.035276614
0.100884356
0.021446928
-0.2105635
-0.5312348
-0.32715762
0.031768464
-0.12016034
-0.08689895
-0.65023243
-0.70545006
-0.4644768
-0.3160046
-0.22665419
-0.1695364
-0.086297914
-0.14314865
0.00900801
0.23536003
0.39751267
0.42045343
0.24589266
0.022952283
0.022584526
-0.030217117
-0.17243195
-0.2983435
-0.19857197
0.17203301
0.21037857
-0.028437862
0.05628624
-0.18002734
-0.10157399
0.019432267
-0.014370702
0.01897788
-0.39007
-0.5143115
-0.6123428
-0.5095569
-0.25754353
-0.09395001
-0.11951688
-0.038684323
-0.057679527
0.17182618
0.23413105
0.32523397
0.34117225
0.28478864
0.13923718
0.1659884
0.0027988765
-0.03401948
0.3117948
0.23483375
0.15994221
0.08323601
-0.06495338
-0.23719214
-0.2692695
-0.056431234
0.042139277
0.057279304
-0.104879834
-0.38699746
-0.42018038
-0.36771983
-0.34128532
-0.2455861
-0.15120137
-0.110494986
-0.19873296
-0.26208442
-0.08369582
-0.07135301
-0.08815968
0.08828266
0.13455413
0.059448466
0.3117801
0.38076186
0.34550667
0.23183596
0.26365796
0.40236497
-0.118539125
-0.3333782
-0.16505103
-0.057340994
-0.059735604
0.02405648
-0.20160067
0.1446654
0.12018914
0.1325776
-0.028679669
0.10103458
-0.20723563
-0.07791131
-0.07087219
-0.20121776
-0.4371673
-0.28669104
-0.090091646
0.06066993
0.14087938
0.2886079
0.009309954
0.15884008
0.37351114
0.17591883
0.08514739
0.32007346
-0.061238118
-0.0494903
-0.10430503
-0.0121002495
-0.045621634
0.05412039
-0.02218873
0.10846242
0.23626493
0.15110949
0.32641578
0.38199845
0.45186704
0.53252435
0.50062627
0.48421583
0.36918855
0.309978
0.36993194
0.41084263
0.2143591
0.11478972
0.04931509
-0.03466856
-0.094487816
0.077635564
0.12347344
0.0993279
0.024593962
0.041143578
0.016112745
0.0163062
-0.05145765
-0.06048621
-0.01403258
-0.05264646
0.043850813
0.013060953
-0.010513328
-0.04905284
0.07766271
-0.009144452
-0.029942134
0.046560485
0.107117124
0.03849396
0.18952262
0.0009004245
-0.036453832
0.029021377
0.15876584
0.16545245
0.052107174
0.024552137
0.0075234245
0.04937518
0.042214155
0.048638046
0.071096644
0.042044237
-0.036286227
0.017014205
0.04408206
-0.081197806
0.0040909573
0.04172796
0.08607954
-0.022105396
-0.043229148
0.040033504
0.024606384
-0.015383162
-0.1263261
-0.21196088
0.041448142
-0.041397046
-0.06941362
0.030777603
0.07760115
0.0373061
0.019519217
0.026399203
-0.035649557
0.06583403
0.046784595
-0.004844211
0.05723241
-0.02073691
0.069467604
0.03192933
-0.029431682
