0.00855178
-0.08520812
-0.04824750
-0.00051896
0.01935751
-0.04037764
-0.03099830
-0.02974433
-0.05523691
-0.07890937
-0.04271547
0.04803322
0.11637570
-0.02846610
-0.10526943
0.00667742
-0.02069985
0.02728191
0.05512203
0.03811805
-0.01442846
-0.05206946
-0.00159448
-0.00255015
0.05789344
-0.05994865
-0.08019264
-0.08125298
-0.01842066
0.01338189
-0.01101653
-0.01201078
-0.06289687
0.03254355
0.10333079
0.07029923
0.18447727
0.20836064
0.27201629
0.06737144
0.25457874
0.06889907
-0.25617048
-0.17587884
-0.44963133
-0.12705101
0.30024588
0.32166919
0.31934494
0.30920780
0.27381811
0.08983511
0.08003780
0.01183967
0.05664359
-0.05056753
-0.01954439
0.05453935
0.12757039
-0.16726589
-0.02474965
0.18225855
0.07202169
0.16270384
0.19572696
0.10751014
0.18784773
0.16335356
0.28180140
0.13155232
0.16048862
0.17647223
0.11101913
0.21702732
0.31224972
0.59399289
0.44908655
0.56819808
0.46518061
0.34903806
-0.11340851
-0.12563279
-0.08384639
-0.05630925
0.04428959
-0.05051849
-0.09034643
-0.05511972
-0.01454873
0.22826932
0.31008729
0.17745012
-0.04170551
0.02715273
-0.06578829
-0.10339657
0.02354902
-0.12181095
0.18280160
0.28432572
0.38329512
0.37600937
0.60063827
0.64102823
0.59897751
0.56048602
0.50174451
0.43241343
0.24896483
-0.02073125
0.20694163
-0.04029937
0.06809594
-0.03870732
-0.26021576
-0.12081438
0.10008934
0.15098730
-0.01620803
-0.15762240
-0.43583217
-0.47901866
-0.55669206
-0.33539018
-0.37754214
-0.42455423
-0.28800282
-0.17408186
0.09626753
0.22833025
0.35659218
0.66161597
0.91344959
0.84081942
0.81497914
0.66893840
0.38425410
0.12799996
0.02051329
0.11403687
-0.08596587
-0.07435007
-0.19680922
-0.11682670
0.02117154
0.14532864
-0.00144515
-0.17404902
-0.13814786
-0.20342426
-0.34074792
-0.38040337
-0.29771677
-0.46717963
-0.23103419
-0.16215241
-0.12454272
-0.20354562
-0.03544819
0.18766110
0.31077465
0.41789374
0.50035781
0.78422892
0.65708202
0.32232195
0.01450691
0.16965979
0.01433833
0.04898041
-0.05419421
0.11289284
0.22774142
0.29493421
0.15135497
0.35102189
0.28202319
0.15060018
0.05821408
-0.02846205
-0.23630910
-0.37142548
-0.31841120
-0.23951466
-0.35391480
-0.35698524
-0.51057541
-0.26230302
-0.32798061
-0.14724264
0.18800354
0.39070302
0.43946916
0.00292353
0.03477663
0.12744172
0.03377515
0.31133610
0.06503390
0.25938496
0.15319045
0.26611114
0.18625392
0.33010471
0.24701330
0.31511959
0.21618690
0.02286516
-0.09357244
-0.25016510
-0.51438779
-0.43270969
-0.42336351
-0.20580728
-0.37006801
-0.34766555
-0.18834031
-0.31162298
-0.01165876
0.04295357
0.05631518
-0.23153870
0.25160247
-0.04499934
-0.23101762
0.31433314
0.28496596
0.27953231
0.23986046
0.14526317
0.06712585
0.27780503
0.24983199
0.18802190
0.24920028
0.12332936
-0.01919720
-0.14314534
-0.34213173
-0.32976988
-0.33684075
-0.18656020
-0.19826394
-0.14903601
-0.07030825
-0.24174175
-0.00984081
-0.04178711
-0.30147922
-0.19637176
-0.15584134
-0.43969014
0.08128296
0.40459856
0.41306233
0.25023097
0.36261302
0.13694461
0.00439092
0.12707482
0.09121678
0.05077536
0.00413188
0.09079853
0.03065941
-0.07934283
-0.12674844
-0.13849847
-0.08735694
-0.12238756
-0.11814851
-0.13253255
-0.06513939
-0.02519181
-0.12871237
-0.18589124
-0.45026940
-0.38655534
-0.32709706
0.09229804
0.11900984
0.46233636
0.52091241
0.30644456
0.23475578
0.15332621
0.00507969
0.06667662
-0.00087767
0.05020905
0.03399773
-0.03375680
-0.01170725
0.22529311
0.01122809
0.01303517
0.09619225
0.04086995
-0.05542222
-0.00193137
0.02964731
0.04793465
0.03970385
-0.30007744
-0.25700936
-0.40297896
-0.42169362
-0.15989904
0.19089207
0.30769876
0.51441664
0.49239352
0.10784475
-0.13345133
-0.07103566
0.05589221
-0.00213908
0.02007600
0.05392563
-0.01990641
0.31261203
0.29124629
-0.07629375
0.13218278
0.26885527
0.16542482
-0.04696765
-0.19236711
-0.24285682
0.00982608
-0.04066174
-0.02695835
-0.32031685
-0.53492934
-0.52741253
-0.21248737
0.12072673
0.33421010
0.58048469
0.35283366
0.09056588
0.00994586
-0.01923173
0.12145582
0.12231079
0.06868275
0.09761418
0.22781205
0.11279900
-0.17474174
-0.31981412
0.07666475
0.34695634
0.17010072
-0.04263270
-0.21779604
-0.23840831
-0.15968318
-0.00953042
0.15499544
0.19932249
-0.11755795
-0.49658272
0.07452051
-0.03442684
0.10615739
0.57974529
0.26884082
0.05340772
0.03298721
0.21494259
0.07823832
-0.03394067
-0.05867699
0.01860553
0.01692223
-0.19003808
-0.43263873
-0.33738947
0.09228819
0.17609221
0.13121641
-0.08247369
-0.08558154
-0.26631337
0.00125031
0.25341773
0.27307755
0.28512412
-0.12492426
-0.62380880
-0.28035280
0.04491935
0.13193682
0.52437484
0.21228096
0.16006251
0.03747599
0.08148397
0.04698424
-0.04276242
-0.07873161
-0.04660716
-0.04055782
-0.18588540
-0.46304494
-0.20682892
0.10449222
0.11105545
0.16986667
0.06002422
0.21144471
0.12487141
0.14410138
0.41650671
0.36387619
0.26590794
0.02258944
-0.65494567
-0.26784468
0.10188776
0.01677000
0.37536955
0.16453429
-0.16395977
-0.05466188
0.12463719
0.13938750
-0.12344912
-0.02197380
-0.05577561
0.05358432
-0.13261260
-0.28306299
-0.08324252
0.07511473
0.10449146
0.21939388
0.21223550
0.28686446
0.26283580
0.35996974
0.34326100
0.24341272
0.09046423
0.06791411
-0.61429369
-0.27327701
0.22637138
0.04689073
-0.04344517
-0.16241454
-0.28045276
-0.04424299
0.09647505
0.15600556
-0.00260261
0.05095270
-0.03930888
-0.06738346
-0.16467732
-0.05333728
0.11332025
0.14613554
0.09772193
0.16845261
0.25097314
0.34629428
0.35001805
0.24513017
0.11368462
0.03549629
0.03909313
-0.23507380
-0.75349951
-0.24369894
-0.07022916
0.06692193
-0.22346494
-0.37532002
-0.36668751
-0.09811480
-0.07282711
0.08142374
-0.00987649
-0.02427266
0.02684551
0.03332422
-0.04424333
0.10255028
0.23628676
0.17857248
0.11817465
0.08321247
0.16653317
0.07647154
0.16194305
0.19081490
0.11519949
0.03842002
-0.09992800
-0.23502955
-0.35407752
-0.35197529
0.08973079
0.00932835
-0.16539821
-0.30674967
-0.39190227
-0.27218470
-0.33341038
-0.00792256
-0.09052304
-0.16930822
-0.08086039
-0.01967664
0.13302091
0.20150818
0.00777984
-0.00306008
-0.01583017
0.04241268
0.17577393
0.02407353
-0.10850286
-0.07955571
-0.12715717
-0.31841388
-0.24144189
-0.41524544
-0.09255534
-0.17638876
0.01390237
0.05698306
-0.05048560
-0.33591586
-0.34502101
-0.36767602
-0.24346204
-0.22162770
-0.05869176
-0.13258830
0.13836119
0.25092432
0.30496550
0.12360626
0.12261831
0.09998354
0.05524766
-0.11989948
-0.05769328
-0.08745140
-0.15751581
-0.18170913
-0.31475753
-0.40699479
-0.36121172
-0.51758361
-0.37910429
0.06634174
0.03189038
-0.14068745
-0.17804587
-0.50759906
-0.38487583
-0.58865571
-0.56667870
-0.44459364
-0.17365111
0.00598929
0.12512819
0.33047560
0.46601877
0.29564533
0.31092325
0.23225141
0.06156202
-0.03829094
-0.10401466
-0.10652235
-0.16808403
-0.38297892
-0.64979982
-0.59550285
-0.62178314
-0.39834073
-0.06325863
0.06374028
0.01794510
0.02230695
-0.26851928
-0.37708825
-0.44640961
-0.65358138
-0.73127729
-0.51504141
-0.16162732
0.03382674
-0.01552496
0.26863840
0.37457699
0.24406336
0.29729065
0.18782535
0.10200407
0.02865492
-0.08710413
-0.21988906
-0.30973244
-0.60993439
-0.62125796
-0.63990277
-0.53787011
-0.32971433
0.03317830
-0.02642792
0.04899937
0.07703774
-0.11060643
-0.29612136
-0.43190950
-0.43908778
-0.77218843
-0.37282047
-0.19069710
-0.14033838
-0.00905456
-0.10110119
0.02181109
-0.05022725
-0.01017291
0.14859147
-0.03068390
-0.10401700
-0.30570361
-0.33596340
-0.52618915
-0.54933429
-0.69276017
-0.92191339
-0.59613991
-0.36196998
0.12527497
-0.07600571
-0.08524948
-0.01629771
-0.15470825
-0.35902286
-0.14145088
0.17465760
0.21292548
0.06214678
-0.22028451
-0.19293380
-0.16440101
-0.38141632
-0.29127172
-0.34262070
-0.20819296
-0.16618408
-0.15438965
-0.35410601
-0.38724631
-0.43847987
-0.50933975
-0.43575785
-0.48889235
-0.77928787
-0.50353110
-0.35287181
0.06410752
-0.01859368
0.03928970
0.04877681
0.08329500
0.08465908
0.31867805
0.47537977
0.50323832
0.39322674
0.18163276
0.15055241
0.13677031
0.08150820
0.01130061
-0.07931808
-0.07590485
-0.11315469
-0.15687189
-0.04230442
-0.15247886
-0.30807853
-0.34818709
-0.33224618
-0.44818434
-0.68719739
-0.43509850
-0.16591290
0.07871480
-0.07873068
0.00496448
-0.02626115
-0.30977601
0.21750602
0.22459917
0.24777976
0.15321895
0.18164903
0.22080079
0.24030547
0.15255243
0.22489667
0.04806025
-0.00438997
-0.01909001
0.05057498
-0.15528020
-0.32457197
-0.30231550
-0.35724050
-0.42070833
-0.42420655
-0.22113021
-0.25038394
-0.06814504
-0.11369736
-0.06099719
-0.02597919
0.02936177
0.08613367
-0.05589882
-0.17510507
-0.07909919
0.02874846
-0.00204019
-0.16610478
-0.11362795
-0.15230748
-0.10400667
-0.22422764
-0.21415508
-0.21896283
-0.21940562
0.00598359
0.07417335
-0.06662241
0.08626795
0.21823317
-0.08996689
-0.01312804
0.31942788
0.03675265
-0.00180513
-0.01202808
0.08598661
-0.05332928
0.03063972
-0.02239655
-0.01581127
0.06603494
0.05681468
0.18479584
0.02458162
-0.07376504
0.01242681
0.10998182
-0.06272972
-0.08811687
0.00228186
0.22449096
0.05741648
0.34768406
0.41457382
0.59941334
0.22959761
0.32863927
0.15590271
0.29475313
0.18263820
0.28383109
0.04178266
-0.07113042
-0.07263519
-0.04637562
-0.04039602
-0.06415460
-0.01981650
-0.04279652
0.06795500
0.01668617
0.01772971
-0.06748060
0.02072653
0.01696554
0.00362930
0.07550849
-0.04767878
0.07578477
0.02610709
-0.05762821
0.02050781
0.05580205
0.06611660
0.08252266
0.03512211
0.07626604
-0.04289381
0.01147262
-0.01554155
0.04215667
0.00485720
0.06972201
0.00310086
0.00855891
0.02123481
-0.00521681
0.05647551
-0.02398897
-0.14764318
-0.13941459
-0.22132099
-0.18360461
-0.30086991
-0.14187604
-0.13282371
0.02457642
-0.09178917
0.07585158
0.37781531
0.24074034
-0.09696285
-0.35186440
-0.17628697
-0.24256192
-0.16411908
-0.07546139
-0.04747767
0.00361026
0.01310911
-0.07301486
-0.05674142
0.04283744
-0.04825547
0.09186701
0.06243826
-0.02702680
-0.11024679
-0.33844098
-0.28094906
-0.17875293
-0.14805909
-0.19560228
-0.05684394
0.10267058
0.08168869
0.03760863
0.15034452
0.04249982
-0.11995292
-0.48514810
-0.25695115
-0.29823506
-0.31493023
-0.31215096
0.01665869
0.09479903
0.02522551
0.01465958
-0.07079802
-0.01110297
0.23553517
0.10656042
0.06702249
0.07856918
-0.24195231
-0.16926289
-0.11397219
-0.03768851
-0.04223223
0.10348401
0.27410468
0.18394205
0.03093181
0.16851649
0.05656430
-0.06611168
-0.38075426
-0.32165003
-0.32436347
-0.43156222
-0.60600585
-0.58518213
-0.40343812
-0.12593183
-0.06896913
-0.07248119
0.07901409
-0.03196260
0.27907380
0.29722556
0.06912348
-0.02339361
0.12953073
0.00924736
0.08676166
0.04509306
0.09520524
0.22521769
0.29599467
0.37622961
0.33816767
0.30103812
0.18119515
0.01741749
0.00360287
-0.34755304
-0.35212609
-0.47808325
-0.74155432
-1.06776285
-0.71055186
-0.05031541
0.24329966
0.00246410
-0.02092941
-0.08629140
0.12860490
0.21694255
0.29240361
0.17352615
0.25602466
0.19582063
0.08282430
0.10640187
0.09781222
0.30529878
0.19863357
0.21451558
0.23209479
0.31278887
0.30845720
0.15679991
0.03239414
-0.23064809
-0.26536554
-0.37850428
-0.44786528
-0.74379909
-0.40250295
0.12267611
0.28686035
-0.07811528
0.03919728
0.08899292
0.25727582
0.38274407
0.19549206
0.23523971
0.46069655
0.29421273
0.38703182
0.35237265
0.30057898
0.28729120
0.16779925
0.20551626
0.06018731
0.11278281
0.19581240
0.15955023
0.10252529
-0.13435392
-0.16542168
-0.11661452
-0.18015145
-0.25769526
-0.04833992
-0.07463287
-0.14659613
0.04649271
0.08246588
0.17203699
0.22848879
0.39174882
0.41591519
0.28215849
0.58341426
0.26458699
0.26456603
0.20024976
0.10354836
0.15249543
0.04031867
0.08620473
0.02535200
-0.10189439
-0.00094515
0.03784489
0.11794579
-0.01618445
0.07662087
0.03371987
0.18655558
0.14743435
-0.03984965
-0.01299449
0.09221109
0.30349749
0.18073422
0.12606969
0.23536037
0.61552513
0.56505346
0.46251923
0.33470282
0.36014509
0.13377251
0.09856042
0.21055897
0.11930026
0.22996978
0.08577644
0.14646895
0.21810544
0.17121823
0.34892291
0.39045939
0.36086655
0.37495360
0.32899368
0.49209231
0.44719934
0.27999553
0.14951941
0.43557167
0.31183425
0.02722113
0.23287605
0.41223153
0.61358130
0.62164289
0.68451267
0.40645570
0.15128791
-0.02646675
0.02324120
0.13051692
0.13347220
0.19789600
0.24458931
0.34949094
0.42560795
0.47327772
0.65732706
0.55422819
0.53190088
0.56688559
0.53234392
0.60137480
0.71768081
0.64729577
0.60863465
0.56727260
0.39810249
0.06811032
0.27477536
0.45855907
0.68563658
0.63181871
0.67619133
0.11616607
0.00237520
-0.12329632
-0.10596578
0.09365876
0.01698985
0.03163438
0.30495292
0.73237187
0.62688595
0.67721713
0.54162782
0.53389192
0.46718886
0.54704702
0.44020635
0.59115744
0.58335227
0.61619753
0.50367105
0.70761830
0.29505864
-0.00924488
0.43364966
0.65221649
0.73947483
0.67952532
0.24479522
-0.03186562
-0.19332744
-0.30951288
-0.30280489
-0.21147372
-0.09653508
-0.15453260
0.26819846
0.57632309
0.41248912
0.23396260
0.25119421
0.29229465
0.16302052
0.15902409
0.01099983
0.09929547
0.22544317
0.39742360
0.47849378
0.60662454
-0.00670288
0.08748554
0.29281428
0.55692822
0.59301537
0.41425729
0.10955147
-0.44797662
-0.48671541
-0.33659470
-0.38297483
-0.48294738
-0.41598022
-0.44004077
-0.16648279
0.18581320
-0.07566682
-0.07347579
-0.06779671
-0.02080180
-0.08948824
-0.07307101
-0.15886530
-0.10709436
-0.11148954
0.26017931
0.66564882
0.48420531
0.18768756
-0.03530747
0.18199477
0.50904489
0.53887093
0.01444134
-0.26871961
-0.70925385
-0.62353551
-0.41639081
-0.39553070
-0.41222718
-0.41612732
-0.34649572
-0.25341687
-0.10877024
-0.25763139
-0.25134307
-0.22805020
-0.07880676
-0.07910051
-0.08646331
-0.29579639
-0.28714770
-0.06634986
0.18935904
0.53250378
0.49489811
0.12476456
0.20282820
0.04636559
0.30438501
0.34692216
0.02363166
-0.20376582
-0.40747079
-0.51051104
-0.31899437
-0.35905212
-0.35174170
-0.40391716
-0.27061400
-0.01375620
0.02509629
-0.17776288
-0.31854802
-0.22116247
-0.02999797
-0.02519123
-0.19750327
-0.24128827
-0.23020980
-0.00258098
0.19364215
0.39944437
0.62979412
0.22212631
0.17410661
-0.14142473
0.10819362
0.34471533
0.37662995
0.19364451
-0.11257321
-0.29462615
-0.39393985
-0.26560643
-0.29859123
-0.32289398
-0.24293248
0.06704896
-0.00444643
-0.24280931
-0.21536827
-0.19324650
0.02364169
0.00374283
0.03016049
-0.02868973
0.00767742
0.08896579
0.40988478
0.38095397
0.61120313
0.20382319
0.08485887
-0.06045894
0.15960483
0.60819042
0.77503753
0.57147980
0.26667276
-0.29463330
-0.38582194
-0.16381253
-0.39034504
-0.47960925
-0.03681124
0.02089991
-0.13077740
-0.13385810
-0.12816861
-0.02525084
0.11352783
0.16661279
0.07968020
0.10224336
0.13406254
0.39506403
0.52331984
0.41568965
0.81332749
0.18447782
-0.07693070
0.11622209
0.09380665
0.64430946
0.75426191
0.64077759
0.39364332
0.00059681
-0.35754329
-0.28507507
-0.32732695
-0.26675093
-0.08119485
-0.07874116
-0.11132657
-0.20119283
-0.02204380
0.06460397
0.04538373
0.10271786
0.08653544
0.13219543
0.27242285
0.42184877
0.59648889
0.39958116
0.67176348
0.40032870
0.06764013
0.08673625
0.22405611
0.54452085
0.58462274
0.65594548
0.44545507
0.13501462
-0.00125835
-0.11717526
-0.14394434
-0.18183805
-0.12377518
0.05280993
-0.09495842
-0.06936800
-0.11145689
0.06560306
0.21744613
0.05384810
0.13766873
0.11450843
0.32442734
0.41950363
0.57668853
0.52873856
0.37129587
0.20261061
-0.04961567
0.30879647
0.27823344
0.51387298
0.31498933
0.42325488
0.43394923
0.38536379
0.27122045
0.20642655
0.05942617
0.00750466
0.05484883
0.07589722
0.03087790
-0.22506048
-0.06868347
-0.00228400
0.16664134
0.08544990
-0.00433327
-0.01178447
0.17122895
0.28501022
0.39195803
0.50228024
0.38337854
0.23275401
0.01891342
0.24392731
0.14417006
0.44629213
0.29518974
0.30875376
0.34507239
0.50739884
0.39908034
0.28207153
0.21354450
0.10987178
-0.03218975
-0.15437661
-0.17334762
-0.24244940
-0.17871399
-0.00347323
0.13529506
0.06181396
-0.07822829
0.07342845
0.02551228
0.25288716
0.23205961
0.07481547
0.24742137
0.06946237
0.04585607
0.04467431
0.10702524
0.31526658
0.36589023
0.34412229
0.56889695
0.39173353
0.31169316
0.21723361
0.00401909
-0.10066994
-0.24324797
-0.20354325
-0.21664181
-0.12731479
-0.09641875
-0.12918375
0.01609676
-0.03976502
-0.06390624
-0.01830815
0.02503656
0.07267104
0.16954182
0.14549956
0.29626450
-0.05525383
-0.05369531
-0.01047682
0.07102752
0.29643899
0.25735834
0.37311038
0.57710719
0.44765073
0.35175851
0.14262249
0.12869619
-0.01344276
-0.02946403
-0.05394631
0.03765499
0.11428899
-0.06237200
0.04692313
0.02011971
-0.02064385
-0.02906673
-0.01366646
0.02847962
0.05144826
-0.04549886
-0.13029255
-0.18716773
-0.03811102
0.04967465
0.07041909
0.04543069
-0.05973408
0.19043157
0.19500282
0.18177997
0.14273205
0.08199151
0.09037445
0.24457729
0.24320042
0.26260987
0.27586684
0.22754903
0.29490066
0.09130099
0.13753767
-0.01753105
-0.06367002
-0.14366242
-0.20325765
-0.05617254
-0.18140076
-0.26399365
-0.22196938
-0.04242788
-0.02521785
-0.01957852
-0.01765729
0.09053797
0.01451011
0.28824586
-0.21146789
-0.36011413
-0.33269981
-0.35082099
-0.13883150
-0.02121116
-0.03492968
0.25979117
0.25054085
0.22210464
0.15439737
0.05993667
-0.12158275
-0.19570518
-0.25927266
-0.56200719
-0.47114980
-0.50100100
-0.54154527
-0.11577968
0.14208646
0.12130347
0.01832669
-0.06343950
-0.06836275
-0.11989237
-0.10879304
0.12396016
-0.26614931
-0.38755506
-0.38842371
-0.23005238
-0.17358904
-0.06586134
-0.06308509
-0.03143913
-0.02823829
-0.06208028
-0.03087205
0.07334296
-0.04953374
-0.10666881
-0.21109292
-0.44097075
-0.48165759
-0.40300044
-0.50762749
-0.00566187
-0.00965513
0.18895647
-0.02375587
-0.00228710
0.04189597
0.04796872
-0.23934831
-0.47381824
-0.34701103
-0.42298159
-0.39531121
-0.32158569
-0.15625347
-0.17128760
-0.13645904
-0.28235793
-0.08356487
-0.17899561
-0.01298501
0.06538883
0.21938050
0.09059916
0.11609600
-0.25319442
-0.43085307
-0.07618741
-0.25229374
-0.01241292
-0.02652751
0.04816613
0.04778072
-0.03409502
0.08017017
0.02494875
0.04631817
0.00798732
0.07588989
-0.09215241
0.04933270
0.09414528
0.22239870
0.12267160
0.11773712
-0.00605565
0.30370337
0.07568758
-0.04241682
0.13786809
0.36054713
0.13681354
0.04227640
0.26768923
0.16278762
0.23020086
0.23790123
0.02372527
-0.05715518
0.05539717
0.00783648
0.01874258
-0.01278472
0.08525009
-0.07663740
-0.00599276
-0.06553689
-0.02403820
0.05403578
-0.04039856
0.02254406
0.02765667
-0.03834395
0.03044722
-0.02474530
-0.06022967
0.07997451
-0.05712502
0.06677930
-0.05969086
-0.08429314
0.01048110
-0.07630698
-0.02561480
-0.04185176
-0.05465174
0.03179361
-0.03357994
-0.04781611
-0.00154436
-0.04889585
-0.07544731
-0.00663504
0.00912291
-0.02594204
0.04801738
0.12785332
0.10612129
0.11783388
0.11796203
-0.00043304
0.02008609
0.06424759
0.16283962
-0.00269699
-0.03124405
0.01884649
0.04708854
0.04659548
0.10438808
0.12088334
-0.02553393
0.04714441
0.06980871
0.03959516
0.06233913
-0.01105589
0.01040923
0.04767579
0.05056768
-0.11240179
-0.05644872
0.11578251
0.14311208
0.33600265
0.33983001
0.59459531
0.43064988
0.30253166
0.46925217
0.45982811
0.40844163
0.31502151
0.28627795
0.19990984
0.53876305
0.60013258
0.54947865
0.49675918
0.22185984
0.21910481
0.13720322
0.09106014
0.04630789
0.08037560
-0.05019901
0.02882598
-0.07896122
-0.02688075
0.13903178
-0.12369574
0.25377858
0.30334505
0.15280554
0.13090278
0.07582898
-0.15613949
-0.17264505
-0.14707665
-0.02286484
-0.01432445
-0.05503693
-0.14172460
0.16160680
0.22107431
0.18798545
0.49551916
0.63932252
0.44411698
0.22700414
0.10495020
0.07297086
0.07082899
-0.04275929
-0.11388545
-0.17295215
-0.12990008
-0.17103615
-0.11962741
-0.01339857
0.01353198
-0.01754339
0.04371419
-0.04453460
-0.11763895
-0.09578770
-0.06607231
-0.02133220
-0.23239088
-0.16485257
-0.09130210
-0.15226729
-0.06419315
0.12921022
0.12173088
0.21687765
0.51531851
0.25631854
0.20550664
0.22519967
-0.04754661
-0.03527451
0.02637342
0.09550595
-0.23585312
-0.19289264
-0.39322421
-0.36025193
-0.09878010
-0.07895001
0.03074426
-0.02089337
0.06115758
0.04972964
-0.08955517
-0.11199254
-0.16683036
-0.16194640
-0.14465527
-0.22179158
-0.15625577
0.09908190
0.05780335
0.12828588
0.40994605
0.34583104
0.35127917
0.41831309
0.13869536
-0.02915864
-0.12781809
0.02562959
-0.48407957
-0.23341474
-0.26276398
-0.34152833
-0.23093122
-0.13640991
-0.15957479
-0.05009266
-0.00618940
-0.00439300
0.06349991
0.15636589
0.13380018
-0.03933322
-0.12064838
-0.12009268
0.05537456
0.06646929
-0.11027212
0.03945774
0.28023943
0.61185294
0.95256925
0.75072920
0.14657871
-0.04173522
-0.45833638
-0.15016077
-0.65000063
-0.32868072
-0.38688663
-0.17311160
-0.26443377
-0.08025291
-0.05901475
-0.11959353
-0.04713057
-0.00427823
0.04731750
0.09575822
0.13122773
-0.00747346
-0.19205591
-0.07801670
-0.02592096
0.08899806
0.11088138
-0.11628978
-0.02024557
0.38100004
0.85698056
0.72237313
0.17383817
-0.14917612
-0.37497124
-0.38804293
-0.75665551
-0.51652968
-0.37717986
-0.24261037
-0.28978842
-0.13206051
0.01608825
-0.02543594
-0.08606360
-0.10651196
-0.01590249
-0.13015807
-0.25904998
-0.19277404
-0.18344791
-0.13333894
-0.06760462
-0.01516987
0.08390681
-0.21992858
-0.20786533
0.42735466
1.07887363
0.85308826
0.42036995
-0.04588988
-0.34682158
-0.56603795
-0.71260262
-0.52917510
-0.24561927
0.03649684
-0.01181218
0.18095422
0.03926981
0.10250457
0.11592669
0.03086751
-0.24481505
-0.48078778
-0.36645097
-0.31517082
-0.33244678
-0.28692171
-0.07622369
-0.11687637
-0.08589128
-0.14309736
-0.13929959
0.10473560
0.91821450
0.70227849
0.25186241
-0.06585582
-0.26116070
-0.57158870
-0.80533373
-0.44615650
0.08230412
0.20995943
0.25469941
0.25032467
0.12356846
0.19470903
0.19712962
0.04174475
-0.35457328
-0.56431079
-0.47095168
-0.55912322
-0.62129581
-0.59542477
-0.37574407
-0.40633804
-0.37401909
-0.25960368
-0.16259478
-0.24063046
0.68593222
0.53863156
0.19372657
-0.03098022
-0.25015184
-0.64556438
-0.65336144
-0.21294139
0.35601449
0.23555434
0.19555086
0.20462891
0.19819361
-0.03539597
-0.15192978
-0.21800448
-0.34592101
-0.17997214
-0.08576261
-0.11620669
-0.40735725
-0.49535891
-0.44799116
-0.33982927
-0.19673146
-0.11468614
-0.09203493
-0.20393866
0.47756886
0.48722005
0.19755682
-0.11611823
-0.31857327
-0.41777846
-0.41487625
0.02283415
0.23096021
0.07007692
0.01416018
-0.09312978
-0.17829174
-0.24900548
-0.35701606
-0.33141130
0.03890131
0.38140106
0.61237288
0.30352539
-0.04940156
0.00357574
0.08602016
-0.04557937
0.01160340
-0.05709637
-0.19300927
-0.20416832
-0.01513796
0.33066103
0.09528892
0.09645807
0.01671218
-0.33215255
-0.24912192
0.20386980
0.15027098
-0.01910036
0.00887974
-0.15910016
-0.14179985
-0.18567824
-0.03749022
0.26240277
0.58082032
0.64481354
0.74427783
0.36383718
0.19572574
0.23274840
0.38247535
0.27409250
0.15922251
0.02395352
-0.24151249
-0.23461817
-0.18579617
0.30929768
0.28007936
0.08216106
-0.06884035
-0.38029945
-0.05580756
0.34391895
0.06006559
0.08965347
-0.10561911
-0.17893963
-0.03252820
0.06853507
0.33663377
0.40317899
0.60360986
0.59000063
0.29366824
0.26639545
0.04523430
0.03835658
0.06321804
0.20381574
0.03626939
-0.06591613
-0.16838461
-0.33795819
-0.09600280
0.37387061
0.17184068
0.15109919
-0.08276071
-0.37298808
0.02964994
0.18698503
0.03197394
0.05057279
-0.13685410
0.03534798
0.11807982
0.23308039
0.52887219
0.48072776
0.72477758
0.42962965
0.31423897
0.10994199
0.08696532
-0.11019248
-0.01892752
-0.08134423
-0.11537695
-0.17322648
-0.26424143
-0.27152166
0.10750354
0.52881455
0.18087457
-0.10362488
-0.29273948
-0.27956644
0.00665050
0.05964963
-0.05642970
0.11918552
-0.11010217
0.00042224
0.24749005
0.28883177
0.52362490
0.78933150
0.80766857
0.64366943
0.46138850
0.16331142
-0.02459047
-0.06067620
-0.23447880
-0.21961224
-0.11069722
-0.24506320
-0.34944728
-0.14578214
0.38539308
0.70799786
0.08210287
-0.06940883
-0.27319187
-0.05686271
-0.00841834
-0.23421869
-0.09636828
0.10675459
0.11152880
0.14376336
0.15109943
0.29100916
0.35434046
0.49050719
0.78800625
0.72188038
0.37859595
0.14457177
-0.13378647
-0.03643901
-0.09681007
-0.07988252
-0.18083532
-0.17217071
-0.15704633
0.02706512
0.46142706
0.46273521
-0.07808679
0.05595184
-0.09912271
-0.29773873
-0.29708219
0.01758680
0.04377462
0.14479551
0.13017678
0.05036799
-0.02944893
0.04467439
0.13685836
0.38852519
0.62496060
0.49731845
0.31640545
0.05917185
-0.07937222
0.00306541
-0.03736668
0.02351426
-0.14740561
-0.32346535
0.02789223
0.21837430
0.55169165
0.39895448
0.33993110
0.08521604
-0.28452128
-0.38989553
-0.34788546
-0.16038622
-0.00888138
-0.03095105
0.00308886
0.04517871
-0.08058945
-0.13250460
-0.00376829
-0.03528901
0.18765397
0.16190329
0.08729523
0.09356016
0.06817727
-0.05288229
0.06715794
-0.07130620
-0.13476358
0.05614633
0.10740614
0.33791253
0.54737079
0.50109094
0.10297424
-0.01411422
-0.16174826
-0.16075426
-0.19113930
-0.08995411
-0.11060825
-0.00256770
-0.00470082
0.08235051
0.10998937
0.02777925
-0.20167525
-0.21144983
-0.13974045
0.02802404
0.19018750
0.18451235
0.16918319
0.15641172
0.09668656
0.08025403
0.02796010
0.24819493
0.34925684
0.37137043
0.55590349
0.22341584
0.10209420
0.07396132
0.05810621
-0.25363871
-0.20698932
0.20606056
0.13277906
0.00828109
0.16533321
0.26592252
0.19260024
-0.01372454
-0.10956287
-0.21529156
-0.14883094
-0.04719175
-0.06269237
0.05105169
0.22366628
0.10049596
0.10179193
0.15370068
0.26893461
0.32644466
0.43029267
0.49536768
0.41131949
0.10533401
-0.05360674
0.02684405
0.02169414
-0.36892977
-0.08512754
0.25912783
-0.02897198
-0.01699347
-0.02378961
0.11978007
0.15499133
-0.00401903
-0.08476304
-0.11722703
-0.23267877
-0.13960610
-0.04628927
-0.06547262
-0.03382083
-0.00633386
-0.06105564
0.17782485
0.25057760
0.31177562
0.40580899
0.45591971
0.33242741
-0.13213861
0.06197999
-0.07045155
-0.03937617
-0.25652745
-0.00063621
-0.10041952
-0.21695417
-0.17423837
-0.09574027
0.26184833
0.12701665
-0.05220436
-0.23042022
-0.06490370
-0.10492332
0.02344370
-0.15927173
-0.05652472
-0.10892526
-0.14986660
0.20150244
0.37364197
0.54851782
0.50336373
0.50894600
0.35889447
0.30050161
-0.00013115
0.02036967
-0.01400867
-0.05367837
-0.02310646
-0.36232874
-0.77826142
-0.76041007
-0.56835121
-0.36282840
-0.18875973
-0.06433426
-0.01928114
-0.06416826
0.11235473
-0.04327114
-0.04605175
0.06951219
0.07011036
0.06357224
0.23992580
0.45805022
0.61131513
0.50928223
0.51194894
0.63672006
0.43259463
0.23138502
-0.04355365
-0.03920009
-0.03784810
0.01906511
0.02423392
-0.24488269
-0.61666042
-0.62137932
-0.46421564
-0.58062148
-0.50503528
-0.21512794
-0.01597274
-0.13101035
-0.08609343
0.02527602
0.13930212
0.24482647
0.20430253
0.11730290
0.10748085
0.07879822
0.40918982
0.24727878
0.01037000
0.31235090
-0.16571161
0.13185056
0.00464011
-0.08517636
-0.07811425
-0.06361099
0.03925908
0.16454203
0.19074453
0.03774749
0.07368072
0.15406674
0.12419268
0.17659084
0.30439743
0.22854058
0.35980976
0.15386394
0.20962343
-0.02204352
-0.32896399
-0.29358909
-0.33053932
-0.49560893
-0.03231581
0.00852233
-0.18342844
0.15387498
0.01971677
0.01447465
-0.08591559
0.04151164
0.06298499
0.01940086
0.04502879
0.02853644
-0.18476163
-0.13839725
0.06644224
0.09458944
-0.05296520
-0.12820056
0.03764751
0.17919786
0.10412412
-0.11287024
0.18687524
0.21182986
-0.14695328
-0.27459601
0.02132854
-0.33000067
-0.27690980
-0.26343131
-0.09941973
-0.17168918
0.02426694
-0.05561555
-0.02446026
0.01241533
0.03646465
0.07422383
0.01099888
0.04145719
0.00041591
-0.01904147
0.07160245
-0.05742662
0.03864954
-0.00046740
-0.03033169
0.04605503
-0.00813795
0.06657463
-0.12327128
0.04261666
-0.03194710
-0.02577606
0.02935349
0.01542985
-0.01652500
0.04934579
0.05574431
0.03874613
0.07494265
-0.03706981
0.00965759
-0.03367393
0.03786245
-0.00079070
0.05970056
0.06071195
0.00126046
0.04975534
0.11755411
0.05848302
-0.11308168
-0.01973858
-0.04944781
-0.17350543
-0.11261254
-0.08221913
0.16438545
-0.04668694
-0.29468068
-0.16040879
0.20676550
0.06585231
0.15370008
0.16232973
0.07751183
0.05891389
-0.08407931
0.01513921
0.04886585
0.04522276
-0.06642544
0.00881981
0.07441807
0.07985952
0.15504017
-0.11568861
-0.01568191
-0.22297190
-0.36928225
-0.34632343
-0.43323925
-0.22940919
0.06153784
0.28613833
0.34537631
0.39688757
0.34314701
0.26520610
0.06756597
-0.02128400
0.07103706
-0.03985653
-0.19471054
-0.12875572
-0.00532544
-0.02202171
0.01431991
0.07205245
0.05835325
0.02689622
0.25873199
-0.02786580
-0.35409564
0.12607883
-0.04748051
-0.03373202
-0.01676537
-0.18486336
-0.23149176
-0.01289760
0.13854477
0.09432495
0.13875273
0.24388891
0.28531590
0.19253753
0.03023735
0.21088934
0.23138981
-0.18651399
-0.42539704
-0.32816964
-0.33770880
-0.11792132
-0.20296220
-0.08404981
0.01120387
0.06755818
0.20342822
0.27694601
0.14861800
0.28532439
0.26692247
0.15746546
0.19299825
0.17932916
0.19141419
0.24855751
0.16433741
0.16916898
0.15202191
0.18736202
0.06810835
-0.02135945
0.17341459
0.29630211
0.21392956
-0.01680814
-0.00000001
-0.14865927
-0.14930688
-0.32987753
-0.10439011
-0.11179757
0.01395926
-0.03615582
0.16449687
0.33702058
0.34434783
0.47366181
0.32613358
0.29385602
0.15592276
0.18642589
0.03935713
0.04743614
0.00850926
-0.02450907
-0.16911478
-0.08322906
-0.26749700
-0.43936598
-0.30257180
-0.17525929
-0.17078060
-0.12277677
-0.25157964
-0.30196708
-0.27375114
-0.58060616
-0.22368920
0.02171899
0.05452067
-0.03147010
-0.20806980
0.52730286
0.43462017
0.32354739
0.45109427
0.12420237
0.14241076
0.20186152
0.16118252
0.09406143
0.03388418
0.19304623
0.12557377
0.08932709
0.00105304
0.02476705
0.13569959
-0.05646474
0.01255521
0.00672701
-0.22150743
-0.64641559
-0.69177431
-0.89104879
-0.32974461
-0.16235073
-0.06881958
0.28523129
-0.03572796
0.60533929
0.60774946
0.49421439
0.30152798
0.02059016
-0.08025730
-0.00185963
-0.05541565
-0.11086961
0.25987604
0.13703915
0.26726303
0.31991217
0.16068275
0.16317214
0.17296398
0.14086586
0.20603715
-0.07873937
-0.17496374
-0.65302706
-0.99722993
-0.91996956
-0.39705381
-0.24752820
-0.12772816
0.02745682
-0.01814149
0.47813836
0.73822802
0.31086421
0.21815805
0.06648819
0.00726685
-0.23034933
-0.19924016
-0.17305051
-0.08611587
0.12579146
0.36259454
0.33309522
0.16204479
0.10647217
0.20206559
0.03415775
0.04581864
0.08521745
-0.23143902
-0.80627763
-1.11028934
-0.81079209
-0.37357602
-0.12663497
0.17323489
0.25800496
0.05800113
0.36098114
0.60115933
0.24775977
0.10585171
0.07085641
-0.13924281
-0.29464450
-0.24755043
-0.39197329
-0.18885554
-0.06150882
0.47785205
0.59224522
0.19674599
0.18741645
0.11500985
0.07088282
0.27889857
0.17096087
-0.06911378
-0.73376459
-1.01209044
-0.80761069
-0.46437961
-0.03313481
0.16342631
0.31964156
0.02228099
0.30618674
0.22864366
0.07168338
0.00276860
0.01101595
-0.24454491
-0.41582850
-0.31396398
-0.47021973
-0.45971093
-0.05837010
0.55669606
0.56668115
0.28563181
0.19964461
0.20923321
0.26135612
0.31635273
0.12742902
0.05244400
-0.45096871
-1.09096706
-0.48199135
-0.53046691
0.02986721
0.04353813
0.03226505
0.27498811
0.41816318
0.31858531
0.04320592
-0.08960269
-0.11663575
-0.13042502
-0.14745091
-0.07921497
-0.15389079
-0.33664382
0.00716430
0.45711514
0.53594697
0.24979234
0.36189374
0.37589210
0.32888526
0.45247063
0.15305111
0.18028674
-0.11469384
-1.04485667
-0.50740337
-0.35383293
0.11897174
-0.00081509
0.13317032
0.24185307
0.11592980
0.30879641
0.13251731
-0.00307023
0.11975954
0.05991198
-0.00621090
-0.02936157
-0.20671779
-0.24458075
-0.01600247
0.53745121
0.42733711
0.36456656
0.27821362
0.33499461
0.22600582
0.17148431
-0.06029741
0.05026123
-0.15474026
-0.65744179
-0.37761724
-0.26292366
0.32906818
0.09748068
-0.08876939
0.13915975
0.32818267
0.40384996
0.24983551
0.18585169
-0.02654682
0.05006142
0.02174827
-0.13724524
-0.33519578
-0.31670663
0.13873129
0.41767678
0.36753044
0.27379888
0.29344818
0.12027724
0.06268398
-0.14805427
-0.13899717
-0.22257040
-0.45894104
-0.48239073
-0.38152972
-0.30454549
-0.21730056
-0.20086351
0.15484068
0.11098369
0.46467507
0.26990741
-0.01208838
-0.05398272
-0.15477440
-0.15485376
-0.20203300
-0.31516474
-0.51613563
-0.19964968
0.17030936
0.40759867
0.29085624
0.26679388
0.11955649
0.10147081
0.08535375
-0.10433975
0.01156630
0.00040323
-0.20393538
-0.39419547
-0.46230492
-0.44886941
-0.09430749
-0.17846110
0.14575374
0.09590627
0.31410721
0.00008761
-0.31012559
-0.26779363
-0.39840469
-0.29545295
-0.41645613
-0.37447870
-0.39046288
-0.20526458
0.05472250
0.27833077
0.28355420
0.07612799
0.05349356
0.02785292
0.04635401
-0.01570637
0.06221648
0.08465562
-0.15542459
-0.48156860
-0.80368561
-0.21785501
-0.06508263
0.16063185
0.27925274
0.14621241
0.18958545
0.17445122
-0.21050091
-0.29265600
-0.19324571
-0.26305699
-0.35485229
-0.32811978
-0.26469114
-0.38354594
-0.02239415
0.13731754
-0.08833177
-0.16133361
-0.01525403
0.01818818
-0.02496783
-0.06800006
-0.02478716
0.09780969
-0.08943972
-0.47160473
-1.07197583
-0.38728282
-0.34937760
-0.03617529
0.20285285
0.04352962
0.29185110
0.02073037
-0.31511250
-0.37850162
-0.29704756
-0.28875899
-0.44667077
-0.31153390
-0.37238291
-0.25185999
0.01498715
0.04147689
-0.14046508
-0.14038378
-0.07632597
0.05608129
0.03725665
-0.09217374
0.01075743
0.14462999
-0.17895585
-0.88632429
-0.81459302
-0.09113283
-0.38363546
0.27364936
0.05477314
0.18069111
0.44865960
-0.08781630
-0.30201474
-0.24885172
-0.40379047
-0.33192289
-0.34631199
-0.42585465
-0.33787218
-0.44476992
-0.13658082
-0.08543120
-0.09782702
-0.14095378
-0.03789334
0.12689829
0.06202040
-0.03415767
0.05032612
-0.08538602
-0.52900964
-1.23436856
-0.81421953
0.14730038
0.04367395
0.12933126
-0.00428960
0.08031964
0.54024857
0.00039766
-0.06817923
-0.07272922
-0.18886346
-0.18803017
-0.22803669
-0.32088876
-0.37916780
-0.21756919
-0.03938559
0.12129404
0.05873379
-0.06658387
-0.02072048
-0.03404953
-0.01295561
0.02016046
-0.13849202
-0.30425364
-0.59842312
-1.09892321
-0.33671823
-0.08843701
0.17612591
-0.02030019
-0.20033458
-0.33118689
0.22148506
-0.09452181
-0.17827757
-0.08709244
-0.01391983
-0.16119394
-0.15590611
-0.22471286
-0.35857552
-0.29162225
-0.04080639
0.13169228
0.03036910
-0.04753432
-0.02306714
0.01397972
-0.02065190
0.07049977
-0.21913780
-0.44513682
-0.63504374
-0.74791259
-0.30297008
0.09173765
0.18897477
0.07978036
-0.17469484
-0.13736777
-0.03056155
-0.17868891
-0.09622364
0.01039842
-0.13140646
-0.05030336
-0.13132517
-0.14237528
-0.27417433
-0.24179403
-0.27712682
-0.02513188
0.10678853
0.05080826
0.02855444
0.05208281
0.10993568
-0.01662330
-0.16661003
-0.74096119
-0.91533816
-0.83750397
-0.20571472
-0.22002217
-0.00729366
-0.01982049
0.03946389
-0.02023266
-0.15122414
0.04324439
0.09010075
0.14684510
-0.05419683
-0.14073685
-0.07221853
-0.12995800
-0.23188946
-0.39210308
-0.34840229
-0.01684945
-0.00484544
0.06797445
0.18998390
0.13699608
0.06364918
0.05657652
-0.29974365
-0.64053738
-0.84526640
-0.67270648
-0.24967963
0.21484181
-0.00521152
0.08051379
0.00068517
-0.15875231
0.06208006
0.18657731
0.44965389
0.31053096
0.22183491
-0.04889401
-0.05429547
-0.01208812
-0.16416675
-0.11441817
-0.22801660
-0.15392505
-0.18969640
-0.12769964
0.05608458
0.15359688
-0.03833440
-0.08246802
-0.19636358
-0.25936916
-0.18726403
-0.09782643
-0.29887867
0.16391756
-0.04929609
0.03466981
-0.04276292
0.06741793
0.38651112
0.40644863
0.65182209
0.77893233
0.67276961
0.30254775
0.14935602
0.05904646
-0.14387824
-0.13183440
-0.11092547
-0.13265328
-0.20978248
-0.18603019
0.06053854
-0.00453092
0.14818881
0.44579560
0.39788032
0.28120008
0.06743203
-0.34414023
0.13091131
0.23249048
-0.07960354
-0.08073045
-0.02949565
0.22987376
0.10327305
0.46047220
0.76214367
0.84052181
0.92056531
0.94364601
0.97932154
0.75788641
0.73443806
0.68170929
0.57030594
0.48651817
0.25486028
0.50688660
0.52029347
0.64285052
0.77826035
0.94188637
0.79881150
0.33801726
0.05174546
0.09457584
0.01528944
-0.10748314
0.07984667
-0.00188778
-0.00936877
-0.04816708
0.03170132
0.14182565
0.56091821
0.72505206
0.77569538
1.04996908
0.98655784
0.80923212
0.59746855
0.38467354
0.52838862
0.75577933
0.85833967
0.75282514
0.63091916
0.50373030
0.41162854
0.45136485
0.37373498
0.41495126
0.23269431
0.05950037
-0.05594265
0.05274375
-0.06282030
0.06699543
-0.02673592
0.07869661
0.08467175
0.05455724
0.13550568
0.15609826
0.14047529
0.22367825
0.38785860
0.18041182
0.09267767
0.18967284
0.25340268
0.50103080
0.43375531
0.28494471
0.31592560
0.18247922
0.14645644
0.17901313
0.36150327
0.30025005
0.17186382
0.01591308
0.00102729
-0.01145177
0.02273966
0.04396935
0.05895784
-0.01194333
-0.06462856
-0.05013719
-0.07880706
-0.02752252
0.00521372
-0.06873544
0.01380415
0.01984312
-0.05682699
-0.14642829
-0.06690173
-0.13613506
-0.03019554
-0.03039533
0.05688988
-0.08385361
-0.00913861
0.02824139
0.05262685
0.06337191
0.04846038
0.08260624
0.03145819
-0.05036031
-0.00154368
-0.01454489
-0.06562368
-0.03881860
0.01905983
-0.11631280
-0.15033837
-0.38888231
-0.25744629
-0.30948287
-0.34422532
-0.44863650
-0.60995966
-0.70779151
-0.54799300
-0.17127079
-0.30294406
-0.35303029
-0.41220349
-0.46389562
-0.46009803
-0.50003546
-0.44667014
-0.30452961
-0.19579405
0.00663048
0.05735025
-0.07285161
0.05532658
0.06682310
-0.00738084
-0.07765610
-0.06473882
-0.20959704
-0.06965768
-0.42783517
-0.41599938
-0.60594845
-0.70833492
-0.88057303
-1.09332609
-1.07135415
-1.05872524
-0.95893830
-0.98498148
-0.84147924
-0.72434825
-0.78598464
-0.75939989
-0.71796793
-0.62627369
-0.54402214
-0.51467675
-0.36286482
-0.21850105
0.06703055
0.08640310
0.01495097
-0.00869370
0.14266551
-0.23648436
-0.13931938
-0.22133806
-0.40601689
-0.72204757
-0.86644614
-0.87980813
-0.99118263
-1.07499623
-1.06263447
-1.32207465
-1.34442687
-1.22713125
-1.18271506
-0.92150092
-0.86236763
-0.76979059
-0.71336335
-0.61479771
-0.45862520
-0.50800836
-0.54230517
-0.22193900
-0.25088227
0.07676302
-0.04317679
0.07789970
0.05873584
-0.12670760
0.07101969
-0.14873691
-0.36829066
-0.43374026
-0.39100459
-0.24183621
-0.33672476
-0.09256026
-0.22316477
-0.28326461
-0.40034342
-0.37804061
-0.29549006
-0.32350218
-0.37165987
0.13865381
0.18107721
0.21982059
0.17046776
0.10555288
-0.39421937
-0.50575745
-0.37813425
-0.22083400
0.00657116
-0.07685170
-0.05985811
0.01462171
-0.11281720
-0.09409381
-0.02479909
-0.02400480
0.02135097
-0.02773761
-0.21524274
-0.13069801
-0.31246722
-0.17666471
-0.14445983
-0.18729562
-0.22402847
-0.30857673
-0.22851980
-0.21778932
-0.13748117
0.03876331
0.25040671
0.29614997
0.25453559
-0.33795121
-0.38642567
-0.22146010
0.06309222
-0.10710805
-0.02995410
0.08444202
-0.06288303
-0.08151271
0.02291507
0.00485900
-0.01289291
-0.10123400
-0.17791323
-0.08936253
-0.11283798
-0.08778342
-0.15790521
-0.12489700
-0.13453986
-0.08382194
-0.09522355
-0.18172958
-0.18301475
-0.12934072
-0.05315652
0.10582568
0.02180382
-0.37753731
-0.01675000
-0.06743246
-0.03897603
-0.30673164
0.23907182
0.54198182
0.04994784
0.04302670
-0.00750099
0.01252966
-0.08502337
-0.16932946
-0.06186258
0.04171529
-0.04023683
0.11682879
0.00451300
-0.14642599
-0.04910474
0.07885736
-0.07445586
-0.08806840
-0.12323168
-0.13957104
-0.10513256
-0.07148837
-0.31742179
-0.35407305
0.11362623
-0.19801605
-0.20798567
0.16953498
0.36604860
0.44907266
0.11026970
0.00984011
-0.06360868
-0.05654329
-0.12083077
-0.17034535
-0.16849042
-0.13935871
-0.00246005
0.14933701
0.03166010
0.00722988
-0.13447390
-0.03285643
-0.00691417
-0.21660315
-0.18017088
-0.25243720
-0.17232861
-0.15970437
-0.32905412
-0.29368007
-0.22819538
-0.14444256
0.04811679
0.41767719
0.28895494
0.33029014
-0.08993111
-0.09951278
-0.10715845
-0.14866854
-0.12007708
-0.13990226
-0.13463834
0.01245231
0.15771629
0.09172792
-0.05769177
0.16549198
0.11922283
0.17552336
0.13599479
-0.08715037
-0.25821099
-0.20926294
-0.15307961
-0.37281299
-0.60796487
-0.79889852
-0.43471071
0.08172362
0.05232956
0.47811925
0.29129300
0.08100197
-0.22423276
-0.21102087
-0.08924147
-0.16105565
-0.04798749
0.00894763
0.00542966
0.11271112
0.15027551
-0.14958604
0.05105102
0.37734714
0.44872236
0.29811648
0.17684740
0.10052303
-0.16550747
-0.00528805
-0.18930878
-0.68958580
-0.88905948
-0.81210816
-0.45505723
0.08880386
0.11148884
0.36200994
0.34658277
-0.12651147
-0.12386882
0.05240284
0.06721886
0.17503183
0.18217656
0.01274977
0.05817996
0.09981801
-0.05396922
-0.24530913
0.26053321
0.63047957
0.46555340
0.42789873
0.36864349
0.20633686
0.17104363
0.18044393
0.04007219
-0.64918995
-1.08633244
-0.82468742
-0.36274576
-0.05915552
0.20594306
0.08988883
0.34945276
-0.04578158
0.13730127
0.11599894
0.11699905
0.32347420
0.11350822
0.08932109
0.10758628
-0.05957415
-0.03950094
-0.10399939
0.35600731
0.29501104
0.35331357
0.32176909
0.42968893
0.26450586
0.24354167
0.34527043
0.18356504
-0.45537144
-0.97072750
-0.53261197
-0.10234268
0.00261380
0.12626955
-0.02561995
0.27842504
0.13520373
0.32222924
0.22589169
0.19371739
0.28037494
0.23883410
0.14981680
-0.02282956
-0.21860294
-0.19681840
0.07519021
0.30537361
0.23633991
0.19095199
0.27885300
0.27878717
0.32113421
0.46796370
0.43546960
0.13046981
-0.66697389
-0.66025078
-0.25691941
-0.34473446
-0.19635387
-0.26149431
0.10501627
0.26173216
0.29734421
0.51154590
0.31267124
0.28066230
0.27262682
0.21650605
0.03074309
-0.15605953
-0.37737986
0.01146300
0.31577140
0.27429211
0.14120206
0.13222115
0.41254455
0.41190961
0.54965729
0.41304478
0.19654053
0.05568623
-0.41774738
-0.48656836
-0.25339097
-0.45778742
-0.09541572
-0.12397040
0.00388370
0.18423299
0.21780494
0.47741157
0.36564261
0.34824014
0.11519957
0.17458932
-0.06590562
-0.16246623
-0.15433253
0.19719431
0.25549302
0.18537864
0.19875216
0.22939214
0.41651443
0.41125995
0.32337657
0.13821702
-0.07000610
-0.05542722
-0.20823821
-0.62880653
-0.58839643
-0.20941068
-0.03675499
0.12734543
-0.16106340
-0.16373940
-0.10216459
0.46347693
0.31009084
0.13594677
0.34563896
0.24844994
-0.13515127
-0.22359838
-0.10040624
0.08183346
0.14755878
0.26581627
0.28441173
0.32576978
0.37814191
0.34654111
-0.00067117
-0.00835044
-0.05095912
-0.06929507
-0.20984496
-0.41556880
-0.68952864
-0.28399578
0.10362541
0.03062353
0.07633799
-0.10952477
-0.24502137
0.13677868
0.08647443
-0.09802526
0.08685716
0.15467879
-0.06933153
0.00983176
0.03043860
0.30919725
0.44718108
0.55023056
0.38017631
0.25616446
0.08289581
-0.07143597
-0.31229725
-0.10811815
0.00788647
-0.13472155
-0.00321881
-0.14624694
-0.21245570
-0.16197039
-0.13246691
0.12276817
0.04490603
0.08535396
-0.08559104
-0.15081701
-0.14180592
-0.32913533
-0.27575332
-0.05109952
0.03323278
0.00701107
0.03444406
0.14228415
0.40749130
0.34961861
0.14796907
-0.10772441
-0.38833594
-0.36515370
-0.37027442
-0.24098264
-0.15159766
-0.35746682
-0.25920233
-0.24289013
-0.28502071
0.25394472
0.19560601
0.15607336
-0.21636836
0.05605770
0.17509936
-0.36470973
-0.45635194
-0.41821641
-0.33998877
-0.45095423
-0.49012256
-0.46469545
-0.26250526
-0.30010444
-0.07651766
-0.08709983
-0.30856606
-0.43778870
-0.39319539
-0.47787043
-0.50053680
-0.55772150
-0.57479006
-0.83528227
-0.57487631
-0.16731618
-0.23501143
0.10562231
0.28896040
-0.05548079
-0.21695542
-0.12092660
-0.15554735
-0.61147386
-0.62900728
-0.32249376
-0.47136146
-0.49704659
-0.67178917
-0.70281744
-0.65519148
-0.67152876
-0.45100269
-0.19425142
-0.39935842
-0.21873635
-0.25906420
-0.49031839
-0.61147279
-0.68860584
-0.53925133
-0.64249188
-0.43260705
0.25420007
-0.01172773
0.10875691
0.09682643
0.05610374
-0.04852378
-0.28440279
-0.48740357
-0.46691653
-0.08821613
-0.20872340
-0.35714149
-0.28408533
-0.39178631
-0.24369292
-0.36878935
-0.56301868
-0.51458538
-0.33927980
-0.27978852
-0.02151307
-0.19385254
-0.26594368
-0.43058103
-0.53685105
-0.41969970
-0.47334540
-0.09899630
0.43299362
-0.09002043
-0.04748211
-0.00685693
0.14006931
0.16141225
-0.31007752
-0.31518984
-0.15608393
0.28981847
-0.02117268
-0.07587963
-0.10636208
-0.19444777
-0.10410871
-0.30386618
-0.44661817
-0.41873720
-0.21864729
-0.10134283
-0.10790227
-0.02254306
-0.08098719
-0.03281907
-0.26782060
-0.44209668
-0.26655051
-0.08912706
0.30895829
-0.07235485
0.12013995
0.02669115
-0.07829116
0.06404212
-0.31586948
-0.66922534
-0.17650625
0.28986272
0.07407758
0.14765751
0.03339673
-0.05303925
-0.09387051
-0.20051339
-0.20687872
-0.23667176
-0.29016101
-0.31157419
-0.06954799
0.03584117
-0.05944506
0.05882025
-0.14686257
-0.11980983
-0.01607770
-0.09600306
0.11793008
-0.28319874
0.05846231
0.05255584
-0.03044656
-0.02620941
-0.02765247
-0.53402704
-0.07678180
0.39472777
0.02731521
-0.20424031
-0.24184361
-0.37827131
-0.32489127
-0.38705078
-0.49219856
-0.52153516
-0.48474821
-0.53157073
-0.64180285
-0.35659286
-0.28540090
-0.12149183
-0.00878617
0.10858113
0.16670001
0.19729809
-0.31827429
-0.03346831
-0.06974932
-0.03841965
0.01412459
0.06154627
0.03345877
0.05820175
0.14366770
0.30960259
0.10163903
0.23041514
0.23779547
0.10001545
-0.10414727
-0.12826838
0.05837252
-0.19367607
-0.16186273
-0.38229135
-0.31175005
-0.24458599
-0.13750145
-0.13136744
0.10947086
0.13108666
0.10322919
0.17449963
-0.04661241
-0.10165260
-0.21637571
0.01877405
-0.03096479
-0.07735697
-0.05574510
0.05810045
0.10230827
0.26806810
0.46602392
0.50043303
0.53203189
0.54676247
0.47918016
0.24061991
0.22255075
0.14676714
0.51585430
0.55409849
0.37790832
0.37283194
0.33174515
0.05665078
-0.08255816
-0.07776982
-0.10939481
0.12916121
-0.03056717
-0.02126374
0.07301094
-0.05581197
0.04016575
-0.00268628
-0.02137311
-0.05592413
-0.03557055
-0.00364570
0.10162946
0.24646139
0.21577962
0.38011411
0.17420508
0.09296543
0.12783065
0.16753075
0.61377674
0.55091089
0.56378096
0.63946718
0.41339567
0.39993253
0.37749293
0.33099434
0.21229185
0.11120929
0.00644395
0.01377876
0.04043479
0.05301914
0.01576614
-0.02286203
-0.01423863
0.05234098
-0.06617904
-0.05742955
-0.06299308
-0.04903180
-0.05746228
-0.06402144
-0.08413595
0.03381945
0.04575871
0.03671610
0.07553269
0.06854603
-0.07283161
-0.05135146
0.00829557
0.03449062
0.00177539
0.01555130
-0.00320336
0.03005549
0.07119833
0.02560955
-0.08071645
-0.07217515
0.02480221
0.06078589
0.01575763
0.00863113
0.03897720
0.01587257
-0.03525733
0.13871823
0.21135865
0.12463942
0.21374980
0.12756123
0.05263535
-0.03990567
0.03955976
0.01619056
0.03933733
-0.03818595
0.22347803
0.20038725
0.15004632
0.24137588
0.25166556
0.08838210
0.02577680
-0.02858319
-0.03167716
0.00973405
0.07875223
-0.05672266
-0.00996565
-0.03612732
0.08679411
0.11090939
0.29459891
0.16335012
0.45903188
0.46972689
0.53377843
0.46963066
0.46156812
0.35765752
0.49626848
0.61713094
0.52386689
0.66525537
0.61018199
0.58060992
0.42496410
0.40551013
0.39967465
0.24266769
0.14325428
0.17797936
0.04696012
0.06325334
-0.00087272
-0.07520134
-0.22758201
0.02114737
0.14553688
0.25833073
0.45965359
0.39460945
0.40709612
0.60443282
0.68532270
0.60137802
0.63490063
0.40764451
0.39563322
0.51398462
0.39165202
0.29030037
0.35110334
0.40048411
0.58385450
0.63942218
0.38235682
0.32004109
0.37862283
0.28889155
0.28784561
0.01205713
-0.06633623
0.06342507
-0.24003658
-0.07618465
0.09514196
0.43093467
0.62122577
0.52487499
0.32048067
0.48484218
0.36140564
0.36625203
0.09801213
0.02902806
0.03919552
0.02112247
0.08186340
0.18247642
0.16412061
0.01317765
0.01199245
-0.07488208
-0.13372833
0.00809231
0.36856812
0.40039909
0.08786769
0.03624028
0.07439786
-0.00784019
-0.06250904
0.04888128
0.18587428
0.14018902
0.30677179
0.35442832
0.38221359
0.28267387
0.53075820
0.42038873
0.19099203
0.08892895
0.04161975
-0.01119621
0.04970019
-0.08627187
-0.09481801
0.04150798
0.04605539
-0.21420468
-0.26660320
0.02240662
0.29740602
0.72027630
0.54741591
0.32706335
0.00350007
0.06896344
0.04942654
-0.09750660
-0.08547081
-0.12958005
-0.11011749
-0.17709614
0.13607703
0.31773621
0.26182687
0.25339592
-0.05819220
-0.06644195
0.07798506
0.06213810
-0.04070242
0.05531227
0.01453448
-0.10654715
-0.16931851
-0.34189191
-0.23231547
-0.09687291
0.37239301
1.06099176
0.76511979
0.38446775
-0.07081678
0.15222883
-0.02262574
-0.15099628
-0.12355863
-0.08207207
-0.07267420
-0.11675940
0.18394560
0.12717307
0.04575847
0.03393681
-0.17487204
-0.20900603
-0.09103312
0.04776451
-0.10774367
-0.22338352
-0.34716070
-0.26232842
-0.22958496
-0.20024145
-0.17364961
-0.27721533
0.19825935
0.96744418
0.82838827
0.26349422
-0.16811973
-0.17923489
-0.22903037
-0.19821525
-0.06879350
-0.16118197
-0.10978013
-0.17812555
-0.02282941
-0.03441646
0.05078482
0.09448500
-0.24815407
-0.35187972
-0.22591183
-0.20684600
-0.23040527
-0.26152620
-0.34058550
-0.25561184
-0.11880641
-0.05986540
-0.08491997
-0.04141928
0.48303282
1.05755472
0.74991953
0.19867334
-0.10347532
-0.33981648
-0.11109560
-0.11180653
0.03356917
-0.06708635
0.00449911
-0.04618372
-0.01485418
-0.08154715
0.06051080
0.18497272
-0.14349526
-0.37318549
-0.33554289
-0.23018576
-0.26974595
-0.22546071
-0.39524814
-0.28714538
-0.14971995
-0.06226363
0.03892590
0.01864561
0.42043522
1.33304536
0.73822778
-0.04249659
-0.07294910
-0.35904077
-0.36720452
0.04753685
-0.09755831
-0.06685732
0.10878949
-0.09611382
0.02314915
0.02676749
0.21103331
0.05908125
0.01211727
-0.28994036
-0.44321534
-0.17202465
-0.20719579
-0.11554936
-0.19148529
-0.19562957
-0.15775767
-0.08100806
-0.19988520
0.04258701
0.51883113
1.28241253
0.77333421
-0.37473446
-0.10839087
-0.34245464
-0.31964150
-0.26620308
-0.12584175
-0.04442527
-0.02027816
-0.04413684
-0.01311893
-0.01240135
0.04686984
0.22040997
0.16010468
-0.16531932
-0.36224774
-0.06358031
0.12693158
0.15463176
0.13889216
-0.03863281
-0.24929871
-0.38313043
-0.49894080
-0.37849239
-0.09681000
0.85969907
0.48207945
-0.16096187
-0.07591075
-0.32235691
-0.55142915
-0.30843648
-0.06581913
-0.13194957
-0.20820375
-0.19846116
0.09694956
0.06989007
0.11618099
0.26952097
0.33312774
0.21491177
-0.00223756
-0.00482519
0.21616846
0.37311047
0.15561029
0.00692248
-0.25553390
-0.58560830
-0.65973175
-0.75922769
-0.61763740
0.02387835
0.29370490
-0.12071206
-0.03999188
-0.28362492
-0.56969506
-0.17001252
-0.19060931
-0.12745157
-0.38228086
-0.24141920
0.03018775
-0.00159531
0.12659919
0.26135030
0.45315418
0.37194362
0.02087012
-0.09958935
0.11631739
0.33910432
0.18675016
0.02391765
-0.18183973
-0.44534069
-0.48488495
-0.70237464
-0.26470077
0.18167934
0.45391744
0.21999222
0.15997759
0.05680555
-0.42853555
0.04075363
0.07780012
-0.16834007
-0.29220900
-0.34036306
-0.10181914
0.05360238
0.10097373
0.14780316
0.44519159
0.35427770
0.10033149
0.07225394
0.23305501
0.23005156
0.13095933
-0.19880119
-0.15033504
-0.20478001
-0.24415900
-0.28081861
-0.12336154
0.11473906
0.57403177
0.24350394
-0.17590998
0.11246923
-0.19570538
0.22997162
0.00184746
-0.08558729
-0.22582659
-0.27765518
-0.22393082
-0.08374344
-0.06226809
0.29012606
0.50344872
0.28164873
0.12012322
0.12947419
0.26835892
0.17706068
0.06290320
-0.00589982
-0.01881235
-0.05149705
-0.09011013
-0.13624151
0.04785981
0.37631571
0.64806968
0.18172826
-0.22116089
-0.01723054
-0.01632960
0.29747775
0.11154699
0.00682845
-0.06428938
-0.18585579
-0.36743659
-0.18179578
-0.12537320
0.20997174
0.43964550
0.15529969
0.03019503
0.18872289
0.38016182
0.19635469
0.17785646
0.11864794
0.09428893
-0.06427241
0.02073040
0.17143644
0.24580532
0.58611035
0.55767030
0.13138844
-0.02563247
-0.04809425
0.15171945
0.41614977
0.17957044
0.29981416
0.17480667
0.02736058
-0.18127552
-0.36531222
-0.21010260
-0.10420448
-0.10157240
-0.14851384
-0.04721721
0.17527191
0.29145992
0.46131423
0.33740973
0.31796551
0.24016422
0.11621679
0.04321045
0.12885167
0.18507220
0.32624978
0.24618705
0.14712687
-0.20200609
0.05561011
-0.08768751
0.69161379
0.39577651
0.39294380
0.43471086
0.26951265
-0.05996372
-0.30348876
-0.22378856
-0.18386716
0.02104775
0.02717483
0.04829929
0.26209113
0.47606915
0.53017098
0.40963039
0.29160184
0.03631099
0.14906757
0.20899734
0.35081556
0.25086385
0.31816790
0.00815092
-0.07689941
-0.15304388
-0.37512109
-0.02849828
0.65882736
0.35844237
0.44155428
0.40939799
0.27070051
0.17863612
-0.19011705
-0.05007866
-0.06066066
0.06762686
0.02486030
-0.13614748
0.10104115
0.37008476
0.57780260
0.64200157
0.45208547
0.26961514
0.25911120
0.26480219
0.25593135
0.06934299
0.18071003
0.00899824
-0.11387767
-0.03411723
-0.11338166
0.12919098
0.57206714
0.58836490
0.37804937
0.22085741
0.23368046
0.07770504
0.01894563
-0.20065914
-0.10024969
-0.23289895
-0.05689901
-0.08547305
-0.07365515
0.15934493
0.50220996
0.58301800
0.49995804
0.32146406
0.14026989
0.19224420
0.32868820
0.33208132
0.23966928
-0.15769455
0.06093744
-0.02292939
0.08461764
0.37284875
0.57036012
0.58242792
0.12151159
-0.00921251
-0.02130552
-0.00823866
-0.07505693
-0.20635131
-0.24451943
-0.08946367
-0.06865886
-0.17322184
-0.15504129
0.05256025
0.46774128
0.61479002
0.53950393
0.32531285
0.22001565
0.30613238
0.39846310
0.19509615
0.26842010
-0.16220817
-0.06000404
-0.15563752
-0.01771569
0.33088821
0.63342035
0.61405379
-0.23044536
-0.24820356
-0.15854588
-0.16192017
-0.06351261
-0.19617683
-0.19882420
-0.23879835
-0.18523243
-0.32846582
-0.30025098
-0.08749714
0.31292489
0.70156503
0.59463960
0.62176734
0.54840612
0.59182757
0.46296340
0.19140497
0.03848428
-0.21211365
-0.11721926
0.08378695
0.03903174
0.21730806
0.62958348
0.51437157
0.24189174
-0.05489103
-0.08278658
0.07222541
-0.00569902
-0.03384588
-0.18611254
-0.29872450
-0.29411724
-0.38994858
-0.40134463
-0.31505829
0.08226965
0.84574002
0.94760650
0.81338090
0.67847121
0.48504490
0.56513292
0.34860522
-0.01318994
0.01446680
0.02944525
0.00314348
0.06935859
-0.06599028
0.30344409
0.40639052
0.20597321
0.25663102
0.28457069
0.23324066
0.21002930
0.09732274
0.11638179
-0.07738172
-0.12278912
-0.06699365
-0.19313249
-0.16293837
0.26967075
0.59076929
0.71239567
0.61759067
0.40481284
0.37368855
0.63053203
0.34127355
-0.19608890
-0.24274297
0.03985763
0.00003258
-0.05235463
0.12058445
-0.08272695
0.02098294
0.30909699
0.53348881
0.38273296
0.28609136
0.31586760
0.34240422
0.16053811
0.18444344
0.13885517
0.01474632
-0.13620891
0.14145146
0.19750392
0.24301615
0.33679396
0.44750881
0.28032503
0.11324592
0.36645180
0.16363762
0.02954738
0.09410524
-0.05583675
0.03410179
0.07270890
-0.01258993
0.21477218
0.32601926
0.29698548
0.25253662
0.28526291
0.25232917
0.31229931
0.23146766
0.12707056
0.26485974
0.09015454
0.03508788
-0.21971500
-0.27259138
-0.38091207
-0.28317124
-0.21588095
0.28688297
0.09350135
-0.13427870
-0.06185285
0.01766312
-0.01439972
-0.02541067
0.02848253
0.03812585
0.03562707
0.00673409
-0.03954513
-0.11473648
-0.08978574
0.14439373
0.11321817
-0.03604338
-0.12278870
-0.14033477
0.09576924
0.08498917
-0.28776452
-0.17903939
-0.23849006
-0.56554776
-0.66405070
-0.43195340
-0.46634650
0.09982803
-0.18281278
0.01103544
-0.28883293
0.05356561
-0.06795742
-0.03553290
0.00599990
-0.04993858
0.07495233
-0.07173780
-0.01027320
0.03851245
-0.03629961
0.07394959
-0.03273349
-0.01764982
-0.05319028
0.01998885
-0.05215395
-0.10431015
0.08447131
0.01369054
-0.01814102
0.05628738
0.06833079
-0.05421448
-0.04863958
0.05411524
0.05248515
0.08322923
0.07380518
0.07495183
-0.05755806
0.04559919
0.05639729
-0.02668598
0.03440583
0.06600136
0.05191314
-0.05459676
-0.01189766
-0.15158664
-0.19130126
-0.07974624
-0.17792951
-0.20983009
-0.23496173
-0.43930876
-0.19811003
-0.03213204
0.12043530
0.18078110
-0.06776248
-0.32675070
-0.24773724
-0.34888673
-0.23059338
-0.11390352
-0.08977447
0.03632127
0.02374635
-0.02041743
-0.01152892
-0.01324863
-0.05541293
-0.05004026
-0.05027545
-0.06308319
0.06180009
0.11719083
-0.16384667
-0.06619333
0.00706673
-0.27147236
-0.21177867
-0.02445160
0.05944562
-0.13809784
-0.01504987
0.06312288
-0.05541352
-0.30849874
-0.55440491
-0.44448617
-0.50541878
-0.58120286
-0.40420917
0.06656049
0.10095476
0.06486079
-0.05141478
-0.06834115
0.04797788
0.15829939
0.13524890
-0.16363740
-0.25432676
-0.02155156
0.00303050
0.11555346
0.16523597
0.04367237
0.11443062
0.33389881
0.24426091
0.11569159
0.18044406
0.14746745
-0.04547435
-0.30840212
-0.33187774
-0.38584402
-0.40275103
-0.46907362
-0.63248003
-0.39468768
0.06822121
-0.17994830
-0.00552288
0.01230606
-0.10177886
0.19651616
0.17133962
-0.13610013
-0.01664608
0.18537793
-0.17331304
-0.08190204
-0.00260087
0.14975591
0.10731552
0.23963737
0.07923049
0.13599958
0.21023633
0.13915822
0.06308604
-0.07744200
-0.01748330
-0.02583962
-0.10193618
-0.12238295
-0.22221181
-0.07081559
-0.06237207
0.03130363
-0.17752394
-0.06580940
0.08381358
0.02950436
0.07431012
0.14561839
0.18569919
0.18206155
0.08303767
-0.01619288
-0.03854659
0.19756262
0.03161740
0.10012878
0.09984516
0.13745193
0.12319671
0.10097434
-0.09863986
-0.00476902
-0.16139697
-0.18488608
0.19201986
0.26921758
0.12027163
0.11045527
0.09751613
0.13339007
0.08149510
0.00035249
0.09944948
0.26767182
0.27236131
0.37648872
0.25379172
0.26039439
0.05464388
-0.02908496
0.07287271
0.04668737
0.09999302
-0.00851300
0.02772084
0.06383815
-0.01049513
-0.01319664
-0.15616809
-0.14319223
-0.11516032
-0.10222454
-0.02851135
-0.00276576
-0.07064492
0.31356281
0.13112946
0.35967213
0.31817350
0.07313062
0.23954992
0.37359837
0.36615351
0.24540836
0.11043116
0.28723052
0.03763591
0.00471315
0.12370151
0.08427077
0.13871115
0.07457189
0.01845107
0.00538351
-0.31868166
-0.25946954
-0.10920967
-0.09507463
0.12364201
0.07069661
0.15024731
0.17499460
-0.03751214
-0.00600583
0.14571296
0.20487307
0.22197022
-0.16099575
0.27172491
0.63405579
0.34223303
0.13657692
0.20530491
0.16500290
0.14591043
0.27070746
0.11105318
0.26058060
0.19828163
0.24217495
0.23693272
0.18640645
-0.00743791
-0.06308281
0.13873793
0.19731212
0.14206526
0.18021701
0.11650671
0.16208874
0.11206882
-0.04094373
0.17098324
0.35861123
0.12608935
0.17118566
0.40279764
0.54949409
0.42071432
0.45826781
0.38546482
0.04276372
0.11199982
0.24778995
0.21351923
0.14779449
0.28541663
0.28651536
0.33654928
0.43899208
0.36806545
0.38730380
0.20819771
0.23149431
0.18656640
-0.01193732
0.06393662
0.15688999
0.12006608
0.28116146
0.74303365
0.50797039
0.30968708
0.17748144
0.46184748
0.47757271
0.35199824
0.38084745
0.35369658
0.20738707
0.15959501
0.06204175
0.15357329
0.05912935
0.02943602
0.07769070
0.28064033
0.49167478
0.54622161
0.41151384
0.38984573
0.17633955
0.02834405
0.01984613
-0.02713694
-0.06280053
-0.09112197
0.32660651
0.86512947
0.68432087
0.27702674
0.04709104
0.29973644
0.34319353
0.19153564
0.14177434
0.10035806
-0.11367195
-0.05978198
-0.18217520
-0.24789219
-0.43261424
-0.56434107
-0.67538792
-0.45579502
-0.05692446
0.18441047
-0.04692928
-0.13170630
-0.04903786
-0.18565369
-0.19887440
-0.30595678
-0.40017855
-0.42325848
-0.36077645
0.22342710
0.30528754
0.13026220
0.01164164
0.33973846
0.33385429
0.11960693
-0.21447730
-0.33578274
-0.66379368
-0.59573478
-0.55582851
-0.69673407
-0.91250813
-0.94408184
-0.93804848
-0.87964207
-0.41598016
-0.38667917
-0.37879363
-0.29662022
-0.22536603
-0.29100171
-0.34972301
-0.63567173
-0.70774657
-0.75895810
-0.42722017
0.26736343
0.52147532
0.25262582
-0.03211488
0.15396903
0.35026568
-0.24650411
-0.67519081
-0.99625546
-1.18561876
-1.09921980
-0.98968518
-0.70097136
-0.71494097
-0.60427183
-0.43579552
-0.34684703
-0.06598246
-0.43424466
-0.36229280
-0.17359088
-0.26078531
-0.32488203
-0.29371685
-0.40227541
-0.54562157
-0.35118118
0.10556244
0.50843579
0.58482981
0.28717682
0.07706183
-0.09503978
0.33817577
-0.37356073
-0.75113493
-1.22854996
-1.17687464
-0.67827213
-0.39757761
-0.30068734
-0.15391523
-0.18368594
-0.13320044
0.21721198
0.19594325
-0.19682150
-0.13473862
-0.18161198
-0.00897898
-0.13133904
-0.16177790
-0.12963641
-0.23828292
-0.09293558
0.00417699
0.24874301
0.73432446
0.14943829
0.09061934
-0.14775150
0.03326933
0.04641970
-0.44852021
-0.74440813
-0.49106863
-0.22100890
-0.11814889
0.01890580
-0.06016349
-0.08214751
-0.07283631
0.30951330
0.24149843
-0.01859516
-0.00922709
-0.03125681
-0.07557331
-0.07794613
-0.03367081
0.03199387
-0.13359952
-0.02136068
0.34215802
0.51189089
0.83785182
0.33440480
0.15759672
-0.07237902
-0.00559904
0.33619854
0.19531377
-0.01998177
0.13089201
-0.00224833
-0.06036898
-0.05193725
-0.11090662
-0.18122751
-0.05161312
0.37048993
0.31000400
0.06593459
-0.02793093
0.05286216
-0.06114337
-0.10778889
-0.05300954
0.19737919
0.10993075
0.11968353
0.42919001
0.62126219
0.76920879
0.25550041
0.02842232
-0.04357556
0.01628636
0.51880538
0.56385100
0.31503767
0.23939465
0.07976168
-0.04365779
-0.13662691
-0.13680370
-0.12065736
0.04935477
0.21634996
0.28761137
0.22787385
0.06947566
-0.10905170
-0.17431925
-0.04623513
-0.14534019
0.04428918
0.09003855
0.05179163
0.43370894
0.66533375
0.70687073
0.34574074
0.24364755
0.02194568
-0.27526626
0.49677119
0.56126559
0.37988511
0.26532876
0.26168099
0.07405985
-0.04969609
-0.01533194
-0.17628226
0.15144676
0.27876529
0.26614031
0.24811640
-0.04305254
-0.00790072
-0.23251578
-0.18307920
-0.08587859
-0.12428807
-0.08350880
0.16218603
0.47425690
0.67567468
0.61411643
0.39110842
0.00243089
-0.06708634
-0.12342643
0.17534566
0.34844604
0.14434472
0.31355831
0.27563569
0.17157833
0.16312550
0.08924290
0.06978109
0.06956620
0.38703349
0.24443495
0.14403866
0.03892051
-0.15556610
-0.23309441
-0.30752316
-0.07273432
-0.13670924
-0.15018794
0.06166717
0.45131445
0.81865942
0.49831772
0.32927248
0.01929792
-0.21759719
-0.39062467
-0.04174650
0.13387257
0.11282008
0.33319506
0.27179646
0.22637150
0.21357225
0.16544043
0.15977672
0.07668068
0.11637239
0.02526652
-0.09313967
0.00186480
-0.17086074
-0.01081902
-0.05319312
-0.16596839
-0.10999011
-0.13977346
0.06181819
0.44453490
0.48349804
0.25817400
-0.00457993
0.07883195
-0.14408414
-0.33391052
-0.15439706
0.02517834
0.02285236
0.13321860
0.02212642
0.18026669
0.29117450
0.18706967
0.11894960
0.08518959
-0.01901548
-0.08248715
-0.17620502
-0.06909602
0.02325216
0.04154457
0.01869348
-0.08885882
-0.01391967
0.12942831
0.21337894
0.42437193
0.65403849
0.10120335
0.08851293
0.04000713
-0.04481744
-0.12125653
-0.22458327
0.10851051
0.12164816
0.08922204
0.07717529
0.05392633
0.21127230
0.17632386
0.04393870
-0.20465791
-0.26111504
-0.22432952
-0.02962495
-0.03726069
-0.00358081
0.05525894
0.02747418
0.08070508
0.07768760
0.13399751
0.14876746
0.36526835
0.50469625
-0.05288119
-0.00210481
-0.04122121
-0.00628015
-0.30402270
-0.35687882
0.04922731
0.18891343
0.03989111
-0.13089454
-0.34389907
-0.09827192
-0.12502962
-0.23350641
-0.15573001
-0.31977007
-0.17605327
-0.11777211
-0.03125959
0.11695366
0.05784361
0.01055777
-0.04501003
-0.00579314
0.00097733
0.03168155
0.15765752
0.39093983
0.32193479
-0.06612826
-0.03299906
0.03785770
0.11334714
-0.22462676
0.02872844
0.19336836
-0.04361328
-0.33408567
-0.31438997
-0.30169395
-0.31944865
-0.21969733
-0.12349982
-0.09993915
-0.01680518
-0.14507876
-0.20611285
-0.00465979
0.01504960
-0.09152030
-0.32581365
-0.07370655
-0.12324069
-0.06705408
0.33133915
0.33574823
0.19791004
-0.05431747
0.03125919
0.02558244
-0.09695579
0.08460867
0.19776252
-0.09005290
-0.28072628
-0.17668782
0.09478975
0.15202293
0.01200714
0.12856546
0.27745491
0.11963218
-0.02213173
-0.13284290
-0.14021911
-0.05875954
-0.27821526
-0.20399365
-0.32967973
-0.17122324
-0.31220365
-0.15867892
0.13944274
0.06873799
0.09763689
-0.03723365
-0.00421635
-0.03119270
-0.07484746
-0.11660197
-0.18201704
-0.13236010
-0.07240561
0.04954126
0.26862061
0.34964541
0.22237614
0.19192632
0.09977888
-0.02946568
0.02082057
0.21746142
0.16671698
0.16155854
0.01595408
-0.11050317
-0.24093038
-0.13060799
0.02778723
-0.05777973
0.02713318
0.05791010
-0.01842640
0.01915227
-0.06982134
-0.02333282
0.01424544
0.06789738
0.09238292
0.24117060
0.26148766
0.11960534
0.34721544
0.19352144
0.40067872
0.10902596
0.32040510
0.69659597
0.37098783
0.52115422
0.81637597
0.72169542
0.06700771
0.13780394
-0.04233845
0.06566337
0.21118827
0.26103312
-0.07709960
0.03975499
0.04153681
0.03894596
0.01542115
0.05528128
0.02484617
-0.07417038
0.07128988
0.00935372
-0.02961607
-0.01559970
-0.05310791
-0.02332396
0.01889386
-0.04169501
0.16717601
0.08795641
0.04414014
-0.04084524
-0.04182205
0.01964267
-0.04320462
0.00512768
0.04922110
0.01727333
-0.04024025
-0.00198700
0.02207137
-0.01789105
0.00873505
0.07546812
0.01412623
0.05275141
0.00413276
-0.00355067
-0.01611155
0.15499556
0.27354711
0.35424668
0.32857791
0.51131654
0.69946659
0.79729599
0.67782378
0.48553118
0.02240903
0.28639504
0.17488238
0.28351039
0.55073851
0.38931394
0.47298124
0.47825581
0.31832692
0.18399301
-0.00472592
0.04993145
0.05080266
-0.07013512
-0.04154985
-0.07841942
-0.00949890
0.09794844
0.25798067
0.34685898
0.57403088
0.78620982
0.83938026
0.93772417
1.11252773
0.86852950
0.78995001
0.65438569
0.58059287
0.57946700
0.34742403
0.30236131
0.41386136
0.56805235
0.68140805
0.61611813
0.48067170
0.43878162
0.13307787
-0.02468805
-0.08137183
0.00528122
-0.05756095
-0.06674652
0.12906155
0.28775224
0.22086428
0.04772137
0.43910483
0.56908208
0.60332161
0.36457697
0.52945471
0.41386348
0.35130358
0.38905096
0.26171786
0.19964351
0.15266988
0.11332129
0.05702872
0.26625025
0.25979340
0.42225343
0.27986211
0.25221401
0.11493402
0.11238432
0.19850211
0.00670215
0.06424846
-0.05105695
-0.02605355
-0.10890057
-0.38277492
-0.20143151
0.05238095
-0.17296302
-0.13742685
0.00126482
0.02833457
0.02888367
-0.01343089
-0.19037557
-0.16630624
0.04186201
-0.05673704
0.21021229
0.10701669
-0.05803690
-0.02753581
0.12572585
0.23310821
0.51783347
0.02173379
0.08533168
-0.19345997
-0.08532831
0.03281847
0.01116222
-0.04860022
-0.30468866
-0.64851189
-0.51719707
-0.29904684
-0.13796708
-0.02665595
0.00858818
0.14042562
0.03656916
0.01684111
-0.01292449
-0.15864268
-0.10269801
-0.16462356
0.05793107
0.06650843
-0.06372410
-0.05900796
0.03885577
0.09487117
0.04686521
-0.08502659
-0.34070605
0.02813738
0.09766293
-0.05807460
-0.01857438
0.16510624
-0.61885947
-0.82451797
-0.55431497
-0.27644712
-0.08109324
-0.10672642
-0.10430779
0.01976446
-0.02518092
0.01889437
-0.03632872
-0.04963313
-0.10474087
-0.09306397
-0.04103314
0.11818469
-0.13058133
-0.06721697
-0.08479931
0.09520758
0.13309164
0.04553842
-0.12922959
-0.19344285
-0.03712797
0.02037185
-0.16599232
0.11447059
-0.32240272
-0.80474174
-0.49638078
-0.30974197
-0.16348070
-0.02395102
-0.06425208
-0.09611494
-0.05065219
0.04850130
0.03810950
0.16298720
0.20720020
0.12921691
0.22138964
0.00099015
-0.19324917
-0.06259952
-0.05378884
-0.02381602
0.09972340
0.48922747
0.06956053
-0.15872191
0.00092018
0.24709135
0.14331901
0.35073006
-0.23329961
-0.74769825
-0.43121517
-0.25592077
-0.14131117
-0.03572548
-0.18051942
-0.00583168
0.03396130
0.01955593
-0.08727397
0.23165517
0.20492865
0.15757476
-0.10365656
-0.30692801
-0.34509665
-0.06909056
-0.20103787
-0.18939237
0.58187795
0.85311818
0.30742872
-0.03017386
-0.16408966
0.08250208
0.38386053
0.42125753
0.00456110
-0.37536666
-0.40416282
-0.18138953
-0.09987224
-0.07022262
-0.09248283
0.03743726
0.15065145
0.08955445
0.17834957
0.49633688
0.22447747
-0.35314408
-0.47371519
-0.37256449
-0.25607705
-0.25647265
-0.23276760
-0.10416842
0.58775759
1.22625208
0.78246015
0.16222434
0.09881919
0.16277429
0.31083885
0.60778177
0.01954739
-0.06638352
-0.11089558
-0.01277613
0.02051378
0.17854552
0.20062377
0.20010433
0.22409056
0.28837207
0.51852381
0.57155579
0.02080246
-0.39835975
-0.51815289
-0.51051944
-0.35138729
-0.29504296
-0.34406295
-0.05771214
0.77664554
1.42094493
1.03659058
0.26137382
0.07588766
0.10265022
0.27949151
0.54157662
0.08244765
-0.01087949
0.09974771
0.32770196
0.26418638
0.24190812
0.18936306
0.15785664
0.23995744
0.31687808
0.53495181
0.32878071
-0.14721291
-0.47956240
-0.32669353
-0.34014246
-0.42961749
-0.49211910
-0.26151666
0.09622889
0.85333711
0.99411511
0.71480018
-0.04127803
0.21831247
0.14812186
0.35420632
0.50060940
0.02930054
0.05146803
0.21989320
0.59773099
0.44513461
0.24453039
0.09600498
0.24385236
0.30544493
0.22162135
0.14766054
0.07933825
-0.29682237
-0.41874507
-0.45331329
-0.33285266
-0.40557769
-0.40537423
-0.11180600
0.31925344
0.83231384
0.24443701
-0.34316206
-0.58413255
-0.11805264
0.06040110
0.21200511
0.34652266
-0.09902240
0.26199007
0.43814206
0.47839621
0.48724002
0.26915488
0.15649199
0.34425920
0.14847314
0.02343109
-0.05494468
-0.01750603
-0.21436660
-0.46704912
-0.53905135
-0.34562543
-0.16054712
-0.01602920
0.27426210
0.56178856
0.69347268
0.33555987
-0.57295835
-0.78280395
-0.33887744
0.21917199
0.12865683
0.43942645
-0.12965356
-0.06037925
0.23143350
0.20303488
0.15538798
0.13336205
0.27830863
0.38918951
0.11757106
-0.18740165
-0.08692341
-0.08471626
-0.15663166
-0.46208477
-0.41776219
-0.13350378
-0.02468322
0.23195341
0.40306202
0.56994009
0.56913251
0.36420786
-0.55714339
-0.71404052
-0.28427145
0.12044941
-0.10275425
0.08464489
-0.47561738
-0.42624521
-0.23949733
-0.18657589
0.02431128
0.01380395
0.12027905
0.25677115
-0.01390252
-0.17827092
-0.29234314
-0.18434671
-0.31946188
-0.51937234
-0.26956403
0.11426231
0.10600964
0.18702476
0.32344258
0.22832140
0.32737613
0.10937519
-0.39068115
-0.78447616
-0.42130324
-0.02332223
0.06403136
-0.20463862
-0.39387441
-0.32214236
-0.11285915
-0.10240921
-0.07780667
-0.08156392
-0.09084467
0.18371926
-0.08873615
-0.41526824
-0.48572406
-0.30965894
-0.38563150
-0.45853916
-0.09834237
-0.02966537
0.11485974
0.08389697
-0.03943299
0.07423899
0.08325824
-0.16236216
-0.60033363
-0.82543987
-0.26665077
-0.08112575
-0.01782538
-0.36980480
-0.26881096
-0.33603606
-0.00222610
0.13657366
-0.23271337
-0.19457835
-0.25588632
0.02245787
-0.06288046
-0.50303745
-0.56238043
-0.16121936
-0.25504822
-0.22061542
0.03364007
0.00406642
0.08376548
0.13291866
-0.09865810
-0.06470722
-0.10882942
-0.24681993
-0.59632826
-0.56899053
0.11375133
0.19912210
0.08754151
-0.16389759
-0.38037384
-0.26546639
-0.11262423
0.18467422
-0.07385151
-0.11565942
-0.13651104
-0.09184447
-0.09512942
-0.21312450
0.02940373
0.05011741
-0.09147947
-0.10137019
0.06228704
0.06453621
0.07124554
0.05441866
0.02649724
-0.09788313
-0.19970351
-0.30289975
-0.41448393
-0.26452065
-0.13122240
0.05966027
0.32944784
0.06870214
-0.22217505
-0.24223070
-0.05433632
0.09925965
0.07397705
0.05813073
-0.07886890
0.03531037
0.32363588
0.39599440
0.31637841
0.24994375
0.05129824
-0.09565967
0.11483902
0.01309624
-0.06328519
0.01525134
0.04065755
-0.12452687
-0.15609074
0.09422624
-0.22833329
-0.26031604
-0.08513411
0.03492855
0.14208010
-0.02381438
-0.17738391
-0.16164699
0.03124765
0.08453953
-0.03053934
-0.01667063
0.05941126
0.15372446
0.38862252
0.39280361
0.32337317
0.31765568
0.16329166
-0.00195576
0.04117130
-0.04436717
0.05222774
-0.02077265
-0.11953598
0.01628138
-0.01336769
0.00610047
-0.12720320
0.04949388
0.11358855
0.18279983
-0.07210310
-0.28510353
-0.19966450
-0.12140007
-0.00228952
-0.06810990
-0.05633327
0.00538836
-0.02451555
0.01872973
0.13575278
0.14468010
0.17885038
0.20163865
0.10485977
0.13739441
0.06657942
-0.05633191
-0.08422575
-0.01115605
0.10120798
0.02076006
0.07831600
0.08809587
-0.01545469
0.04807705
0.16451760
0.07640099
0.12229376
-0.50115496
-0.12949903
0.03718800
-0.07741416
-0.22594568
-0.29294193
-0.21290714
0.05569515
-0.03152002
-0.04561307
0.04605981
0.04747447
0.08541673
0.06774689
0.14634074
0.02378421
-0.01521997
-0.05849525
0.04197961
-0.02855242
-0.03171512
0.05104136
-0.04307207
0.07151510
0.31509480
0.04116696
-0.06392121
0.00707645
-0.26215085
-0.03141830
0.06579953
-0.06437697
-0.13357443
-0.08551193
-0.08158416
0.05241380
0.17511658
0.05561751
0.16478719
-0.08691887
0.09269684
0.08640724
0.14267479
0.09915429
-0.07918036
-0.09712888
-0.16283566
-0.19174021
-0.12276898
-0.26054904
-0.18772368
-0.08402088
0.08519796
0.08400327
0.03193177
0.01119322
0.08114965
-0.01782588
-0.04028330
0.04161922
-0.09133397
-0.08632099
0.05751698
0.08712769
0.04593640
0.00694654
0.08674458
0.09256596
-0.01729787
-0.06932247
-0.10516338
0.03085786
-0.00609160
-0.01146350
-0.04961384
-0.15117292
-0.11505082
-0.11301362
-0.12594751
-0.26021832
0.03491786
0.06760971
0.07712458
-0.02904091
-0.07796115
0.10432451
-0.04926482
-0.01529285
0.01379791
0.21301390
0.23426808
0.09239637
0.03855665
0.23157552
0.43729809
0.44209266
0.23859715
0.15641323
0.28644803
0.39175394
0.53299785
0.52130908
0.12128042
0.16730697
0.16063330
0.24932325
0.26560524
-0.00439081
0.01450769
-0.02619374
-0.00860006
0.01215067
0.06051016
0.13131477
0.05661575
0.14365083
0.45467484
0.87054318
1.02853584
1.00737762
0.85790133
0.69053334
0.88451946
0.88606310
0.90036923
0.87177700
0.90256500
0.96665317
0.72243673
0.60593992
0.27438852
0.31392860
0.45868915
0.20445022
0.13896467
-0.00051254
0.08499920
0.01882505
0.03301287
-0.05778560
0.07785867
0.03172320
-0.00035855
0.14468944
0.18944770
0.11262876
0.22290286
0.38081378
0.66932857
0.47933966
0.35585776
0.63412023
0.69549221
0.48664528
0.54618347
0.52037042
0.14522247
0.37280411
-0.01075667
0.03006181
0.20289706
0.23732714
0.07268719
0.01093356
0.06260753
0.03564710
0.00985608
-0.03578769
0.06394701
-0.03410976
-0.05732268
-0.03602694
-0.06086646
0.00354669
0.00652949
0.03906803
-0.00613896
-0.05559695
-0.01208146
0.00281986
0.03877283
0.02868353
-0.05330264
-0.02300896
0.03012850
-0.00362928
-0.07639296
0.00954422
0.01120593
-0.01772624
-0.08332929
-0.08547541
0.05424444
-0.01883795
0.04498097
-0.04124887
0.03943662
0.06796160
-0.00785206
-0.07524389
0.05369856
0.11031409
0.11682846
0.01370289
0.11948178
0.14188340
0.04200556
0.13772741
0.11240780
-0.11295766
0.31807837
0.25124240
0.02991039
0.14525175
0.02964926
0.03890785
-0.01212758
0.06485955
-0.02704353
-0.07472264
-0.06156505
0.04599825
0.06264767
-0.08251528
0.01169130
0.01486310
-0.08310969
0.06730358
0.17393209
0.11840380
0.39467400
0.34684226
0.33423701
0.47556889
0.28891280
0.29911089
0.28411946
0.16215868
0.22986320
0.26201785
0.14255673
0.09552073
0.04897747
0.11796510
0.12944867
0.13258675
0.15129834
0.20613848
0.08097468
-0.05442199
-0.08250078
-0.05677438
-0.17170841
-0.17895137
-0.09164748
0.16124703
0.17112692
0.14190812
0.32592383
0.54892850
0.39494753
0.33069545
0.17673519
0.34888786
0.18131630
0.00156976
-0.01953201
0.03111219
-0.11540658
0.02996397
-0.15328339
-0.12468637
-0.00642495
0.15787208
0.25550044
-0.03729621
-0.16708979
-0.00328725
0.07001081
0.04950043
-0.11895704
-0.27889660
-0.27078468
-0.21279885
-0.09373976
0.10863141
0.21896316
0.24100514
0.28372219
0.16610503
0.16046804
0.12549265
0.05537960
-0.06632029
0.05067179
-0.02627466
-0.05184516
-0.13670802
-0.16365945
-0.20278381
-0.32848194
-0.25612137
-0.24138419
-0.28433013
-0.26695296
0.19158593
-0.02784681
0.00503253
-0.14887209
0.00280573
-0.17710641
-0.02369105
-0.11020666
0.14776434
0.22715898
0.26114306
0.26027757
0.23057388
0.22137065
-0.02440582
0.06263767
-0.02019184
0.02939708
0.06534372
-0.06636614
-0.18795048
-0.20248604
-0.19709146
-0.40851533
-0.38753358
-0.55923277
-0.44244525
-0.50490373
-0.13488322
-0.07602433
-0.03612289
0.08544622
0.08330590
-0.05906695
0.01726003
0.04789358
0.24188021
0.15648171
0.21331583
0.07714310
-0.04165297
0.06076014
-0.03592483
-0.03589007
0.15185288
0.17360522
0.08327466
-0.04815463
-0.14331853
-0.14895190
0.01912369
-0.13100176
-0.44843641
-0.83706379
-0.73596787
-0.33684319
-0.37836942
-0.04097457
-0.01802112
0.34216207
0.26479670
0.00399059
-0.04491464
-0.07264856
0.04870125
0.07911841
0.03510006
0.07900099
0.07347801
-0.02054596
0.05472128
-0.02023129
0.05377295
0.04404729
0.01776587
-0.02382568
-0.16239932
-0.12365128
-0.01129673
-0.09528980
-0.37127361
-0.67677218
-1.03360927
-0.42795870
-0.31780061
0.00682251
0.28777528
0.32283133
0.33304766
0.06013241
0.08291598
0.10928980
0.16672640
0.15224025
0.07904749
0.06410417
0.07827750
-0.06215282
-0.02007546
0.04732736
0.08264952
0.05364745
-0.03277542
-0.04860832
-0.13389055
-0.11723910
-0.17559373
-0.08332866
-0.36021635
-0.73631030
-1.01728165
-0.70024997
-0.28373155
0.07572363
0.16659297
0.41064963
0.37990734
0.05719864
0.13300952
0.14092267
0.04975048
-0.01228244
-0.02855143
0.05306671
0.00130253
0.10679042
0.14238712
0.10770488
0.03543675
0.07881473
-0.01653021
0.08741611
0.08021451
0.07334534
-0.12091403
-0.28804624
-0.42940319
-0.82440907
-1.14971924
-0.75877243
0.05724086
0.19345258
0.21730961
0.18671237
0.06612859
0.01298880
0.26794654
0.19083948
0.02562259
-0.09466137
0.01444498
0.01917071
-0.05755209
-0.00747767
-0.25024673
-0.20282891
-0.26560950
0.01850984
0.09789279
0.15590408
0.08792659
-0.00113619
0.14663899
-0.19132425
-0.46197924
-0.99927896
-1.24108922
-0.69506943
0.05530570
0.02097296
0.30000442
0.35314345
0.25755945
0.22135238
0.30984801
0.24365610
0.18590221
-0.03154215
0.06766888
0.02558827
-0.06753391
-0.27415153
-0.51696742
-0.55206227
-0.41807538
-0.19775306
-0.07795008
0.02049321
0.18248332
0.31512415
0.60857528
0.57716715
0.11758320
-0.57624775
-1.01233268
-0.64711386
-0.17404732
0.02850050
0.42087182
0.60014600
0.50681466
0.31096554
0.38842368
0.16197160
0.16776544
0.11875277
-0.10244124
-0.03632614
-0.11592709
-0.35704505
-0.57610804
-0.53882903
-0.41359541
-0.13892977
-0.02579962
-0.01002588
0.20852222
0.52318388
1.01354659
1.41720331
1.43134999
1.10466313
0.31369132
-0.07202299
0.20989147
0.00672435
0.25326791
0.44783255
0.25846973
0.23701391
0.25338385
0.42002383
0.23347814
0.11238725
-0.04193122
0.19037361
0.14467251
-0.33851457
-0.44033033
-0.31784040
-0.28441989
-0.03952870
-0.01636289
0.10841121
0.21087247
0.40419251
0.75858992
1.19489479
1.55778503
1.34056222
0.69197398
0.31211632
0.27628255
-0.09262862
0.11821362
0.31074214
0.12731537
0.13042603
0.37518480
0.66088045
0.49850270
0.34073174
0.17782681
0.19839233
0.14432126
-0.21851121
-0.40221769
-0.26134324
-0.23082536
0.13239394
0.24274983
0.22826338
0.24863043
0.12777159
0.19049713
0.59810460
1.14290369
1.02342594
0.67733443
0.35427636
0.11000022
0.02373533
-0.14305919
-0.23886381
0.12002122
0.14553888
0.49397671
0.60829818
0.71369559
0.42934796
0.30608907
0.23825613
0.16574381
-0.25935578
-0.31786200
-0.14740533
0.05851043
0.21802807
0.25227401
0.15999453
0.00726937
-0.15713958
-0.15010740
-0.01016014
0.46915907
0.86846846
0.62653339
0.49370065
0.19443621
0.18104553
-0.28803065
-0.09879795
0.06541234
-0.15309697
0.05780874
0.38223341
0.54054576
0.57709038
0.46835443
0.44859731
0.24640486
0.07706819
-0.00955350
-0.00925515
0.19684403
0.23782519
0.32076147
-0.03657043
-0.08886725
-0.19476563
-0.20643571
-0.12712933
0.33762002
0.87463307
1.02603638
0.46022093
0.28112310
-0.08148869
-0.22693036
-0.01988440
-0.16248147
-0.42251804
-0.23520997
-0.09146174
0.18034837
0.30430847
0.60274965
0.64213127
0.73400944
0.56253117
0.30195239
0.01436308
0.01909357
0.08859266
0.03336760
-0.17842385
-0.22123742
-0.17446247
-0.36995643
-0.27241349
0.26471120
0.89965570
0.99532354
0.35902256
0.29399911
0.20643052
-0.00476421
-0.00689551
-0.32576305
-0.35002351
-0.14675358
-0.38339993
-0.07507674
-0.04127444
0.19954264
0.56867933
0.48917848
0.47336933
0.32688674
0.05954322
-0.02577095
-0.07034065
-0.17545529
-0.26103163
-0.10932913
-0.11697215
-0.12822081
0.04165113
0.36933929
0.85389322
0.54107559
0.27377704
0.04364925
-0.04812994
0.10735772
-0.12745485
-0.32034829
-0.14686029
-0.05212613
-0.06973991
-0.04804463
-0.20874685
-0.05196901
0.13327788
0.20403777
0.23564279
0.08806159
0.08287425
0.02094555
-0.09715103
-0.05616023
-0.13558067
-0.08066396
-0.16488428
-0.11534774
0.09197626
0.28290030
0.38865420
0.24600035
0.31198540
-0.06292711
-0.00093470
0.11559700
-0.02155736
-0.14726515
-0.14002378
-0.03396791
0.03874351
0.07766437
-0.18923442
-0.25038266
-0.10549628
0.02864297
0.13103198
0.15868555
0.24225615
0.07283630
0.03461093
-0.13413253
-0.05511079
-0.01851449
0.02591004
0.11105951
0.11961278
0.32899690
0.48397738
0.35065827
0.18433414
-0.09223154
-0.17864330
0.01319089
-0.09503076
0.06928212
-0.05995235
0.02605902
-0.12932378
-0.07219588
-0.13481033
-0.07186227
-0.21114929
-0.05851946
0.09398725
0.06744883
0.12112258
0.00387859
-0.01245602
-0.05768817
-0.01134053
-0.01915891
-0.11452688
0.09121897
0.22146188
0.54352999
0.62295741
0.52173972
0.14448947
0.00383480
-0.02593001
-0.02420942
-0.04101398
-0.08119588
0.04490975
-0.08732133
0.10374695
0.04714997
0.10616542
-0.06435220
-0.16526783
-0.08771069
0.03232932
-0.04859044
-0.00017868
0.02524153
0.00054939
-0.07778763
-0.00326287
-0.07654332
0.09178552
0.13643409
0.38222682
0.48287907
0.54010630
0.26887223
-0.17082979
-0.02250747
0.04378100
-0.03055027
-0.27614072
-0.18432359
-0.18943624
-0.14325382
-0.00079642
0.04747995
-0.00940585
-0.08766451
-0.03637126
-0.09417728
-0.13886584
-0.09166334
-0.07358573
-0.14802572
-0.22099641
-0.08786401
-0.02643215
0.17563275
0.15236500
0.31351066
0.51870900
0.51089388
0.10620909
0.06137025
-0.38143188
0.03891805
-0.00232866
0.04644623
-0.22329311
-0.56301904
-0.13890247
-0.08794757
-0.13388348
-0.11159275
-0.19882932
-0.17514147
-0.17248788
-0.05507346
-0.17656592
-0.03858021
-0.07610983
-0.19039305
-0.03815996
0.02114743
0.11602462
0.11635869
0.11893238
0.35920405
0.35239345
0.34417352
0.33549458
0.24477187
0.08867382
0.04302360
0.07932709
0.02714811
-0.19354777
-0.00538893
0.14488773
0.27366525
0.23584855
0.14727426
0.05833907
-0.08714686
-0.07618809
-0.01555717
-0.09079506
0.10840607
0.31120661
0.35413438
0.37433949
0.35911381
0.24579151
-0.04762997
-0.12149068
-0.08096861
-0.16086510
0.08942304
0.11592234
0.11542057
0.08300418
0.02576819
-0.07648521
0.07505876
0.02561926
-0.01692111
-0.02755082
0.34004638
0.32053354
0.41395208
0.35622051
0.19699439
0.15128849
0.16081500
0.38421628
0.43744013
0.41678321
0.23774199
0.29282388
0.47879052
0.19262829
0.23579128
-0.08679158
-0.16325562
-0.02705507
-0.07719947
0.05469014
0.02047664
0.08506675
0.07961136
0.08484136
0.04498403
-0.04097554
0.07651812
-0.05316629
0.00688750
0.12238920
0.33069655
0.27448618
0.34456399
0.39494708
0.17848082
0.23166420
0.61604851
0.37937844
0.30886137
0.46662754
0.56595391
0.37606084
0.54574090
0.46152124
0.35204029
0.33379373
-0.00210857
0.08075558
0.03023019
-0.03580547
-0.05224156
0.02496392
0.04539455
-0.04261013
-0.05193430
-0.06331787
0.07186732
0.01304905
-0.07861266
0.04088034
-0.03712867
-0.07542656
-0.07240953
0.08913729
0.07789418
0.03843871
-0.08876844
0.02637653
-0.02274635
-0.06149090
0.02631665
-0.05419152
0.07060038
0.01192196
0.01174075
0.02811610
-0.02896077
0.08632332
-0.08394271
0.06606151
0.01618018
-0.05101763
-0.00402472
0.08866425
-0.05422798
-0.13576418
-0.04803176
0.01413376
-0.01468173
-0.04444036
0.02546497
-0.02151163
-0.07536784
0.13052657
-0.01650015
-0.14226039
-0.09497970
-0.01828118
0.05881674
-0.06692854
-0.14729628
-0.19113538
-0.07339336
0.07210156
0.03413974
0.06037888
0.05621873
0.05478953
0.04793838
-0.00364438
-0.14226477
0.02019652
0.03031262
-0.05012029
-0.00261837
-0.00683287
-0.03841704
-0.06067989
0.05016504
-0.03642420
0.19721235
0.28951859
0.17319904
0.30862096
0.27010724
0.15247889
0.19413988
0.11796955
0.03638528
-0.07951394
-0.14823259
0.09110463
0.01150033
-0.00012362
-0.05819801
0.04275553
0.04026906
-0.05468110
-0.10173947
0.08958656
0.10198110
0.19376758
0.17467694
0.21750246
0.31601083
0.23787832
0.28188446
0.20942402
0.29849613
0.35452843
0.26777339
0.25427666
0.28064016
0.30671448
0.30526894
0.39906618
0.38313416
0.19338141
0.12985489
0.08957731
0.01836852
0.09263280
0.00704620
0.06400684
-0.08859473
0.02969898
-0.09566520
-0.11482475
0.26433915
0.01420171
0.03808729
0.04173361
0.09110603
0.10511851
0.22606888
0.44638705
0.49366567
0.70076847
0.91172558
1.00916958
0.97813988
0.86489075
0.75551397
0.65467548
0.50784338
0.60371119
0.24743505
0.20290565
0.16466802
0.10626923
0.02349149
0.08382639
-0.06265729
0.08390837
-0.08886468
0.22531526
0.06426656
0.01658964
0.06571244
0.12616502
0.10662811
-0.13080171
-0.30508104
-0.22142875
-0.11093674
0.21942797
0.36740860
0.44256282
0.60155714
0.44723943
0.68680865
0.85502923
0.98451221
0.91514409
0.70857459
0.53906143
0.27489296
0.15357584
-0.01035593
0.06508391
-0.02254254
0.01399914
-0.30291086
0.13404894
0.38336515
0.27436411
0.23778798
-0.00987371
-0.18639189
-0.24418859
-0.37128982
-0.35003218
-0.34131694
-0.42001951
-0.36608455
-0.39965284
-0.27706817
-0.10174181
0.08764357
0.15332536
0.37412408
0.80748653
0.94600075
0.66165811
0.41801140
0.28387147
0.12371127
0.08444460
-0.16547571
-0.14439633
-0.18867578
0.06162548
0.58214337
0.22992161
0.10979497
-0.05842191
-0.11881656
-0.27939001
-0.16417639
-0.38319740
-0.31823701
-0.53455830
-0.53899640
-0.51754993
-0.41354719
-0.16754170
0.01333468
0.04819638
0.23546702
0.54557049
0.74683082
0.80712664
0.54961568
0.27450243
0.10361213
0.18838938
-0.22912332
-0.12100851
-0.10967232
0.15153284
0.13809748
-0.05338351
-0.04772814
-0.05604894
-0.05950519
-0.18436067
-0.25583318
-0.17973971
-0.36839861
-0.53945041
-0.49622524
-0.31012839
-0.12576360
-0.02994607
0.03664728
0.05966992
0.18415481
0.19827558
0.57846880
0.71990502
0.71358055
0.33466938
0.14999235
-0.06338272
-0.32557255
-0.07841321
-0.35219306
0.03019737
-0.14029750
-0.36326212
-0.16927107
-0.13711537
-0.25045851
-0.28471467
-0.30107948
-0.34093389
-0.39712363
-0.64518493
-0.43849561
-0.04648804
-0.13332322
-0.05873418
0.04667469
-0.12295604
0.05588434
0.09497538
0.42537117
0.59060699
0.53886837
0.28092900
-0.17016177
-0.05450222
-0.17971458
-0.35241026
-0.45904881
-0.12553924
-0.32529014
-0.34958866
-0.18554014
-0.15802160
-0.17800413
-0.13250352
-0.11833990
-0.08927593
-0.25702494
-0.37829179
-0.18164320
-0.13062793
-0.06458012
-0.22538579
-0.09838411
-0.37325636
-0.26118058
-0.10271314
0.10025183
0.63315809
0.39983717
0.36799771
0.01077928
-0.00357426
-0.22389965
-0.54924250
-0.46779299
-0.18318357
-0.24629301
-0.22176373
-0.13475779
-0.01129098
0.00393739
-0.07012916
0.00705311
0.15427019
-0.03660547
-0.09678333
-0.15127595
-0.29033902
-0.32598832
-0.39436048
-0.31281242
-0.54253507
-0.43951356
-0.24354981
-0.04108323
0.55000824
0.60923642
0.39096656
0.19140847
0.00212292
-0.21841013
-0.43795055
-0.39506322
-0.33631849
-0.33824384
-0.08773216
0.01783473
0.06488584
0.21436229
0.25745952
0.48099381
0.60771561
0.44231218
-0.05508155
-0.16527598
-0.33994025
-0.40247455
-0.24253514
-0.29706958
-0.31341720
-0.20052643
-0.08336906
-0.12542607
0.59043753
0.24235892
0.25783116
-0.06587696
0.06787521
-0.15105981
-0.41322890
-0.34739602
-0.46161029
-0.12590376
0.13089629
0.22085781
0.17453252
0.42412734
0.40704605
0.49317363
0.62012523
0.20960382
-0.03591274
-0.08177413
-0.22825015
-0.25286573
-0.17626981
-0.14519183
-0.11183033
0.07661223
0.13689467
0.29163852
0.32793146
0.04890411
0.15771855
-0.16685537
0.10881942
-0.19304486
-0.26011285
-0.13754852
-0.07781220
0.10452739
0.13257116
0.33418643
0.39234707
0.44287056
0.41087288
0.37422359
0.26267138
0.29982185
0.13320825
0.00299474
-0.16898476
-0.16886905
-0.11930119
-0.07163031
-0.03439327
0.03026165
0.07417703
0.11780612
0.16372524
-0.38743356
-0.24923179
-0.17398638
0.10688264
-0.07541043
0.20972478
0.22787175
0.03166055
0.20863913
0.15502833
0.36063215
0.31842306
0.32553086
0.14704499
0.10662143
0.08206601
0.24495523
0.42019001
0.11093597
-0.02256720
-0.22798762
-0.26103449
-0.16187473
-0.10887319
-0.04962857
-0.17611064
0.04475193
-0.07182775
-0.05993491
-0.00075118
-0.08483642
-0.11201125
-0.12782156
-0.09871125
0.20505728
0.07400607
0.04181783
0.26241094
0.00450132
0.03566265
0.12749670
-0.06237550
-0.01121427
0.08289569
0.29893687
0.47191992
0.29201210
-0.01781429
-0.21083660
-0.15146649
-0.10564070
-0.02207348
-0.02337073
-0.09951890
0.04604760
0.22970095
0.23726641
0.13140318
-0.32927662
0.03385057
0.00008800
0.04967318
-0.17696474
0.04148845
0.14580108
0.09635680
0.14082074
0.01787421
-0.04556333
-0.07390131
-0.12143712
-0.00102339
0.25423032
0.38326901
0.07809340
0.04493120
-0.07364732
-0.07980319
-0.07395560
-0.06510442
0.04682220
-0.11823733
0.13999866
0.19129440
-0.05884942
-0.14771219
-0.24719752
-0.17281795
0.00891984
-0.15587246
-0.10207102
0.05128178
0.24617350
0.15111797
0.26171318
0.12497503
0.04881288
-0.20095396
-0.07826576
0.22638035
0.37094030
0.23375316
0.02642426
0.03993236
-0.07282977
-0.03876752
-0.07382523
-0.00431213
0.03384098
0.07600939
0.41295421
0.54864174
-0.04963445
-0.03444364
0.05992887
0.04997402
-0.21141645
-0.30289415
-0.05808328
-0.00428241
0.29028827
0.27873102
0.34554943
0.05784211
0.19661357
-0.02788082
0.07115536
0.28306013
0.26142299
0.18782061
0.19391721
0.29507393
0.15537840
0.18462467
0.03195868
0.15777051
0.13881676
0.17116259
0.33111644
0.46564704
0.03921606
0.22269660
0.29164362
-0.06992710
-0.05797593
-0.00807595
-0.11496588
0.02570488
0.09104505
0.30464441
0.47032493
0.25399932
0.39479336
0.25047332
0.35764310
0.35513631
0.16775072
0.27455929
0.36473915
0.24520023
0.41254249
0.41426930
0.14208962
0.16869888
0.27636373
0.42019448
0.35343152
0.03845663
-0.14412366
0.27420694
0.02689775
0.07566070
-0.00096835
-0.05069704
0.07736924
0.15770021
0.16589512
0.36495396
0.45698372
0.43976176
0.25766611
0.14467576
0.29430732
0.11528173
0.21457385
0.21214570
0.33373243
0.20962878
0.53250617
0.30357939
0.32484317
0.29400930
0.48512644
0.59032851
0.34548244
-0.04233792
-0.09175563
0.29226878
-0.03306791
0.05471120
0.04899236
0.00899759
0.15510093
0.14179283
0.27945676
0.22187944
0.21992461
0.14510635
0.18457596
-0.00249340
-0.04076947
-0.11899755
0.12528287
0.18937735
0.14818950
0.27884719
0.37794748
0.30889872
0.43315968
0.42842516
0.57708097
0.32215014
0.18389724
0.14697507
0.20427312
0.24280311
-0.03398049
0.00335981
-0.05178442
0.10925897
-0.04835449
-0.19761287
-0.23210202
-0.20004779
-0.10925478
-0.01581724
0.22401699
0.07866393
0.00813389
0.02615402
0.06597894
0.07059039
0.17647997
0.17945896
0.23236097
0.34274846
0.34040344
0.42430833
0.24930605
0.02812517
-0.04220309
0.00690738
0.25431252
0.25083190
0.06784965
-0.01176458
0.04832055
0.05916974
-0.31151694
-0.59274673
-0.71638912
-0.63235891
-0.53839856
-0.36743450
-0.03144824
-0.13120961
0.07951636
0.08552554
-0.01385145
0.05207102
-0.07202489
0.01995732
0.00822968
0.23424406
0.29263818
0.13510017
-0.16068578
-0.04266782
-0.04679666
-0.04233828
0.21876840
0.16737229
-0.00667351
0.02485728
-0.00402375
-0.09797278
0.03412461
-0.52719533
-0.91060609
-0.88720745
-0.85046399
-0.86048758
-0.75634676
-0.54204059
-0.49829957
-0.40330058
-0.30676532
-0.26725820
-0.13720593
-0.19328661
-0.21272528
-0.21686707
-0.29902086
-0.34505197
-0.40808970
-0.15155420
0.04948525
0.07648454
-0.02855184
0.25422430
-0.08108875
0.08076464
-0.03791640
-0.03075877
-0.01702548
-0.40110752
-0.55272633
-0.82988495
-0.91062480
-0.96940470
-0.89960766
-0.68417758
-0.51172680
-0.56810427
-0.76424092
-1.04894924
-0.63818842
-0.58908325
-0.57256061
-0.72548133
-0.63048565
-0.51275736
-0.37893203
-0.27985632
-0.06271293
-0.26332101
0.07487253
-0.01942495
0.06213051
0.07295857
0.07086846
-0.08547140
0.03139866
-0.02060645
-0.02241390
-0.16336013
-0.17281480
-0.25895992
-0.39707178
-0.31461519
-0.12592213
-0.13234873
-0.18562534
-0.60883576
-0.40668389
-0.27352560
-0.40131000
-0.37183091
-0.31697354
-0.17141068
-0.23945661
-0.39405444
-0.19574921
0.05048382
0.06468064
-0.04074965
-0.06184357
-0.04889540
0.07997255
-0.06954126
-0.07842229
-0.05933413
-0.05440585
-0.01670835
0.01762857
-0.05766572
0.00827511
-0.05808001
0.08063275
0.03758211
0.12838800
0.05415384
0.06354085
-0.04062207
0.08376347
0.04641776
-0.00520495
0.04399142
0.01322121
-0.05141722
-0.02965883
0.00610580
0.06619364
-0.07995323
-0.01115242
0.01385199
0.04900810
-0.01316649
-0.01350712
-0.05960814
0.00134863
0.44110689
0.40207911
0.25968745
0.30844057
0.38706526
0.33561003
0.40380242
0.50311464
0.21623729
0.35610098
0.19901659
0.24402438
0.32476047
0.20829268
0.21496491
0.07658381
0.28741074
0.21837051
0.04748546
0.02575607
-0.02273811
0.08169055
-0.02408920
0.05171125
-0.04522687
0.09887908
0.20282570
0.23167551
0.49938041
0.59268928
0.70785159
0.86762953
1.00460207
1.19550037
0.96996754
0.94080842
1.10119188
0.89798588
0.60746282
0.50699145
0.35707977
0.07450991
0.26372221
0.28049007
0.34714621
0.50659806
0.27392831
0.08841810
-0.03923397
0.04574624
0.04402114
-0.02296529
-0.00185831
0.11829036
0.17472884
0.32266963
0.50822699
0.48643440
0.58132803
0.86252820
0.78957152
0.82206887
0.64447093
0.71850795
0.58398968
0.51579553
0.30448246
0.16291706
-0.03310430
-0.17814183
-0.10898414
0.02064942
0.26803136
0.53746599
0.48535344
0.15093148
0.03069071
-0.06934708
0.01199798
-0.00166224
0.01765000
0.20753257
-0.00250872
-0.00767924
0.25699073
0.27410206
0.28331149
0.21817340
0.13366419
0.02624908
0.07736530
0.27872041
0.28434700
0.15653288
0.05751682
-0.09666822
-0.12144642
-0.10397003
-0.16140495
-0.20083380
-0.29436305
-0.35569894
-0.45446905
-0.15663789
0.20401041
0.23711903
-0.04155124
-0.04848226
0.25103754
0.20606036
0.25790009
0.05702262
-0.06165751
0.04515764
-0.01961183
-0.18220353
-0.10629362
-0.01261461
0.16424377
0.38449031
0.47094592
0.50489330
0.19537418
0.01307526
-0.23370644
-0.23783818
-0.35171589
-0.42862815
-0.57612127
-0.67691201
-0.66511095
-0.44418564
-0.20116359
0.09529135
0.01359797
-0.07715166
-0.10052740
0.13233024
0.07152939
-0.15791668
-0.26858857
-0.21282953
-0.16803825
-0.18680863
-0.01091400
0.17034110
0.33264491
0.42163008
0.55030018
0.70975989
0.53333265
0.24269961
0.12812255
-0.08183855
-0.04836044
-0.18745866
-0.37775448
-0.55372584
-1.09983337
-0.69632024
-0.43106127
0.05986474
-0.07347226
-0.30084690
-0.00703107
-0.01803864
0.10533808
-0.22085236
-0.34625664
-0.32927433
-0.20381153
-0.19375503
-0.00189943
0.12283187
0.33282524
0.43632334
0.67523533
0.62625867
0.40484735
0.07554112
-0.13157237
-0.11657002
-0.06358662
-0.14223379
-0.30148184
-0.48149329
-0.91222584
-0.86722994
-0.46548608
0.02718333
0.12876889
-0.37559253
-0.09591710
-0.08752619
0.00874956
-0.30002147
-0.28950360
-0.36655086
-0.26798180
-0.26845133
-0.19754231
-0.20287162
0.06883191
0.37749016
0.67526847
0.67725688
0.32084218
-0.00251296
-0.06004278
-0.13306996
-0.11245994
-0.11568481
-0.19073750
-0.48589021
-1.01844692
-1.30607939
-0.65224135
-0.27659664
-0.15389240
-0.16847195
-0.01690222
0.13118510
0.03820746
-0.14821769
-0.03919096
-0.22393575
-0.21565180
-0.33270922
-0.25057584
-0.37689662
-0.26260796
0.29470199
0.79835606
0.79709649
0.12538031
0.02295068
-0.03509262
-0.04791571
-0.24066710
-0.44112033
-0.27218780
-0.27481228
-0.90985590
-1.52069771
-0.76786649
-0.21552418
-0.10840604
-0.20813316
-0.13433771
0.27025712
-0.10184639
-0.09266952
-0.04082942
-0.14066501
-0.18917647
-0.37237594
-0.50481236
-0.58585614
-0.55814284
0.03120104
0.70655698
0.42337990
-0.07281692
-0.12544434
0.00862657
-0.08859148
-0.10849316
-0.08927937
-0.04552968
0.17857522
-0.51398951
-1.47931063
-0.88472974
-0.18266970
-0.06262145
-0.20116648
-0.17131850
0.15508544
-0.09341228
-0.09156960
-0.06254107
-0.11807497
-0.17606488
-0.34767506
-0.56001902
-0.71149909
-0.80239147
-0.05660507
0.63830525
0.31938547
-0.10963704
0.00170303
0.10404875
0.12718229
0.34402186
0.34351853
0.53344446
0.62770933
0.52260667
-0.90035230
-0.80969328
-0.16791050
-0.17938836
-0.24694508
-0.25076050
0.00334981
0.03073541
-0.06762672
-0.17461452
-0.14931940
-0.29063734
-0.29322115
-0.34668249
-0.70581925
-0.75001842
0.00397114
0.72942305
0.35786286
-0.03234126
0.06418151
0.09109934
0.22938174
0.34295639
0.47013924
0.71477634
1.03465855
1.13329363
0.22160529
-0.31941852
0.09786686
-0.00054998
-0.16232423
-0.38051307
0.02943442
-0.14497258
-0.20294017
-0.26353300
-0.24635831
-0.15252562
-0.14371307
-0.23118289
-0.38602409
-0.31603932
0.24946599
0.61520386
0.21879460
0.19669482
0.04793287
0.15837216
0.15406188
0.09847710
0.10451347
0.36547509
0.80602688
1.02182984
0.57589734
0.36878082
0.29366577
-0.14248781
-0.09910867
-0.37315771
0.11137988
-0.10590257
-0.35320872
-0.08968078
0.02085410
-0.07749775
-0.05073367
-0.07328404
0.01260568
0.05680487
0.19813016
0.29927740
0.17311983
-0.00000918
0.00182483
-0.05454250
-0.01887918
0.01400883
0.15896425
-0.02043282
0.12249693
0.43300301
0.60623306
0.51035684
0.20081270
-0.13407403
0.09996216
-0.22015223
-0.13345881
-0.04262071
-0.13732459
-0.09062123
0.02373617
-0.05806840
-0.06953390
0.16951025
0.13854793
0.07329007
0.20138249
0.13249590
0.11082759
0.12693295
-0.03427234
0.04386500
-0.11180945
0.08307329
-0.15583666
-0.19441168
-0.28010914
0.21168211
0.64546961
0.35775128
0.15503787
0.03063231
0.13942681
0.07454045
-0.13564356
0.03715350
0.04328884
0.02360038
0.20108920
0.15731351
0.19453506
0.29024470
0.42853540
0.12000348
0.13628909
-0.03090180
-0.04922964
0.00424729
-0.13129348
-0.15831184
-0.17667504
-0.03802933
-0.19872813
-0.17018063
-0.25489610
0.04450482
0.87161410
0.32486764
0.15208369
0.06057842
0.08809629
-0.06173795
0.05265448
-0.00320775
0.00821386
0.15122211
0.39941764
0.31767964
0.33430660
0.37986502
0.29111111
0.08235250
-0.00037827
-0.02785025
0.00655907
-0.03727725
-0.05053748
-0.18833064
0.00078632
-0.12311354
-0.11078738
-0.05979528
-0.14339899
0.00726691
0.68092954
0.22688250
0.25826383
-0.04889853
0.04663394
-0.16708058
-0.19270384
0.01551616
0.16051160
0.22392789
0.32593918
0.36464372
0.23431027
0.36366427
0.26581147
-0.10765032
-0.30291089
-0.09528755
-0.05032386
-0.01769115
-0.05307215
0.00358733
-0.05689951
0.03650811
0.08946917
0.13588096
-0.01627888
-0.12499318
0.46051127
-0.03281251
-0.00879294
-0.06541616
-0.13125175
-0.21359737
0.01455216
0.19960518
0.20364738
0.32315224
0.25035921
0.10510325
0.06785286
0.25675762
0.23563994
0.13101546
-0.06485498
0.10540042
0.12017119
0.15040563
0.08925353
0.08725603
-0.00791627
0.11531664
0.03642169
0.11834380
-0.00808640
-0.21807757
0.39858583
0.32606256
0.02901974
0.05684350
0.05442980
-0.01314132
0.12440735
0.30328941
0.38918212
0.38079026
0.29684490
0.08595457
0.07740176
0.21219853
0.20063606
0.08162004
0.13603008
0.16616073
0.08783251
0.10544515
-0.07456437
-0.04653843
-0.02383063
0.06772062
0.03892076
-0.02995153
0.05802368
0.12718043
0.38084805
0.15467644
0.05224343
-0.05525529
0.10524014
0.08666346
0.28202301
0.03495048
0.22395514
0.21894106
0.20773345
0.04438372
0.11600267
0.07488273
0.02662202
0.10112602
-0.00146612
-0.01479692
-0.04714874
-0.01987735
-0.18305749
-0.18767610
-0.14548978
-0.13652630
-0.16164668
-0.08918991
-0.05769226
0.16122329
0.37762436
-0.01714135
0.07247749
-0.04967130
0.02233238
0.37211147
0.42323878
-0.06581668
0.01626852
0.14311703
0.19409043
0.16184960
0.10908776
0.13157937
0.09435783
0.04788934
-0.08305718
-0.20188302
-0.20275111
-0.16965185
-0.25419566
-0.33238670
-0.36320153
-0.28487411
-0.12552524
-0.18912265
0.10104740
0.08029661
0.34016845
-0.10076518
0.01537355
-0.02675091
0.03192435
0.33795315
0.19994450
-0.21743521
-0.27287588
-0.11858265
0.13563935
-0.00065131
0.07927306
-0.05253814
-0.03541685
0.06007420
-0.08604745
-0.12512791
-0.18850930
-0.16498448
-0.15376405
-0.14573392
-0.22610398
-0.18651225
0.06311976
0.11419903
0.27995157
0.13669801
0.23199341
-0.26161364
0.08134903
0.07554950
-0.02182034
0.07618181
0.07619267
-0.07764506
-0.12804949
0.00184299
0.10925774
0.00620371
-0.11624108
0.05028973
-0.02666076
-0.12395613
-0.01524772
-0.08607183
0.02572737
0.05280703
0.06311882
-0.10392391
-0.11165196
0.04423665
0.14309092
0.29680601
0.22120558
0.09830617
0.19465020
0.05764757
0.07766850
0.07942271
-0.02507251
0.17599867
-0.28634128
-0.22690164
0.13337037
0.11923683
0.16503093
0.11673845
0.02109551
0.13793999
-0.01311007
0.10060371
0.11119381
0.11838719
0.01455566
0.19179569
0.08968094
0.30816084
0.46289080
0.53517014
0.38329819
0.08464036
-0.07017969
-0.12462473
0.10351994
0.08051515
0.04334310
-0.03874683
0.00214360
-0.05600418
0.04262553
0.26026538
0.18540224
0.33318156
0.30377072
0.27278203
0.32153735
0.29287568
0.27786404
0.30511150
0.36646885
0.41815934
0.13223915
0.19994137
0.35575756
0.28275904
0.26126686
0.38666359
0.21062592
0.04639938
0.05643026
0.25130087
-0.10017918
-0.02754773
0.06114078
-0.01552784
-0.03352948
0.02708163
-0.08419275
-0.15280126
-0.18883170
0.06523984
0.07740547
0.13659717
0.04826801
0.15415052
0.08145423
0.12910485
-0.13244851
0.26079801
0.00811992
0.04725971
-0.09561291
0.10970289
0.10217618
0.11570302
0.07699870
0.00466782
-0.22099222
0.01226564
0.03541353
-0.07720499
-0.08486244
0.06518635
-0.07099729
0.02484407
-0.02701056
-0.02504090
-0.07134549
-0.01504714
0.01889345
0.00774807
-0.02348014
0.03307849
0.05706525
-0.13930990
-0.05455574
-0.05648023
0.00919986
0.08390616
-0.01280101
-0.04038788
-0.04301662
-0.02653895
0.06887367
0.04040876
0.05387297
0.07259043
-0.07228360
0.08251315
-0.03220070
-0.04706608
-0.07231796
0.07508178
0.03852192
0.05429505
-0.01444785
-0.30841380
-0.25962251
-0.22348356
-0.29277384
-0.38257271
-0.29935852
-0.30272222
-0.34633428
-0.37252989
-0.31882966
-0.32647613
-0.34178081
-0.23499142
-0.26390770
-0.29425916
-0.25692043
-0.31928778
-0.21324959
-0.01611011
-0.07790992
-0.04932578
-0.06454494
-0.04815014
0.05728230
-0.01917438
-0.15590292
-0.20740382
-0.06623597
-0.27239510
-0.40641227
-0.58892161
-0.86947381
-0.87302470
-1.11378920
-1.30662978
-1.30304408
-1.29261124
-1.03803992
-0.54966891
-0.59306973
-0.13969788
-0.03602749
-0.11580059
-0.26037031
-0.19890238
-0.35275117
-0.25590351
-0.15358259
-0.07362027
0.03594348
0.07278271
0.02041107
-0.09147789
-0.26439247
-0.17559320
-0.17716986
-0.16028702
-0.15261100
-0.28222811
-0.53052056
-0.46686673
-0.44882286
