-0.015006632,
0.059242442,
0.06212008,
0.05360788,
-0.07830584,
0.026032336,
0.080378786,
-0.06498471,
0.06401275,
0.027414858,
0.024589315,
-0.08223253,
0.2001492,
0.049840365,
0.020729322,
0.03875938,
-0.0680888,
0.08195689,
0.08372854,
0.03989026,
0.013234653,
0.026892267,
0.03745284,
0.061732456,
-0.014206104,
0.002774611,
0.061806917,
-0.022845842,
0.07905355,
-0.05048694,
0.035910256,
-0.072318286,
-0.0626483,
-0.0068191406,
0.025198963,
0.15116152,
0.054031942,
0.15578538,
0.19569851,
0.17718568,
0.34136653,
0.364243,
0.26435766,
0.4052811,
0.49723005,
0.38515815,
0.35168174,
0.27743217,
0.3909586,
0.3199308,
0.2675545,
0.1894194,
0.06387317,
-0.062906235,
-0.08422746,
0.07647458,
-0.047976702,
-0.046043713,
0.13416915,
0.18701504,
0.17334545,
-0.039766632,
0.25229144,
0.46872085,
0.38628197,
0.49872681,
0.7087627,
0.8082608,
1.0436182,
1.0254177,
1.1716733,
1.0221262,
1.0268327,
0.7613297,
0.39667434,
0.3893321,
0.40284094,
0.7787974,
0.78780335,
0.6304388,
0.41341197,
0.32345894,
0.074812666,
-0.056368634,
0.016641244,
0.038157977,
-0.20624521,
0.24642475,
0.19198862,
0.25674158,
0.3712439,
0.36973262,
0.5301144,
0.6267926,
0.7638127,
0.8931641,
1.028716,
1.1165628,
1.1867759,
1.2236336,
1.2736713,
1.0357141,
0.7703806,
0.7105443,
0.8971791,
0.7312616,
0.5968296,
0.678373,
0.5623381,
0.18345565,
-0.116263844,
0.013628483,
0.030477881,
-0.014200935,
-0.18917258,
0.21752363,
0.42649242,
0.5247584,
0.15785755,
0.40895346,
0.6187275,
0.473372,
0.37449571,
0.21815725,
0.27480265,
0.32423463,
0.22751087,
0.05284845,
0.16340649,
0.31305456,
0.23076162,
0.38403857,
0.4008341,
0.33182865,
0.083696604,
-0.14620204,
-0.29768303,
-0.119939044,
-0.089399286,
0.21340181,
-0.045736577,
0.04739584,
-0.061804455,
0.3856352,
0.45670682,
0.46912807,
0.23581041,
0.36702177,
0.42823827,
0.2897672,
0.2838595,
0.18676251,
0.027475655,
0.14703155,
0.05778893,
0.10497195,
0.05969632,
0.019902498,
0.08026349,
0.00660817,
-0.06086189,
0.060118053,
-0.1653318,
-0.4005461,
-0.28101614,
-0.36178792,
-0.29619035,
0.013701733,
0.04246162,
0.11151519,
0.22428373,
0.549329,
0.48115924,
0.39038852,
0.38510835,
0.25725368,
0.32554248,
0.3775512,
0.21399997,
0.25332206,
0.16952653,
0.16177562,
0.08678226,
0.07440447,
0.10167706,
0.07260303,
0.010173156,
-0.10496099,
-0.08445036,
-0.043296285,
-0.0723209,
-0.46336702,
-0.55955154,
-0.93567586,
-0.60557085,
-0.27834398,
-0.021120166,
0.32594866,
0.34128118,
0.60082847,
0.53031206,
0.37961787,
0.35085368,
0.21619977,
0.18771793,
0.11392267,
0.080042504,
0.115425065,
0.2200799,
0.13649057,
0.1147439,
0.04123353,
0.016754745,
-0.042775102,
-0.042455908,
-0.051673774,
-0.15031984,
-0.18760091,
-0.15933815,
-0.26491407,
-0.5787289,
-0.8512243,
-0.60053515,
-0.23517431,
0.2601406,
0.2606139,
0.37676862,
0.59716064,
0.5557699,
0.3463624,
0.23222809,
0.19216573,
0.023160396,
0.027925428,
0.096992716,
0.16965514,
0.13293989,
0.1732641,
0.22027713,
0.091014914,
0.11830024,
0.01425454,
-0.024379974,
-0.170842,
-0.06614217,
-0.19306085,
-0.19921201,
-0.19087034,
-0.6418302,
-1.0842474,
-0.60323715,
-0.2759184,
0.087461576,
0.33565062,
0.37518913,
0.7374533,
0.73102057,
0.4705062,
0.15021399,
-0.084517464,
-0.09085406,
-0.13769314,
-0.0382344,
-0.048229415,
0.040717643,
0.30688173,
0.5190393,
0.5057482,
0.25608814,
0.29339114,
0.05200146,
0.12257302,
-0.038715873,
-0.067581244,
-0.17831539,
-0.26488045,
-0.7727241,
-1.1258574,
-0.87652415,
-0.22417057,
0.1440009,
0.24066076,
0.6621124,
1.0454006,
0.7479906,
0.52873975,
0.017975276,
-0.23601688,
-0.31501308,
-0.42677903,
-0.4796239,
-0.31988215,
-0.2714814,
0.17604867,
0.4488726,
0.45102486,
0.562242,
0.37884,
0.31880626,
0.309764,
0.29959288,
0.2197018,
0.04034854,
-0.29333436,
-0.95721936,
-1.4376374,
-0.7976611,
-0.1430826,
0.10402788,
0.3051805,
0.8206609,
1.0512878,
0.9093658,
0.13402864,
-0.19947696,
-0.55764544,
-0.4853784,
-0.4416501,
-0.42871585,
-0.48457906,
-0.39605275,
-0.34454668,
-0.2006062,
0.056662522,
0.22357985,
0.33426943,
0.28235188,
0.36696795,
0.54024935,
0.5902508,
0.6031772,
0.19392377,
-0.44823375,
-1.0809078,
-0.8719881,
-0.10906201,
0.12991454,
0.27986464,
0.7179319,
0.94011307,
0.7494218,
0.1667708,
-0.44560155,
-0.45534685,
-0.33149177,
-0.33955097,
-0.41371083,
-0.4754325,
-0.5809057,
-0.74149746,
-0.70130455,
-0.4157677,
-0.04490464,
-0.016619304,
-0.11542384,
0.001565908,
-0.019721886,
0.23891127,
0.42827347,
0.51271385,
0.5621999,
-0.036065474,
-0.22150995,
-0.021794127,
-0.004720144,
0.18229656,
0.495475,
0.7563389,
0.6426743,
0.08371113,
-0.1679594,
-0.3225443,
-0.37248966,
-0.30985454,
-0.2607833,
-0.3659725,
-0.37519947,
-0.46419016,
-0.48794788,
-0.37057555,
-0.031948105,
0.02248045,
-0.1201637,
-0.27049616,
-0.16846651,
-0.12879016,
0.23331526,
0.541255,
0.77245307,
0.44051722,
0.008203733,
0.23214822,
-0.1230014,
0.06422732,
0.39972317,
0.5694617,
0.47759214,
0.10570429,
-0.11965739,
-0.04331716,
-0.20987037,
-0.16855502,
-0.20681347,
-0.18242383,
-0.21288091,
-0.31292355,
-0.42134574,
-0.3320805,
-0.19657812,
-0.039054096,
0.12795809,
0.11255984,
0.16080004,
0.042130213,
0.32776695,
0.43492424,
0.25249767,
0.62132365,
0.3805911,
0.21998966,
-0.09127583,
0.022719294,
-0.060734022,
0.33096603,
0.35416874,
0.4409554,
0.2275746,
0.13968922,
-0.047379002,
-0.28487563,
-0.1406336,
-0.06107376,
-0.2790622,
-0.45218548,
-0.41387707,
-0.217307,
-0.21652444,
-0.000880072,
0.0943901,
0.13174024,
0.3429127,
0.21799193,
0.20097865,
0.14601408,
0.2520893,
0.561539,
0.5426745,
0.30875507,
0.1638817,
0.110307835,
0.25687978,
0.35909438,
0.5995765,
0.34651086,
0.39518175,
0.27852666,
0.044663038,
-0.112954035,
-0.058611516,
-0.120736204,
-0.3279146,
-0.35791168,
-0.5194217,
-0.20985039,
-0.07735329,
0.06621671,
0.06772055,
0.20177914,
0.47747168,
0.26861432,
0.24416882,
0.015724668,
0.037067305,
0.59538907,
0.49136773,
0.16264398,
-0.059737027,
0.1156227,
0.32455224,
0.42072067,
0.29761642,
0.11266322,
0.08571644,
0.19750693,
0.21065289,
0.047129378,
-0.051864143,
-0.12262804,
-0.35471824,
-0.3718717,
-0.23482008,
-0.20496991,
-0.015365882,
0.091063954,
0.23388436,
0.27082032,
0.21561071,
0.31918,
0.27399412,
0.12981969,
0.12642284,
0.75517327,
0.44516176,
0.36075675,
0.25819144,
0.105948314,
0.33944085,
0.6392931,
0.092684805,
-0.079002835,
-0.3239509,
-0.030483589,
0.1558027,
0.22400267,
0.29620466,
0.16766466,
0.061821252,
-0.07977326,
-0.15759325,
-0.0722811,
0.07199338,
0.24217725,
0.394077,
0.36131012,
0.10423211,
0.34063452,
0.17433716,
-0.011544826,
0.1410774,
0.61408466,
0.07977675,
-0.015540505,
-0.14108887,
0.3238766,
0.5366645,
0.72088104,
0.1585481,
-0.10285541,
-0.04066417,
0.030248899,
0.061647702,
0.16924383,
0.37767076,
0.4940694,
0.46799514,
0.19718556,
0.05921472,
0.033750087,
0.11672645,
0.21026571,
0.1883999,
0.15892723,
0.0528531,
0.05073288,
-0.2225412,
-0.21167879,
-0.13467845,
0.35394743,
0.034087233,
-0.22963844,
-0.037886236,
0.23015961,
0.12590075,
0.8610275,
0.31822836,
-0.000534065,
0.019558063,
0.004231634,
0.050888106,
0.16185649,
0.2166072,
0.21770622,
0.37182647,
0.30180284,
0.19746642,
0.18335705,
0.00096658594,
0.092663765,
0.13849014,
0.09274491,
0.025958953,
-0.15410985,
-0.4433279,
-0.38255358,
-0.14323707,
0.028486487,
0.12056077,
-0.08488933,
-0.08561803,
0.1491016,
0.1606202,
0.62976855,
0.08734674,
0.0048645507,
0.075652994,
-0.026855165,
-0.049084645,
-0.024211004,
0.07715266,
0.15451358,
0.3521973,
0.24577075,
0.11885688,
0.11923604,
0.047299474,
-0.021053197,
0.102132075,
0.108546615,
-0.0715085,
-0.35111597,
-0.5637165,
-0.28301394,
-0.015530137,
0.1434364,
0.26113552,
-0.044864736,
-0.08387732,
-0.1125821,
0.31209397,
0.32492983,
-0.064737245,
0.1469071,
0.15421748,
0.21543463,
0.099678636,
0.056276172,
-0.037893303,
-0.0045360555,
0.045526978,
0.09166056,
0.10476729,
0.08339116,
-0.011129142,
-0.11606857,
-0.19899154,
-0.002201641,
-0.08005577,
-0.30786914,
-0.17051713,
-0.20019022,
-0.039737757,
-0.20515676,
-0.16239281,
0.06031732,
-0.012207016,
-0.00067070127,
0.018929148,
0.09742694,
0.274226,
0.1959156,
0.19479358,
0.24168979,
-0.12139317,
0.011244992,
-0.03985379,
-0.11878149,
-0.19322507,
-0.05817977,
-0.13486427,
0.008473076,
-0.21624126,
-0.25973806,
-0.037259467,
-0.16397908,
-0.25453517,
-0.23403768,
-0.042710304,
-0.3031444,
-0.09446024,
-0.10481047,
-0.08379181,
-0.0846209,
-0.04416465,
-0.012660213,
0.08643911,
0.11862323,
0.68040925,
0.59961283,
0.37312236,
0.25995186,
0.22286965,
0.10301388,
0.20315345,
0.28165433,
0.291211,
0.30689448,
0.24873132,
0.03918198,
-0.054338884,
-0.08934838,
-0.27137443,
-0.41551653,
-0.3656961,
-0.22037943,
-0.2419181,
-0.4831241,
-0.11941277,
0.00481582,
0.061825376,
-0.034671396,
-0.023276947,
-0.03716683,
-0.19995287,
-0.04802945,
0.3314951,
0.64998466,
0.5537357,
0.44668853,
0.51894003,
0.57454056,
0.34968257,
0.35748807,
0.44651678,
0.349068,
0.41675192,
0.2882528,
0.22614591,
-0.07174364,
0.10708926,
0.08968544,
-0.16392882,
-0.18597235,
-0.2741123,
-0.6193083,
-0.34114683,
-0.045649704,
0.0702416,
-0.07371181,
0.027019374,
-0.03669848,
0.019488044,
-0.1495307,
-0.1277786,
0.3824845,
0.48955834,
0.59409165,
0.4926424,
0.45784968,
0.43294087,
0.2633162,
0.13422303,
0.20219912,
0.3860807,
0.46337235,
0.6286585,
0.44060564,
0.47724473,
0.33729258,
0.18571216,
0.28542534,
0.38014624,
-0.046852864,
-0.051933166,
-0.017536076,
-0.01972545,
0.026789695,
-0.061100166,
0.0059696883,
0.006876722,
-0.039088693,
0.0941768,
0.21491057,
0.19604792,
0.18122289,
0.2731506,
0.39059952,
0.4195644,
0.16016912,
0.2578314,
0.77863824,
0.47773188,
0.31229925,
0.5518034,
0.45726407,
0.29573807,
0.19557841,
0.31329978,
0.24912696,
0.3094999,
0.18840201,
0.00576216,
-0.03211214,
-0.032995343,
0.05222632,
0.0149144605,
-0.0021094084,
0.043701172,
0.025892265,
-0.065370366,
0.014007598,
0.081419095,
0.04536289,
-0.0108502805,
-0.06900971,
-0.023117937,
0.051386267,
0.012892279,
0.0580938,
0.047703132,
0.08122083,
-0.0672292,
0.045613453,
-0.008465745,
0.062736616,
0.047740653,
0.07047412,
0.014803767,
0.056253523,
0.0068569407,
0.077500984,
-0.011255883,
-0.06589814,
-0.071963415,
-0.01135654,
-0.070204705,
0.016952239,
0.07457387,
0.0687993,
0.30746827,
0.34298506,
0.27589697,
0.21019317,
0.17547616,
0.03467102,
-0.016236937,
0.0770418,
0.10181701,
0.16161214,
-0.030930586,
0.06012979,
0.13098046,
0.091585465,
0.20945813,
0.08476916,
0.24508396,
0.16481051,
-0.07548669,
-0.05741997,
0.0656423,
-0.021019682,
-0.012498662,
0.055800557,
0.0145480875,
-0.026892578,
-0.035711978,
0.30060843,
0.37731516,
0.38914257,
0.44243613,
0.6883788,
0.6350079,
0.485836,
0.55757105,
0.487389,
0.5452477,
0.39989972,
0.13577488,
0.0553747,
0.016452314,
-0.115697704,
-0.028825928,
0.03024227,
-0.02510963,
0.24465719,
0.05986895,
0.14774927,
0.027192071,
-0.055646524,
-0.008783571,
0.008177586,
0.0440038,
0.17964724,
0.22717726,
0.26551843,
0.4115327,
0.6622934,
0.657452,
0.8415818,
0.5153887,
0.52054465,
0.5340328,
0.5436353,
0.6172563,
0.40664822,
0.39229032,
0.16847673,
0.29334515,
0.05128453,
-0.054605555,
-0.15682991,
0.09516319,
-0.038571477,
-0.32658172,
-0.075801596,
-0.07882444,
0.037369117,
-0.037737265,
-0.023916973,
-0.25423858,
-0.0011938255,
0.16159578,
0.19065027,
0.34379128,
0.2905335,
0.21551347,
0.15360916,
0.2807541,
0.05234767,
0.074505776,
0.1493312,
0.17256624,
0.11603816,
-0.047936108,
-0.17626716,
0.003330209,
0.058056228,
-0.028237337,
0.053102814,
0.23284593,
0.224714,
-0.44723314,
-0.5098085,
-0.26830584,
-0.05426291,
-0.026472483,
-0.020864643,
0.23057579,
-0.18011771,
0.052240327,
0.058823552,
-0.04469739,
-0.025381727,
-0.00073661417,
0.06627952,
-0.035106663,
-0.24677928,
-0.20124416,
-0.057304658,
-0.01273403,
0.13084494,
-0.11584976,
-0.20735218,
-0.18226606,
0.023012368,
0.052778147,
0.29633525,
0.25961939,
0.24879554,
0.20612994,
-0.53865415,
-0.041181885,
0.13381153,
-0.0064748973,
-0.0001570227,
-0.1511433,
-0.24066119,
-0.07594342,
-0.3924228,
-0.29106298,
-0.1852604,
-0.19583651,
-0.39628825,
-0.29312214,
-0.2114852,
-0.32737058,
-0.25604975,
-0.19553939,
-0.18312429,
-0.30493,
-0.33545104,
-0.2918287,
-0.20010889,
-0.13867939,
-0.13917066,
-0.19727229,
-0.09508706,
-0.11778809,
-0.4399524,
-0.15932776,
-0.20497459,
0.05221183,
-0.04506443,
-0.019196717,
-0.4659613,
-0.24372578,
-0.32300875,
-0.21888827,
-0.1924826,
-0.38168722,
-0.31969914,
-0.18305184,
-0.11786112,
-0.301578,
-0.24375339,
-0.1573519,
-0.2891285,
-0.3939701,
-0.3812849,
-0.41190383,
-0.24839902,
-0.31630713,
-0.1898483,
-0.1111657,
-0.21135001,
-0.10865298,
-0.28162888,
-0.26410407,
-0.2226966,
-0.07729528,
0.21702242,
-0.015930275,
-0.5784178,
-0.18010525,
-0.09492952,
-0.18983464,
-0.31376064,
-0.25420272,
-0.24541415,
-0.13132192,
-0.13538387,
-0.16959971,
-0.21588694,
-0.14076702,
-0.18838958,
-0.34565386,
-0.27385,
-0.40572596,
-0.4220413,
-0.2670039,
-0.30353272,
-0.18801,
-0.23302858,
-0.26650023,
-0.12249897,
-0.27985388,
-0.14417602,
0.04254643,
-0.09249084,
0.003152683,
-0.27547723,
-0.22512113,
-0.22564787,
-0.39964736,
-0.21209681,
-0.26208845,
-0.28279382,
-0.27188444,
-0.23995216,
-0.22421971,
-0.07292771,
0.20133798,
0.11900828,
0.010103151,
-0.23350543,
-0.41977608,
-0.35224408,
-0.30545124,
-0.15007569,
-0.27215627,
-0.20910743,
-0.048554037,
0.045750294,
-0.23835707,
-0.13887638,
0.025310077,
0.08816293,
-0.18063542,
-0.450519,
-0.4107963,
-0.3048421,
-0.29598328,
-0.24902606,
-0.13706577,
-0.37702534,
-0.27542877,
-0.09631533,
-0.25985932,
-0.07542942,
0.20739667,
0.29396987,
0.06181838,
-0.007598867,
-0.30580366,
-0.40092668,
-0.31608054,
-0.18101926,
-0.21495968,
-0.1932659,
-0.043630417,
0.12745792,
-0.2923623,
-0.25143802,
0.10896016,
0.08825081,
-0.082298525,
-0.3728299,
-0.19260426,
-0.37114418,
-0.39845482,
-0.31836876,
-0.31351048,
-0.4945625,
-0.47302207,
-0.37536493,
-0.22380918,
-0.1800352,
0.068991676,
0.08147767,
0.076416075,
-0.25007722,
-0.29210338,
-0.24923606,
-0.22798553,
-0.07223886,
-0.24614541,
-0.033861484,
-0.046011202,
-0.2536857,
-0.5161017,
-0.06959595,
0.091827825,
-0.17260168,
-0.05992418,
-0.36111784,
-0.34795678,
-0.3976024,
-0.47755793,
-0.4636131,
-0.37166756,
-0.5501468,
-0.46483865,
-0.31214103,
-0.30216,
-0.17054628,
0.014244587,
0.039048634,
-0.07270541,
-0.29192683,
-0.29330274,
-0.29300907,
-0.15319124,
0.046311364,
0.039627746,
0.049691375,
-0.053092957,
-0.29189494,
-0.39390308,
-0.021326313,
0.00810342,
-0.10151635,
0.018393734,
-0.20018621,
-0.24401617,
-0.3221003,
-0.36500552,
-0.38810322,
-0.14995405,
-0.31082854,
-0.12354641,
-0.07913501,
-0.049918015,
-0.080062844,
0.18579537,
0.08117275,
-0.07285047,
-0.22912002,
-0.3235579,
-0.23869033,
-0.2453866,
0.036825005,
0.016889311,
0.25208056,
0.086806536,
-0.056097362,
-0.19808367,
0.11843308,
0.05526049,
-0.19125146,
0.08805378,
0.009401154,
-0.42373762,
-0.25032565,
-0.25238872,
-0.1350029,
-0.018065399,
0.11639079,
0.11443599,
0.060637943,
0.04612868,
0.12161025,
0.21686803,
0.103349194,
-0.057847433,
-0.32515183,
-0.25324738,
-0.33526385,
-0.21578664,
-0.006320884,
0.1751201,
0.24235593,
0.043497212,
0.32885027,
0.36624807,
0.1428726,
0.04659042,
-0.059163976,
-0.23241945,
-0.046093866,
-0.27538148,
-0.0077114003,
0.10872161,
0.0011843162,
0.11895573,
0.07358516,
0.083007336,
0.06198689,
0.016384427,
0.26125276,
0.40932375,
0.16049126,
-0.01338711,
-0.32600385,
-0.24848844,
-0.025918525,
0.06064587,
0.11161623,
-0.009209583,
0.038427133,
0.13807194,
0.43710878,
0.048878416,
0.075809926,
0.07693955,
-0.23931491,
-0.06730053,
0.07739671,
-0.109376796,
0.17440368,
0.24576525,
0.101739205,
-0.0074381097,
0.24837875,
0.24648526,
0.20988442,
0.12822524,
0.37961096,
0.5154978,
0.30811208,
0.1538549,
-0.2182906,
-0.046899553,
0.037474804,
0.10072934,
0.15790254,
0.045132406,
-0.10399471,
0.07464572,
0.46900785,
0.37725937,
0.117134295,
0.030891702,
-0.11623643,
0.04865038,
-0.123821035,
0.0070195724,
0.21884811,
0.27755323,
0.21396025,
0.07883044,
0.10475976,
0.343666,
0.21950366,
0.17778577,
0.29289028,
0.4978849,
0.2413233,
-0.08771774,
-0.14918832,
0.06688497,
0.13135546,
0.12570632,
0.13137373,
0.048427004,
-0.12561055,
0.054911364,
0.42754456,
0.27147976,
-0.13760296,
0.058519915,
-0.19445233,
-0.26439983,
-0.0002136504,
0.05374507,
0.039513204,
0.29100338,
0.42240024,
0.2594493,
0.26444572,
0.16629787,
0.18358876,
0.33768144,
0.4287787,
0.52019703,
0.2741227,
0.14422294,
0.17312177,
0.23118967,
0.10502824,
0.18931057,
0.054992154,
0.07275682,
0.28098506,
0.28426617,
0.5687574,
0.17932083,
0.3570699,
0.103359565,
-0.21415442,
-0.19456072,
-0.21199158,
0.061892442,
-0.002467121,
0.30898452,
0.2927875,
0.32876408,
0.36844635,
0.33971113,
0.47327054,
0.33218434,
0.32658228,
0.32425255,
0.28754455,
0.23192805,
0.21246156,
0.23600496,
0.16467896,
0.18093385,
0.16426928,
0.16767046,
0.22208445,
0.41242018,
0.6770029,
0.3577071,
0.13004921,
0.02724681,
-0.16073562,
-0.16865453,
0.016535277,
-0.007867263,
-0.10632965,
0.15400657,
0.31808335,
0.29495904,
0.370643,
0.40870222,
0.40455058,
0.31777698,
0.13455778,
0.31143615,
0.08683367,
0.14149873,
0.18031166,
0.3470536,
0.21530774,
0.14114925,
0.27441776,
0.24145122,
0.32528007,
0.406687,
0.3192091,
0.35372648,
0.11310092,
0.145234,
0.003623328,
-0.0555375,
0.07034119,
0.15286301,
0.03659255,
0.099376425,
0.056205075,
0.15009277,
0.3233984,
0.4679123,
0.35385442,
0.23518588,
0.17963083,
0.12692693,
0.18233539,
0.17781268,
0.25747168,
0.3130279,
0.35482877,
0.22550328,
0.3586762,
0.25242364,
0.4272211,
0.5023394,
0.41858608,
0.3357327,
0.0075158486,
0.091329694,
0.11770361,
-0.019891344,
0.10731549,
0.22568166,
0.26109806,
-0.0685213,
-0.16420954,
-0.118951514,
0.058461368,
-0.026232077,
-0.13326892,
-0.34746072,
-0.30592796,
-0.17141585,
-0.11653646,
0.024190398,
0.15670392,
0.10360934,
0.24540448,
0.24873441,
0.18689153,
0.0843548,
0.06638169,
0.09825546,
0.31753528,
0.17570513,
0.0039264853,
0.054139033,
0.058597594,
-0.17926724,
-0.21543802,
-0.037512057,
0.23398438,
0.17975532,
-0.12697835,
-0.19289246,
-0.31831226,
-0.4578703,
-0.602713,
-0.55173737,
-0.4934462,
-0.5009153,
-0.35394183,
-0.3327764,
-0.38444722,
-0.23429683,
-0.0732025,
0.0004520566,
-0.08737791,
-0.089530945,
-0.30789962,
-0.09697815,
0.15191713,
0.33409137,
-0.07989503,
0.06471957,
-0.0032655075,
-0.10658153,
-0.51631105,
-0.18552527,
0.03582166,
-0.08145853,
-0.14105627,
-0.1963143,
-0.09644142,
-0.1590357,
-0.16138943,
-0.15030625,
-0.39568353,
-0.29599756,
-0.44283977,
-0.4043889,
-0.29619315,
-0.17922111,
-0.24176224,
-0.33019078,
-0.18498455,
-0.26513153,
-0.38050398,
0.11782818,
0.40801287,
0.29592842,
-0.04514042,
-0.027566414,
0.07829183,
-0.00812446,
-0.14955544,
-0.38975787,
-0.50617856,
-0.35219386,
-0.40977687,
-0.12695219,
-0.3247082,
-0.7334888,
-0.74689764,
-0.52935445,
-0.82740676,
-0.87185395,
-1.1121384,
-0.8600236,
-0.7507309,
-0.68244344,
-0.7737095,
-0.427809,
-0.0687849,
-0.23102257,
-0.22945352,
-0.1435423,
0.16782099,
0.16184086,
-0.008644655,
-0.004202418,
-0.07969926,
0.041519046,
-0.04448751,
-0.09056101,
-0.21184738,
-0.16380544,
-0.10949526,
-0.0923377,
-0.20649664,
-0.24940793,
-0.30623496,
-0.54524815,
-0.6005172,
-0.5569453,
-0.4893271,
-0.404109,
-0.35041058,
-0.42152867,
-0.34967798,
-0.28562948,
-0.21819898,
-0.066891804,
-0.031121192,
0.030445488,
-0.065468036,
-0.029090665,
0.028364673,
-0.071826726,
-0.050010104,
0.078658685,
-0.051125634,
0.10553375,
-0.041807383,
0.035195086,
-0.050096214,
0.07646618,
-0.014489891,
0.1542805,
-0.02664308,
0.039526384,
-0.11953217,
-0.16587564,
0.10507193,
0.123656735,
-0.14274718,
-0.11060193,
-0.10772443,
-0.07173122,
-0.03891911,
-0.06629954,
0.022481062,
-0.07581011,
0.036969483,
0.01109504,
-0.079173036,
0.073256165,
-0.06688669,
0.036960766,
-0.07975454,
-0.060282975,
0.018851534,
0.027221657,
-0.08221514,
0.060968846,
-0.0715377,
0.066688985,
-0.08518758,
0.05295251,
-0.16777195,
-0.10337107,
-0.035884727,
0.011146553,
-0.034886915,
-0.0701393,
-0.045384265,
0.012248583,
-0.077983774,
0.0012594238,
0.032864355,
-0.07587468,
-0.08147364,
-0.03729474,
-0.0656595,
-0.020407028,
0.04993391,
-0.050262213,
0.030799195,
0.008179534,
0.015705997,
-0.02450521,
0.09844771,
0.089057654,
0.1382255,
-0.051870402,
-0.25275505,
-0.05814297,
-0.22403476,
-0.2109076,
-0.35185048,
-0.44184977,
-0.2418502,
-0.06778576,
0.090213925,
-0.0029892765,
-0.036500115,
-0.06312584,
-0.023200084,
-0.07352085,
0.034461558,
-0.0010598227,
-0.05339946,
-0.03456066,
0.00046851486,
-0.066232026,
-0.1825519,
-0.22812158,
0.19370364,
0.32364532,
0.2687731,
0.20749404,
0.23192441,
0.4081151,
0.36140904,
0.11654979,
-0.01823634,
0.052763693,
0.06940865,
-0.035078947,
0.07884067,
0.13952361,
0.23959099,
0.15326376,
0.00936076,
0.036120225,
-0.021925097,
0.055115696,
-0.118818246,
0.08066183,
0.030587375,
0.034532808,
0.017293401,
-0.2518851,
-0.2457515,
0.046208594,
0.29791066,
0.40255257,
0.3663959,
0.3226347,
0.23559141,
0.30086488,
0.21276948,
0.19929485,
0.112217285,
0.12913354,
-0.01364442,
-0.03148718,
0.049019266,
0.20069925,
0.23496853,
0.07966039,
0.16615798,
0.30547896,
0.3169196,
0.296257,
0.002759211,
-0.0065928055,
-0.0022763014,
-0.069004506,
0.025085412,
-0.16076355,
-0.34509563,
0.1201361,
0.12538706,
0.23297024,
0.19840921,
0.0849199,
-0.019934986,
-0.0964254,
-0.11766143,
-0.22544834,
-0.14116864,
-0.19842482,
-0.20647325,
-0.17815185,
0.108304396,
0.13565268,
0.22583024,
0.32599598,
0.27756265,
0.4371585,
0.45575622,
0.3301894,
-0.08954477,
-0.38303453,
-0.0030104676,
0.015753396,
0.07397883,
-0.20983297,
-0.147979,
0.14431277,
0.005616588,
-0.03521371,
-0.19659966,
-0.14543316,
-0.11589613,
-0.17748487,
-0.45624217,
-0.30139425,
-0.24803104,
-0.30446088,
-0.23269732,
-0.33190265,
-0.18835907,
0.061493404,
0.078892305,
0.107060224,
0.11756843,
0.20972975,
0.45613292,
0.36474943,
-0.10873602,
-0.0424524,
0.06927873,
0.038348995,
-0.12747201,
-0.11509199,
-0.37022465,
-0.049299717,
-0.2773025,
-0.43033895,
-0.28095666,
-0.39053214,
-0.3419155,
-0.38027042,
-0.41384915,
-0.13467155,
-0.08040858,
-0.095128104,
0.038621154,
-0.047602743,
-0.041012324,
-0.018202575,
0.05830857,
-0.09672244,
-0.06846377,
-0.017346691,
0.13656203,
0.11337486,
0.06897438,
-0.07387978,
0.07281041,
0.035180762,
-0.20644248,
-0.15986979,
-0.41294426,
-0.2860535,
-0.45279282,
-0.6078252,
-0.47301018,
-0.36920202,
-0.39309543,
-0.31046236,
-0.28561094,
-0.17449823,
-0.08993473,
0.06931528,
0.08991699,
0.09004934,
-0.19262989,
-0.14112471,
-0.23210004,
-0.087500416,
-0.23354758,
-0.1486015,
-0.10621385,
-0.058495194,
0.035331994,
0.09627228,
-0.087245554,
-0.29357883,
-0.25968733,
-0.1285407,
-0.59630376,
-0.4695284,
-0.5307487,
-0.4677846,
-0.4095421,
-0.3268339,
-0.28493673,
-0.315969,
-0.33503175,
-0.3636535,
-0.15239342,
-0.07684646,
-0.11105562,
-0.26026562,
-0.40209365,
-0.3742201,
-0.40362597,
-0.3093475,
-0.27362818,
-0.45016003,
-0.5262116,
-0.30635178,
-0.26439276,
-0.4309139,
-0.32642558,
-0.06728124,
-0.36819968,
-0.30831417,
-0.65471226,
-0.6890629,
-0.50115216,
-0.30653554,
-0.27604955,
-0.1526064,
-0.2179535,
-0.045171905,
-0.19890802,
-0.20184158,
-0.13018057,
-0.17331864,
-0.31937805,
-0.44931784,
-0.55776155,
-0.3960328,
-0.45795283,
-0.377694,
-0.48824215,
-0.5084408,
-0.7883146,
-0.8271203,
-0.84551513,
-0.63378394,
-0.36462495,
0.0060115997,
-0.3377513,
-0.48351687,
-0.5772836,
-0.65430504,
-0.31461778,
-0.061867468,
-0.111616395,
-0.03443244,
-0.057187825,
-0.12770727,
-0.19356202,
-0.18279564,
-0.5656133,
-0.60116285,
-0.5407099,
-0.55896837,
-0.46453375,
-0.4153853,
-0.3741798,
-0.33300033,
-0.42696697,
-0.43799788,
-0.820987,
-1.0436373,
-0.91787213,
-0.9020427,
-0.40803006,
-0.116345495,
-0.46109125,
-0.518924,
-0.53303903,
-0.32861292,
0.14297089,
0.116741285,
0.0478349,
0.11020265,
0.10201182,
0.0026549986,
-0.07373046,
-0.3797938,
-0.6482913,
-0.6510363,
-0.37277102,
-0.28474545,
-0.075331904,
-0.08709599,
0.03368935,
0.004058833,
0.13378301,
-0.25797015,
-0.53354853,
-0.91567713,
-0.80864567,
-0.75679237,
-0.14412986,
-0.10793049,
-0.40991938,
-0.5336033,
-0.3405479,
0.06334423,
0.25666237,
0.54223615,
0.21553056,
0.21331415,
0.29287726,
0.35405916,
0.3018814,
0.23551337,
0.0935394,
0.0046843863,
0.075849995,
0.12858771,
0.10788864,
0.1893116,
0.24811906,
0.26168057,
0.19263825,
0.17122073,
0.00418539,
-0.4088778,
-0.5137816,
-0.45660907,
-0.27045742,
-0.04687127,
-0.34423593,
-0.48379135,
0.09313047,
0.41600147,
0.5330817,
0.540684,
0.37186393,
0.42659855,
0.40387926,
0.49006504,
0.6936531,
0.6621251,
0.49887937,
0.5209488,
0.4588998,
0.35248613,
0.3567074,
0.2794596,
0.24535556,
0.109475024,
0.19131163,
0.12845309,
0.024192913,
-0.0015953345,
-0.36085585,
-0.5046375,
-0.29457957,
-0.1724078,
-0.13080397,
-0.4420392,
0.16297835,
0.43947443,
0.5381917,
0.6367174,
0.42123157,
0.37996283,
0.4799784,
0.44652748,
0.5648523,
0.48441124,
0.3210822,
0.2579718,
0.38251734,
0.40824404,
0.3910404,
0.166725,
0.17573515,
0.20330052,
0.06630863,
0.014662812,
0.016625991,
0.026131872,
-0.21248633,
-0.4834421,
-0.24039288,
-0.14519815,
0.011134804,
-0.3166493,
-0.1414372,
-0.019314067,
0.24643534,
0.40752482,
0.48012102,
0.4375515,
0.25986743,
0.29381356,
0.46484572,
0.12525527,
0.020517409,
0.20747438,
0.37479946,
0.45348686,
0.31352738,
0.1852899,
0.054819793,
0.036434315,
-0.019301381,
-0.06304613,
-0.14817555,
-0.2737462,
-0.3016256,
-0.38249335,
-0.3259914,
-0.09929793,
-0.04986837,
-0.29997241,
-0.20640922,
-0.37009537,
0.052994836,
0.32786778,
0.4586844,
0.36114958,
0.2074837,
0.268593,
0.33948183,
-0.019883104,
0.054961383,
0.27775556,
0.38455448,
0.35450852,
0.13693926,
0.218845,
-0.032136332,
0.05549223,
-0.0034710588,
0.001776926,
-0.23597153,
-0.26335117,
-0.3485163,
-0.3486902,
-0.09862106,
0.06778045,
-0.13901632,
0.010059318,
-0.21669266,
-0.3597907,
-0.34774742,
0.08295931,
0.27005962,
0.36709285,
0.112970255,
0.27728784,
0.321778,
0.006746946,
0.22553802,
0.3145969,
0.2743765,
0.21249431,
0.031726744,
0.24071443,
0.17097998,
0.07926657,
0.16180527,
-0.0862924,
-0.04389528,
-0.35049182,
-0.28576353,
-0.55565095,
-0.18935303,
-0.14003536,
-0.17180187,
-0.09695232,
-0.045839325,
-0.36754274,
-0.438253,
-0.17842883,
0.09370808,
0.2950572,
0.23125753,
0.23929934,
0.033481315,
0.04628849,
-0.053727612,
0.086407036,
0.12748076,
0.092562295,
0.03796535,
0.121177524,
0.17377456,
0.1766556,
0.21600662,
0.027993295,
-0.013865378,
-0.18686439,
0.07279549,
-0.26934808,
-0.10849638,
0.008955165,
-0.23785035,
-0.22868896,
0.13347365,
-0.2817014,
-0.19010523,
-0.34658697,
-0.30212095,
-0.3130318,
-0.1760349,
-0.06442862,
0.10326513,
-0.10365776,
-0.051090553,
-0.04528492,
0.15320824,
0.13304214,
0.08379438,
0.03552633,
0.08254364,
0.16033106,
0.062701434,
-0.089722835,
-0.119682044,
0.016687682,
-0.032542843,
-0.3347117,
-0.07487053,
0.061151475,
-0.24106602,
-0.026770787,
-0.143016,
-0.2700913,
-0.43919718,
-0.53319645,
-0.4885221,
-0.5627851,
-0.43112925,
-0.288902,
-0.10837952,
-0.18895973,
-0.11036918,
0.0052547473,
0.07769468,
0.20091702,
0.112707704,
0.030656137,
0.0027831353,
0.090677895,
-0.17235304,
-0.14117295,
-0.2472482,
0.2249446,
-0.038797628,
-0.27970064,
0.13971722,
-0.049930282,
-0.05971833,
-0.20470539,
-0.36676458,
-0.6348434,
-0.66318214,
-0.7465772,
-0.46873897,
-0.3010815,
-0.2834376,
-0.26960957,
-0.21249458,
-0.05248342,
0.016105851,
-0.039163183,
-0.038481608,
-0.046179786,
-0.12207422,
-0.08133616,
-0.078015536,
-0.104181245,
-0.16109325,
-0.2474332,
-0.08891444,
0.12254851,
-0.08458555,
-0.34630194,
0.05174489,
0.031003445,
0.012072519,
0.026540296,
-0.4241213,
-0.74245816,
-0.99734896,
-0.62725806,
-0.51855725,
-0.41228294,
-0.35997692,
-0.34723878,
-0.23977406,
-0.16432269,
-0.17712702,
-0.22955911,
-0.28503716,
-0.15359206,
-0.28689948,
-0.20620465,
-0.19928889,
-0.119454734,
-0.053538628,
-0.055827457,
0.11335465,
0.1837363,
0.06489578,
-0.1945493,
0.0387777,
-0.018864669,
-0.074725844,
-0.06164774,
-0.25305495,
-0.59974015,
-0.33603004,
-0.11601743,
-0.1584239,
-0.11105343,
-0.19318357,
-0.36427402,
-0.4319766,
-0.41742668,
-0.4866103,
-0.34345013,
-0.35943303,
-0.3518583,
-0.23451997,
-0.07907063,
0.07466707,
0.22674689,
0.23624668,
0.21483678,
0.24562639,
0.18061607,
-0.0076103243,
-0.20046698,
0.083663136,
0.062412992,
-0.023638919,
0.0001569014,
-0.3463909,
-0.11045899,
0.1812484,
0.13256022,
0.3060677,
0.27232292,
0.064677134,
0.007884042,
-0.2577121,
-0.18158945,
-0.43382293,
-0.3314265,
-0.29000267,
-0.16887361,
-0.005700809,
0.0767264,
0.17278945,
0.50361174,
0.65772367,
0.5339004,
0.5065772,
0.17029765,
0.2331232,
-0.011376382,
-0.058329087,
0.06509875,
0.025911689,
0.11363485,
-0.061996613,
0.03922372,
0.32981473,
0.31669873,
0.3137449,
0.30327547,
0.1470056,
0.13848029,
0.029234681,
-0.054837987,
-0.09900362,
-0.0888438,
-0.15682893,
-0.04515604,
-0.01949965,
-0.04896737,
-0.049081646,
0.66070884,
0.55551714,
0.26902276,
0.2653046,
-0.03419677,
0.105082564,
-0.10081189,
-0.038602605,
0.07885261,
0.07420097,
0.05287476,
0.036819253,
0.33676428,
0.29804033,
0.44477683,
0.4247423,
0.38572672,
0.18749973,
0.09259828,
0.07384716,
0.15431903,
0.07671421,
0.1183205,
-0.11617195,
-0.14983146,
-0.2536512,
-0.35576802,
-0.39623356,
0.22712979,
0.19752875,
-0.1349146,
-0.08863164,
0.004383225,
-0.09795939,
-0.04468111,
-0.051174365,
0.07354845,
0.017827868,
-0.024697132,
0.04283145,
-0.08556532,
-0.15029873,
0.06573554,
0.013539266,
-0.20969586,
-0.14350198,
-0.3209744,
-0.15847826,
-0.12965053,
-0.49375626,
-0.24421383,
-0.10572143,
-0.10712698,
-0.44268093,
-0.34681213,
-0.2622765,
-0.10428401,
-0.2355733,
-0.25856757,
-0.3754561,
-0.006323822,
-0.020246468,
-0.057660908,
-0.026328236,
0.0690867,
-0.023037411,
0.05830261,
-0.05212705,
0.0013436228,
-0.021512747,
-0.037737615,
-0.007172726,
-0.067282304,
0.07564865,
-0.07732563,
0.07974766,
0.11134587,
0.18771932,
-0.11519705,
0.030734915,
-0.06440742,
0.03137184,
-0.03408397,
0.07259911,
0.049497485,
0.074008465,
-0.01875759,
-0.079829775,
-0.06545841,
0.06209223,
-0.042276714,
-0.01249633,
0.081648275,
0.04132703,
-0.024111856,
0.021990292,
0.037401136,
0.043873113,
0.11704138,
0.2858677,
0.246535,
0.30573124,
0.35666436,
0.49760225,
0.5964278,
0.22935772,
-0.10220154,
0.0690179,
-0.29827932,
-0.16383906,
0.1326168,
0.38656068,
0.3814189,
0.31685206,
0.22536665,
0.11104081,
-0.035734914,
-0.07010789,
-0.0007167235,
-0.06975742,
0.06868893,
0.072739184,
0.066966645,
0.12164855,
0.1579414,
0.18033482,
0.32924193,
0.52099794,
0.51182425,
0.17616461,
0.29699123,
0.33489716,
0.30704558,
0.24425447,
0.19493662,
0.14287911,
-0.09789149,
-0.08914708,
0.22003631,
0.870875,
0.61583,
0.48217976,
0.32416803,
0.16083668,
-0.23648074,
-0.19027539,
0.06291412,
0.0819013,
0.0017348379,
-0.059535984,
-0.09467174,
0.2230305,
0.3173361,
-0.23065253,
0.14507963,
0.092178546,
0.047810208,
-0.17238824,
-0.14272153,
-0.28003585,
-0.35134456,
-0.26382968,
-0.30154788,
-0.1890063,
-0.15374382,
-0.03715705,
0.002014446,
0.108184606,
0.11236763,
0.35775876,
0.25372526,
0.23422748,
0.1908616,
-0.24782537,
0.17356876,
0.08420277,
-0.025659747,
0.040093992,
-0.11606172,
-0.053744048,
-0.10103636,
-0.15471448,
-0.17102526,
-0.25661004,
-0.28666416,
-0.38582453,
-0.44315594,
-0.3834854,
-0.3962912,
-0.34461772,
-0.32620278,
-0.07401838,
0.04074236,
0.20658533,
0.11129616,
0.20091815,
0.43652818,
0.56662065,
0.6942073,
0.7672866,
0.16943817,
-0.1114987,
-0.16262059,
0.20932639,
-0.005518727,
-0.050712705,
0.07731213,
-0.34962294,
-0.56122786,
-0.47428092,
-0.24801396,
-0.15982755,
-0.15269703,
0.0011063463,
-0.06677143,
-0.16652681,
-0.41073325,
-0.35604003,
-0.26070863,
-0.214347,
-0.025500765,
0.057121977,
0.08036062,
0.21252543,
0.27984753,
0.376027,
0.5428269,
0.6038462,
0.28203842,
-0.21970916,
-0.26185122,
0.038144328,
0.073392734,
0.034584846,
0.03910375,
-0.6814101,
-0.51242405,
-0.31061015,
-0.17669675,
-0.008511946,
0.054352775,
-0.09320151,
-0.11820491,
-0.1384704,
-0.2850043,
-0.4271469,
-0.35051358,
-0.4126766,
-0.38653854,
-0.22434525,
-0.16497985,
0.03218531,
0.08624048,
0.14107694,
0.50204664,
0.56968737,
0.20838019,
-0.30590796,
-0.08486689,
0.012172986,
-0.050028548,
-0.25035945,
-0.22116083,
-0.55397004,
-0.7346097,
-0.30601817,
-0.16779962,
0.203819,
0.0950989,
0.087397195,
-0.007025688,
-0.16542776,
-0.20454627,
-0.3056532,
-0.25745806,
-0.36860746,
-0.29792818,
0.0125113195,
-0.009429874,
0.0012699224,
-0.110355206,
0.19917694,
0.37979773,
0.5581665,
0.401646,
0.029793803,
-0.29283303,
0.02685958,
0.27163878,
-0.21056442,
-0.267099,
-0.79312027,
-0.9976016,
-0.44708192,
-0.10193506,
-0.047345277,
0.032200877,
-0.041298244,
-0.059065223,
0.03750535,
-0.2243236,
-0.3335113,
-0.29567575,
-0.17363134,
-0.08838008,
-0.04476397,
-0.15472884,
-0.24777587,
-0.089567386,
-0.1815348,
0.2758629,
0.785983,
0.71954983,
0.26282388,
-0.19502164,
-0.12932341,
-0.03622526,
-0.20340838,
-0.37888345,
-0.8049798,
-0.95720595,
-0.55453753,
-0.27269983,
-0.14126125,
0.065904856,
-0.05303813,
0.05432566,
0.21121652,
-0.020676587,
-0.20543362,
-0.39078605,
-0.34446177,
-0.19159162,
-0.20073663,
-0.13639982,
-0.15707055,
-0.28387645,
-0.24325405,
-0.019234497,
0.656545,
1.0682548,
0.48617008,
-0.13225925,
-0.18131617,
-0.058866113,
-0.07983605,
-0.45021364,
-0.7312314,
-0.5067646,
-0.4095287,
-0.33265156,
0.04382959,
0.19724387,
0.28041673,
0.2621413,
0.45749804,
0.25561345,
-0.05666455,
-0.16436028,
-0.14366965,
-0.29641324,
-0.1775878,
-0.21743266,
-0.2039282,
-0.36537346,
-0.50266325,
-0.21242249,
0.5198323,
1.2708894,
0.68966514,
0.08908891,
-0.08423513,
0.018099006,
-0.055976856,
-0.35797885,
-0.7045005,
-0.3641514,
-0.1971763,
0.0017961982,
0.15558343,
0.21309163,
0.23872244,
0.23364699,
0.32671887,
0.1155505,
-0.012527398,
0.006203275,
-0.22753166,
-0.22830105,
-0.28456807,
-0.29173282,
-0.37631038,
-0.432731,
-0.44731018,
-0.08120448,
0.49803072,
0.8933797,
0.45417544,
0.12908211,
0.079054475,
-0.021373507,
-0.17830276,
-0.3910509,
-0.43849292,
-0.3941714,
-0.074313164,
0.40841126,
0.2274813,
0.207725,
0.075588405,
0.29138213,
0.34349942,
0.17733535,
-0.013012734,
-0.1661714,
-0.23616348,
-0.31277004,
-0.28875682,
-0.29007614,
-0.2944217,
-0.2796099,
0.0430012,
0.6248558,
0.90093225,
0.45097128,
-0.25976035,
-0.21343008,
-0.22345676,
0.11185185,
-0.0039340085,
-0.3016722,
-0.44289786,
-0.19668281,
0.31182688,
0.4572926,
0.33970904,
0.25834388,
0.16296598,
0.4255235,
0.25861353,
-0.04016352,
-0.102401085,
-0.13205445,
-0.23260736,
-0.34237054,
-0.34374776,
-0.19070722,
-0.12017106,
0.15512669,
0.44781655,
0.77305645,
0.8117548,
0.4735634,
-0.6309513,
-0.6790973,
-0.3802824,
0.090681255,
-0.020286182,
-0.058399756,
-0.34711275,
-0.1410764,
0.5274621,
0.5480519,
0.3945427,
0.4284559,
0.4769442,
0.49709815,
0.22352824,
-0.074704565,
-0.02678241,
-0.08287988,
-0.17540029,
-0.2460645,
-0.21632722,
-0.11959828,
-0.006769973,
0.22473988,
0.34880963,
0.4548509,
0.58651245,
0.4175407,
-0.46905094,
-0.7724243,
-0.32236668,
0.15143506,
0.035164792,
0.10765899,
-0.14738183,
-0.2364977,
0.28643692,
0.29032528,
0.38528258,
0.30867726,
0.2423844,
0.27701673,
0.19856337,
-0.01291637,
0.013738616,
0.066072635,
-0.17562316,
-0.39817864,
-0.14211588,
-0.057430897,
0.11609666,
0.14106172,
0.21572179,
0.19660856,
0.1334946,
-0.043049883,
-0.68593603,
-0.93428344,
-0.36569473,
-0.18820517,
0.0021910772,
-0.20082565,
-0.44327903,
-0.42206472,
0.12197512,
0.2169417,
-0.020160893,
0.10378635,
-0.016315455,
0.048111152,
0.048126753,
-0.11885468,
-0.035328474,
0.05940901,
-0.121210165,
-0.37241557,
-0.05763939,
0.055926513,
0.12112291,
0.042704035,
0.018344522,
-0.09227329,
-0.08977259,
-0.35598573,
-0.7346552,
-0.86075234,
-0.29340795,
-0.0027693436,
0.034730174,
-0.1406534,
-0.5569211,
-0.38506943,
0.24565428,
0.0859922,
-0.09617424,
-0.2331444,
-0.20958294,
0.02946602,
-0.029342435,
-0.108657144,
-0.03028808,
-0.07030971,
-0.17469202,
-0.13513787,
0.011343314,
0.023800312,
-0.002210419,
0.11037276,
-0.054794632,
-0.11096137,
-0.2464503,
-0.36167943,
-0.8900295,
-0.8144756,
-0.19955646,
-0.21174955,
0.0073528555,
-0.058406007,
-0.36344388,
-0.0898282,
0.12580226,
0.024453506,
-0.21219225,
-0.19652624,
-0.21657717,
0.016036924,
0.017982073,
0.17796747,
0.16172218,
0.050297074,
-0.08048159,
-0.00102746,
-0.07683027,
-0.11554853,
-0.053153537,
-0.18048742,
-0.14842688,
-0.22163923,
-0.12687953,
-0.029634846,
-0.43722063,
-0.2905271,
-0.29953578,
0.13547763,
0.09380217,
0.032885525,
-0.25579122,
-0.20129998,
-0.035629526,
-0.12121487,
-0.28121987,
-0.008139421,
-0.061846826,
0.16786289,
0.44926932,
0.30381003,
0.41900003,
0.34625557,
0.2418369,
0.06489117,
-0.03634333,
0.00410266,
-0.12607138,
-0.063858576,
-0.14840412,
-0.18337733,
-0.11488151,
0.10827771,
-0.37370846,
-0.59365726,
-0.030330585,
0.04194294,
0.20839202,
0.05478999,
-0.29670787,
-0.3063663,
-0.06239918,
-0.10806679,
-0.15117404,
0.027962098,
0.044597983,
0.29026967,
0.41514486,
0.4859221,
0.35214642,
0.30805266,
0.22371133,
0.18459675,
0.19058587,
0.034095332,
-0.13530448,
-0.17610629,
-0.19020519,
-0.061821494,
0.05122944,
-0.29541808,
-0.32267883,
-0.36960667,
0.19102398,
0.1738331,
-0.09380251,
-0.260949,
-0.046419114,
-0.12011505,
-0.076996066,
-0.06293593,
0.07072466,
0.13711707,
0.18657036,
0.29511827,
0.35250178,
0.3379664,
0.26034608,
0.26727054,
0.24836102,
0.12097045,
0.10668418,
0.015748557,
-0.069116056,
-0.06198878,
0.11856666,
0.028352745,
-0.082084104,
-0.19855204,
-0.06942091,
0.23128961,
0.009313965,
0.09038259,
0.0040823044,
-0.40201437,
-0.2746498,
-0.017308714,
-0.035137393,
-0.17729278,
0.0045146584,
0.114648245,
0.22604792,
0.0760966,
0.0137292845,
0.07397991,
0.15706882,
0.121722,
0.23144227,
0.23267388,
0.14588791,
0.1280382,
0.15139453,
-0.031930175,
0.19963352,
-0.005117079,
0.048782784,
-0.10781602,
0.06878789,
0.28499427,
0.15046345,
-0.035593748,
-0.05589863,
-0.24996357,
-0.17608227,
0.0005545645,
0.11728211,
0.19882502,
0.0121077625,
0.28553268,
0.24845578,
0.1848825,
0.122031204,
0.19156648,
0.17692201,
0.18707569,
0.16183682,
0.2399695,
0.17555557,
0.15106185,
0.024577882,
0.087053545,
-0.11783769,
-0.25220993,
-0.09455077,
-0.10729428,
0.017052734,
0.29887375,
0.06391896,
0.07929401,
0.07545671,
-0.17976311,
-0.08840292,
-0.23404136,
-0.2561007,
-0.18050964,
-0.22685075,
-0.12079913,
0.022986779,
-0.012949937,
-0.06429815,
-0.03360738,
-0.08952353,
0.08169588,
0.001796274,
-0.0013541218,
0.14106414,
0.20873806,
0.121464305,
-0.16627629,
-0.31085673,
-0.13444066,
-0.2401525,
-0.2278211,
-0.16406636,
0.04736637,
-0.07568839,
0.08248672,
0.046646684,
-0.19139385,
0.060803063,
-0.19165552,
-0.6207708,
-0.62230635,
-0.57165945,
-0.64937854,
-0.52535313,
-0.35144773,
-0.47120994,
-0.44234127,
-0.25222278,
-0.2130828,
-0.10926283,
-0.067081496,
-0.045560572,
-0.15907055,
-0.2645326,
-0.49112168,
-0.19419226,
-0.0003613226,
-0.004850519,
0.052764274,
-0.063116655,
-0.061334528,
-0.0042940304,
-0.0047453865,
0.040280834,
-0.07644982,
-0.03520166,
-0.26447666,
-0.48510733,
-0.5730238,
-0.83931476,
-1.0015757,
-0.9948124,
-0.7614557,
-0.4476625,
-0.5057949,
-0.55556726,
-0.9279349,
-0.6274327,
-0.691647,
-0.7240047,
-0.5842193,
-0.4823475,
-0.21656752,
-0.21007656,
-0.26337916,
-0.32181478,
-0.16588241,
0.037648257,
-0.005449064,
-0.062475324,
0.044574335,
0.04048656,
0.029814735,
0.015863776,
-0.020843264,
-0.092257716,
-0.113173686,
-0.22004761,
-0.3581473,
-0.30340844,
-0.3971544,
-0.28552344,
-0.3910215,
-0.34567606,
-0.769201,
-0.45280522,
-0.35773516,
-0.41402882,
-0.5320417,
-0.40667528,
-0.06386788,
-0.3375171,
-0.24122065,
-0.14758433,
0.061290935,
0.076397926,
0.030564412,
-0.004230045,
-0.076271795,
0.05768898,
-0.008569375,
-0.061020836,
-0.067405626,
0.010449052,
0.016512573,
-0.005551636,
0.015682451,
-0.014914252,
-0.03764284,
0.061110184,
-0.058288697,
-0.13576113,
-0.0864104,
-0.10425966,
0.07254872,
-0.08397756,
-0.08518838,
0.08040778,
-0.030907948,
0.0021590441,
0.019073248,
-0.07662316,
-0.08620121,
-0.06894448,
-0.009116188,
-0.044660114,
0.051569596,
-0.07052929,
-0.017610341,
0.0011444166,
-0.0036502092,
-0.070283,
-0.085831754,
-0.20398207,
-0.13646036,
-0.33193216,
-0.37975025,
-0.55063826,
-0.38005164,
-0.425732,
0.0026715756,
-0.1559744,
-0.3594758,
-0.39716765,
-0.36180043,
-0.25985733,
-0.31296572,
-0.3766526,
-0.25384548,
-0.1754528,
0.08451578,
-0.029903255,
0.07569423,
0.007408753,
-0.0012388825,
-0.04728546,
0.02440082,
-0.15909068,
-0.21638137,
0.03037663,
-0.21808232,
-0.3647848,
-0.54946536,
-0.64171207,
-0.78904724,
-1.0295699,
-0.9826864,
-1.1235058,
-0.8820996,
-0.72915554,
-0.829526,
-0.47695878,
-0.5421533,
-0.3988221,
-0.26901373,
-0.31481463,
-0.31235585,
-0.20811723,
-0.26329425,
-0.20448793,
0.08644053,
-0.048427608,
-0.0073606446,
-0.084029324,
0.28661317,
-0.3155059,
-0.20479827,
-0.27307224,
-0.45414194,
-0.64494777,
-0.86451197,
-1.0965698,
-1.1090375,
-1.2249053,
-1.1610799,
-1.0159078,
-1.1084652,
-0.91766113,
-0.74934214,
-0.64472044,
-0.5664725,
-0.61116534,
-0.45745322,
-0.17305282,
0.02210333,
-0.02642914,
-0.29819575,
-0.20510684,
-0.19047248,
0.02216833,
0.057730198,
0.075108826,
0.24701919,
-0.0010818586,
-0.1695564,
-0.36935362,
-0.5195524,
-0.7823265,
-0.6411182,
-0.52701175,
-0.49821532,
-0.43262246,
-0.503294,
-0.49571347,
-0.62425685,
-0.5245938,
-0.28110468,
-0.14272425,
-0.16145036,
0.06628123,
0.24839956,
0.26722568,
0.22402546,
0.26400313,
-0.2755666,
-0.31142733,
-0.00030799763,
-0.23826525,
0.084900215,
0.007985234,
0.22713988,
0.013570198,
-0.38635278,
-0.0022778288,
-0.10787202,
-0.13256471,
-0.27755773,
-0.34889713,
-0.34201056,
-0.08478203,
0.020937849,
0.11592801,
-0.10338584,
0.042111084,
-0.154201,
-0.20060386,
-0.17592357,
-0.05314555,
-0.07727804,
0.02698084,
0.08416528,
0.045514397,
0.073710926,
-0.10392033,
-0.1276744,
-0.24984095,
-0.06271694,
-0.14768045,
-0.15153475,
-0.123706974,
-0.20672484,
0.053405184,
-0.0082886275,
-0.043247815,
-0.13277954,
-0.06793354,
0.0013343513,
0.14261568,
0.008482438,
-0.0076704402,
-0.0021023895,
-0.10189772,
-0.08826374,
-0.102806285,
-0.112120084,
-0.066132694,
0.05336759,
0.10428129,
0.017531764,
0.026266394,
-0.20487238,
-0.13044728,
-0.30030674,
-0.13405724,
-0.028362276,
-0.12738506,
-0.047843207,
0.26178062,
0.09886971,
-0.07343747,
-0.015235376,
-0.07133238,
0.010988186,
-0.14128068,
0.0349052,
-0.016451128,
0.07212419,
0.08236748,
-0.04245958,
0.018169297,
0.06423928,
0.023358334,
0.02465236,
0.05743946,
0.040961247,
-0.04148685,
0.0027938113,
0.0925344,
-0.1346606,
-0.36641842,
-0.20636976,
-0.16670313,
-0.10051671,
-0.083855964,
0.10379404,
0.1840887,
0.1845964,
0.023094468,
-0.07386492,
0.012603285,
0.13148323,
-0.10405459,
-0.097792305,
0.018697591,
0.1385785,
0.17530069,
0.0032262187,
-0.03433982,
0.036716644,
0.09828628,
0.08531506,
-0.010522231,
-0.13065526,
-0.1249718,
-0.0100864265,
-0.15720236,
-0.24476536,
-0.33462605,
0.021986326,
0.08713006,
0.07260901,
0.24500962,
-0.0524681,
0.04572373,
0.03932117,
-0.03976966,
0.011243976,
0.092925,
0.16668253,
0.012156374,
0.121354096,
0.055207465,
0.1398242,
0.090303086,
0.11524808,
0.1603593,
0.10994276,
0.17025407,
0.18514918,
-0.08871156,
-0.015090272,
-0.10732617,
-0.23665178,
-0.3069761,
-0.58190703,
-0.5720384,
-0.40050343,
-0.06185911,
0.06432681,
0.09529979,
-0.14124385,
-0.05528928,
0.030259741,
-0.114668414,
0.10100138,
0.19996136,
0.27498323,
0.25730413,
0.21954617,
0.21350262,
0.049565945,
-0.055296313,
0.022387434,
0.06370142,
0.13224447,
0.12809326,
0.25795943,
0.15165286,
0.07546937,
-0.013034641,
-0.07088754,
-0.41831473,
-0.8802043,
-0.8637845,
-0.69717884,
0.06063268,
0.041516718,
0.11296199,
0.035373658,
-0.14054841,
0.06953027,
0.2891946,
0.4130396,
0.5067067,
0.38575196,
0.45971566,
0.36369455,
0.16997054,
-0.017099502,
-0.124083064,
0.24176428,
0.16384806,
0.13069944,
0.14237112,
0.247701,
0.13224223,
0.3953088,
0.25884825,
0.3471721,
-0.2873854,
-0.8307668,
-0.7926175,
-0.48191535,
-0.13939574,
-0.022968275,
0.14887509,
0.1623304,
-0.061560683,
0.32949325,
0.47403097,
0.3930069,
0.32383487,
0.31809184,
0.27326018,
0.11651426,
-0.09705525,
-0.19226041,
-0.24413054,
0.14340049,
0.17797038,
0.10941864,
0.3101251,
0.2886161,
0.4353082,
0.7970055,
0.7577691,
0.68521833,
0.36468026,
-0.3098934,
-0.22494647,
-0.20109068,
-0.13091551,
0.067396104,
0.03054234,
0.3143417,
0.08844955,
0.3811339,
0.39835885,
0.31448114,
0.24494104,
0.093528725,
0.10851139,
0.00096538337,
-0.17063636,
-0.5441139,
-0.025522567,
0.22789936,
0.3297537,
0.41102034,
0.2012322,
0.38701463,
0.643244,
0.7731247,
0.678422,
0.53955954,
-0.008353682,
-0.6316397,
-0.23551667,
-0.27096775,
-0.15814799,
-0.23135671,
0.14555793,
0.28972903,
0.36210093,
0.54738003,
0.28060734,
0.29746878,
0.0856153,
-0.016651284,
-0.20917617,
-0.3570096,
-0.43806916,
-0.22733013,
0.17471598,
0.29059178,
0.4287295,
0.35610634,
0.19433759,
0.29270813,
0.41743374,
0.22265524,
0.14057586,
0.040088337,
-0.347884,
-0.6367526,
-0.31908807,
-0.4494136,
-0.12996683,
-0.06438317,
-0.15926884,
-0.087345235,
0.3662888,
0.19295156,
-0.03384738,
0.039747596,
-0.12561542,
-0.27807164,
-0.4857744,
-0.56441563,
-0.29666784,
-0.08803183,
0.26129818,
0.31962347,
0.10927543,
0.23544027,
0.33603713,
0.15130529,
0.028690813,
-0.11747527,
-0.17211747,
-0.038386174,
-0.25320274,
-0.4141833,
-0.42033467,
-0.42036748,
-0.032436207,
-0.016865816,
-0.017823806,
-0.3188128,
-0.048672058,
-0.053129528,
-0.26522422,
-0.11101096,
0.020873692,
-0.30125007,
-0.45558032,
-0.22679551,
-0.09256137,
0.1071975,
0.2054624,
0.29042938,
0.15199277,
0.04632985,
-0.0064755795,
-0.06268655,
-0.2760102,
-0.27460673,
-0.30582187,
-0.25841707,
-0.5026246,
-0.5246543,
-0.8225956,
-0.3411503,
-0.113627166,
0.0092591345,
0.07958852,
-0.32358646,
-0.3140468,
-0.33496872,
-0.47686625,
-0.5681428,
-0.3728629,
-0.3340861,
-0.18202916,
0.12782095,
0.28234956,
0.42686614,
0.28220588,
0.33146757,
-0.006631813,
-0.1546839,
-0.26217768,
-0.25705084,
-0.5106583,
-0.3852818,
-0.47420123,
-0.55700976,
-0.8965787,
-0.8634094,
-0.70052195,
-0.31824946,
-0.26019096,
0.250696,
-0.020016698,
-0.13977313,
-0.3467793,
-0.6658163,
-0.72364205,
-0.7891972,
-0.67731136,
-0.31721887,
0.018744107,
0.3263308,
0.31847408,
0.18885297,
0.29531857,
0.20591718,
-0.103887744,
-0.46875578,
-0.47484088,
-0.4398181,
-0.5239306,
-0.46943158,
-0.5191464,
-0.84712857,
-0.99823695,
-0.9234389,
-0.65054697,
-0.007396579,
0.019064164,
0.10485848,
-0.07083704,
-0.33401495,
-0.5517523,
-0.70665276,
-0.64636767,
-0.6053427,
-0.37065455,
-0.28158343,
-0.09956316,
-0.037377812,
-0.14491655,
-0.05472111,
0.0016556651,
0.04593335,
-0.11137656,
-0.28176188,
-0.4662424,
-0.52552086,
-0.46047416,
-0.5059568,
-0.6606741,
-0.8443986,
-0.7813655,
-0.7601585,
-0.3633698,
0.040718667,
0.050809752,
0.023475163,
-0.16349559,
-0.38420314,
-0.8371508,
-0.81484866,
-0.6771081,
-0.5185775,
-0.13054785,
-0.19603308,
-0.2457769,
-0.10743503,
-0.24524713,
-0.2529693,
0.024468785,
-0.06546781,
-0.1775521,
-0.21777871,
-0.2601057,
-0.38985667,
-0.4949017,
-0.5138473,
-0.60757643,
-0.79403657,
-0.8185767,
-0.43258825,
-0.10459079,
0.09973253,
-0.18914767,
0.1119471,
-0.14693047,
-0.4739864,
-0.8380268,
-0.5733021,
-0.33771253,
-0.18373172,
-0.13914816,
-0.1587054,
-0.0775328,
-0.18036768,
-0.15238765,
-0.1385798,
-0.08587393,
-0.011947156,
0.049645882,
0.043229718,
-0.09815963,
-0.22505048,
-0.31824926,
-0.37106875,
-0.48095432,
-0.6105093,
-0.63165444,
-0.24561043,
-0.347795,
-0.24617562,
-0.039155908,
0.042160798,
-0.06717859,
-0.34414503,
-0.7028043,
-0.38988322,
0.05151661,
-0.06943835,
-0.10618281,
-0.08752184,
-0.1393077,
-0.0981329,
-0.049256053,
-0.070008054,
-0.014287141,
0.1666252,
0.116336316,
0.116794415,
0.13833492,
0.12015501,
-0.2519189,
-0.2665474,
-0.3939373,
-0.28818768,
-0.15608738,
-0.057528965,
0.0025366135,
0.14239118,
0.03874763,
-0.057589363,
0.026024014,
-0.33834043,
-0.7328906,
-0.46391317,
-0.15743972,
-0.19581704,
-0.16331561,
-0.18537651,
-0.24934772,
-0.1760683,
-0.013714702,
0.072981395,
0.12727098,
0.1286848,
0.22981939,
0.2948854,
0.4366448,
0.33672765,
0.093133524,
0.15464142,
0.08744129,
0.16749892,
0.100722834,
-0.1422845,
-0.1450146,
0.13817422,
0.012424,
0.04666558,
0.021550514,
-0.043674823,
-0.53876376,
-0.265646,
0.023885116,
-0.11524899,
-0.20622905,
-0.31149194,
-0.30636668,
-0.16580325,
-0.27109364,
-0.30937105,
-0.30431157,
-0.1840398,
-0.022055972,
0.12272577,
0.111957,
0.26232156,
0.3391082,
0.5879194,
0.4832543,
0.23113057,
0.11107864,
-0.12212982,
-0.18474774,
-0.13807851,
0.075859785,
-0.021426424,
-0.048300356,
-0.09064032,
-0.10195721,
-0.15346359,
0.070887454,
-0.12754562,
-0.09610516,
-0.13544855,
-0.24881198,
-0.47235933,
-0.44479793,
-0.34867385,
-0.36793724,
-0.14411044,
-0.24496037,
-0.17445204,
-0.017133001,
0.044998117,
0.095931455,
0.54179657,
0.53909576,
0.28317896,
0.05954966,
-0.05640452,
-0.017189432,
-0.14340468,
0.08213505,
0.01779285,
0.010399766,
0.05275643,
0.0019741952,
0.029006774,
0.24154556,
0.2431101,
0.45873642,
0.49989575,
0.57379323,
0.3228068,
0.2098941,
0.13707578,
0.23034509,
0.38876495,
0.24766144,
-0.011399211,
0.21293671,
0.16312051,
0.06987101,
0.026311921,
0.24942535,
0.2508448,
0.36500183,
0.13854809,
-0.060436778,
-0.06351189,
0.03686323,
-0.042750597,
0.06848414,
-0.014542639,
-0.049489167,
0.09452156,
0.098628566,
-0.023293322,
0.08143702,
0.14963175,
0.08046731,
-0.04751347,
0.03191014,
0.055297516,
0.17387642,
0.452448,
0.21631998,
0.20605081,
0.21500584,
0.22516687,
0.27493075,
0.17247629,
0.34857294,
0.3950525,
0.13968985,
0.05643557,
-0.05746329,
0.0009655878,
-0.05323818,
0.02503249,
0.026557982,
0.001313068,
0.07148631,
-0.0059074983,
-0.018347174,
0.02198676,
0.059386685,
0.021781377,
-0.0760697,
0.079885244,
0.04692562,
0.004290534,
0.029893672,
-0.0079055,
-0.006659964,
0.00095092505,
-0.07589275,
-0.048803415,
0.08368777,
0.007026665,
0.066473454,
-0.0231212,
-0.08004047,
-0.06402286,
0.010529935,
-0.06992272,
-0.038581297,
-0.048878882,
0.045093834,
0.023995176,
-0.006914012,
-0.08792261,
0.081165545,
-0.004435046,
0.059162233,
0.0906356,
0.08212644,
0.030313188,
0.13096462,
0.15713933,
0.18860307,
0.08650537,
0.08262332,
0.016114805,
0.0066759777,
-0.049692158,
-0.08208074,
-0.023455417,
0.05216718,
-0.08193996,
-0.08977687,
-0.027975671,
-0.048919436,
-0.078850046,
-0.07046759,
-0.04932165,
0.05823089,
-0.06687445,
0.16857587,
0.12747414,
-0.12118695,
0.06828324,
0.077258974,
-0.054632325,
-0.3830035,
-0.35767192,
-0.3608157,
-0.17840633,
-0.066927865,
-0.46694776,
-0.49262312,
-0.47994843,
-0.4044254,
-0.53933984,
-0.39333618,
-0.4325547,
-0.38282934,
-0.28121814,
-0.121904455,
-0.01884774,
-0.042758774,
0.012703262,
0.06448136,
-0.082150474,
0.07826704,
0.15586066,
0.037743326,
0.15095828,
0.029171541,
-0.04504899,
0.015725018,
-0.004714668,
-0.1769039,
0.019010251,
0.0907544,
0.25209793,
0.11831752,
0.27371714,
0.24439041,
0.12921998,
-0.03556294,
-0.24041913,
-0.10166713,
-0.17885566,
-0.3606981,
-0.5207496,
-0.36092132,
-0.21594745,
0.084590085,
0.26510212,
-0.02304297,
0.044611692,
0.15093686,
0.22518814,
0.2709742,
-0.15710948,
-0.27244294,
-0.034796305,
-0.073807925,
-0.06649566,
0.08002795,
0.08761952,
0.11791569,
-0.044530112,
-0.09852319,
-0.01604373,
0.18250543,
-0.005362799,
0.18299434,
0.10147176,
0.036674343,
-0.2716632,
-0.14462304,
-0.0864495,
-0.02317412,
0.2436379,
0.09629268,
0.17125045,
-0.17651388,
-0.0071586445,
0.038691223,
-0.23833562,
-0.012153226,
-0.3175692,
0.07190288,
0.06303253,
0.04456069,
0.09250303,
0.10230578,
0.048449654,
0.10841616,
0.08699606,
0.1407368,
-0.02319275,
-0.09124017,
-0.18445148,
-0.05477779,
0.021615889,
0.001250849,
-0.08166828,
-0.0024256788,
0.04005438,
0.151301,
0.32189557,
0.44386455,
0.36505327,
0.034941208,
0.020573385,
-0.04467465,
0.31906497,
0.014989818,
-0.22481857,
-0.123535074,
0.004970521,
-0.018625764,
0.13106273,
0.1961224,
0.14338057,
0.27384913,
0.2529113,
0.3428003,
0.38417327,
0.22422288,
0.34271544,
0.31032047,
0.35237136,
0.17418933,
0.26812527,
0.31058782,
-0.012652174,
-0.11640556,
0.10404713,
0.18272842,
0.2011218,
0.012180269,
-0.055931132,
0.0772291,
0.027482506,
0.11937016,
-0.29732066,
-0.24769917,
-0.025748743,
-0.12867561,
0.10207598,
0.24795136,
0.17876723,
0.16278483,
0.4328058,
0.4487479,
0.499689,
0.50250894,
0.48672175,
0.5213942,
0.35301727,
0.21027829,
0.21100791,
0.16340935,
-0.046128076,
-0.20247793,
-0.016262064,
0.11428686,
0.030238261,
0.063868955,
0.23219776,
0.17114162,
-0.06244465,
0.019659953,
-0.28282785,
-0.18367532,
-0.035527136,
-0.06596055,
0.17647177,
-0.022063036,
0.062394332,
0.10765007,
0.14876227,
0.26926035,
0.3905903,
0.4605794,
0.4284006,
0.2846574,
0.21079487,
0.018118419,
0.06825027,
0.019905237,
-0.20738651,
-0.037030775,
0.056965582,
0.15684877,
-0.12538303,
-0.108572885,
0.15158366,
0.28680238,
0.0477632,
0.051610943,
-0.16171096,
-0.12999474,
0.13315924,
0.06128529,
0.15342829,
0.058531206,
0.13111024,
0.2096678,
0.13049921,
0.2931812,
0.49953583,
0.5910734,
0.28402627,
0.06540147,
0.16852033,
-0.0320108,
-0.11070512,
-0.19615753,
-0.27926457,
-0.3164493,
0.060101632,
-0.019931372,
0.02909757,
0.27667212,
0.09990969,
0.070831686,
0.42149428,
0.23890974,
-0.11771749,
0.005769166,
0.028945858,
0.22028977,
0.22305305,
0.18864438,
0.1750343,
0.26674765,
0.1320379,
0.35258594,
0.5544322,
0.3505834,
0.06694257,
-0.14372858,
-0.0055774273,
-0.15889613,
-0.17865242,
-0.25115272,
-0.13051778,
-0.3253863,
-0.13099007,
-0.009260521,
0.5307401,
0.06649827,
0.120742194,
0.2499877,
0.5104991,
0.27472755,
-0.0024346344,
0.2152486,
0.29679596,
0.1998964,
0.20645164,
0.13878916,
0.28970113,
0.17781325,
0.02655078,
0.023556743,
0.06271771,
0.065071434,
-0.0956617,
0.050659,
-0.035925586,
-0.089456744,
0.009111806,
-0.014034488,
-0.09807319,
-0.20767897,
-0.19404721,
-0.24396224,
0.25586572,
0.24002756,
-0.03132763,
0.27138704,
0.29125676,
0.35144177,
0.23259833,
0.34967777,
0.35843405,
0.250944,
0.19059947,
0.07232026,
0.16152373,
-0.08998076,
-0.50619274,
-0.3830931,
-0.1875339,
0.037540827,
-0.09812954,
0.051161714,
0.11604076,
-0.017373802,
-0.08795378,
-0.23200095,
-0.031834662,
0.2023158,
-0.21528722,
-0.15715525,
0.010412504,
0.2395926,
-0.021319529,
0.17890409,
0.27339822,
0.19766298,
0.43723282,
0.40787554,
0.15688255,
0.15583637,
-0.013183597,
-0.08471741,
-0.16041401,
-0.44092515,
-0.5990302,
-0.48735505,
-0.017477931,
-0.1558852,
-0.15060891,
-0.05609848,
0.07468685,
0.006407656,
-0.09010571,
0.03863179,
0.04920731,
-0.019902062,
0.18276162,
-0.090989016,
-0.25016356,
-0.13778235,
0.044583473,
0.035837185,
0.23008235,
0.07630649,
0.11812741,
0.24125846,
0.073868185,
-0.049309336,
-0.0997723,
-0.063417554,
-0.22549279,
-0.63568854,
-0.5511634,
-0.38183117,
-0.2603423,
-0.18693055,
-0.37953606,
-0.19827989,
0.027493672,
-0.007613624,
-0.013991142,
0.13212217,
0.07601363,
0.10982816,
0.22386265,
-0.10455928,
-0.30514926,
-0.13777097,
0.08108283,
0.01882586,
-0.1015379,
-0.38290045,
-0.14665715,
0.11763674,
-0.046496157,
-0.075065374,
-0.1558908,
-0.13216585,
-0.18230718,
-0.43799624,
-0.47988042,
-0.41448545,
-0.39094257,
-0.33243158,
-0.23717213,
9.439445e-05,
0.021200899,
0.07367562,
0.16217937,
0.10187317,
0.08585881,
0.15949391,
0.18220906,
-0.19146086,
-0.37192258,
-0.24509749,
-1.2497974e-05,
0.26547182,
0.19260253,
-0.3896041,
-0.15615599,
0.039582167,
-0.09701935,
-0.08564359,
0.028852329,
-0.05033381,
-0.123022854,
-0.32985628,
-0.318107,
-0.35495538,
-0.3232927,
-0.36052898,
-0.17165463,
-0.019526508,
0.10025911,
0.084946945,
0.13280624,
-0.054182295,
0.067598894,
0.0022437014,
-0.059339188,
-0.32628828,
-0.5102773,
-0.21431968,
-0.08219889,
0.29450813,
0.07998046,
0.23712873,
-0.1382859,
0.03134946,
-0.07531071,
-0.16001251,
-0.06631992,
-0.096622884,
-0.15693118,
-0.2695429,
-0.37581968,
-0.41631806,
-0.4028464,
-0.16289693,
-0.19491684,
0.092555515,
0.1728408,
0.15996337,
0.16589099,
0.1251208,
0.17312099,
0.047283825,
-0.07255191,
-0.15720017,
-0.06500079,
-0.028060002,
0.307246,
0.08813076,
0.30538824,
0.12435768,
-0.003507678,
-0.16729283,
-0.12524961,
-0.28664413,
-0.23128623,
-0.33713162,
-0.23479772,
-0.4716076,
-0.6725362,
-0.47548,
-0.10192231,
-0.14387287,
-0.085505776,
0.039229747,
0.05015513,
0.14871849,
0.08173126,
0.12221644,
0.10995558,
-0.16814652,
0.000678477,
-0.035770006,
0.019792605,
-0.19617149,
0.022582013,
0.27204448,
0.35509345,
0.22700176,
0.034528565,
-0.18814461,
-0.15371262,
-0.29598975,
-0.3014187,
-0.5453637,
-0.5035389,
-0.4704942,
-0.2650913,
-0.020113008,
0.030590512,
-0.07081836,
-0.16210636,
-0.03915334,
-0.07500921,
-0.04323721,
0.03529744,
-0.06302612,
-0.05448231,
0.011893698,
0.12919241,
-0.0042275535,
-0.25779447,
0.0024331172,
-0.00024936348,
0.1287287,
0.07145234,
0.38911715,
0.09978368,
0.04757769,
-0.2541209,
-0.3282915,
-0.3190358,
-0.3078969,
-0.31501687,
-0.09673915,
-0.014720249,
0.18132344,
0.07391011,
-0.14763898,
-0.04006741,
-0.18494594,
-0.23937531,
-0.0586424,
-0.16457202,
-0.12656425,
-0.120760314,
0.11560998,
0.14322637,
0.35315105,
-0.013516849,
0.12166674,
0.021757528,
-0.013997641,
0.36278918,
0.39216164,
0.10956276,
-0.16890244,
-0.21972166,
-0.27807572,
-0.16120778,
-0.120678835,
0.068790875,
0.116867095,
0.16666116,
0.008165963,
0.059358157,
-0.08904022,
-0.007461122,
-0.31517783,
-0.3283226,
-0.29360363,
-0.087089986,
-0.12403104,
-0.08347058,
-0.06962505,
0.08742028,
0.25267622,
0.051645376,
0.035921272,
0.1414187,
0.06434774,
0.21898009,
0.16980198,
-0.055944156,
-0.21071029,
-0.27303657,
-0.23223124,
-0.08355012,
0.13115862,
0.19122702,
0.01882094,
0.12701842,
-0.06678199,
0.054231577,
0.050119992,
0.07125297,
-0.13102184,
-0.3504581,
-0.41895354,
-0.3483383,
-0.35520533,
-0.022768276,
0.11255688,
0.078222886,
0.2473395,
0.044191193,
0.046542596,
-0.07438274,
0.0014361292,
0.08607146,
0.20858613,
0.43814263,
0.21030778,
0.033067912,
0.13417944,
-0.04933101,
0.033930726,
0.26435468,
0.15289979,
0.09641702,
-0.098664686,
0.018924152,
-0.16413856,
-0.18213095,
-0.23155198,
-0.49622622,
-0.4858965,
-0.40629914,
-0.26471403,
0.14939974,
0.2714463,
0.37973455,
0.19560069,
-0.00945283,
-0.07934982,
-0.04037523,
0.04886654,
0.064560734,
0.44357035,
0.8392862,
0.891528,
0.7809984,
0.546635,
0.28595567,
0.09243061,
-0.005967318,
-0.08354379,
-0.09925355,
-0.011224338,
-0.0639844,
-0.05674362,
-0.14587882,
0.11391761,
-0.056517344,
-0.049642615,
0.05300124,
0.22383045,
0.33537003,
0.21450233,
0.27867752,
0.038107075,
-0.0346571,
-0.01954604,
0.026901625,
0.060854733,
0.19161664,
0.27113765,
0.6790588,
1.1092275,
0.94496036,
0.7758902,
0.8115909,
0.46665794,
0.21462502,
0.342818,
0.36111373,
0.30372798,
0.26888427,
0.24621318,
0.4052325,
0.59369034,
0.6616734,
0.6077536,
0.59399253,
0.78625,
0.5497341,
0.34487993,
0.44966426,
0.21144763,
-0.08283249,
0.062524736,
0.052819267,
-0.07891531,
-0.057039537,
0.18808943,
0.36749732,
0.7869381,
0.715911,
0.7526775,
0.94074255,
0.87064105,
0.9069586,
0.79879785,
0.75230366,
0.97557294,
1.140158,
0.85681814,
0.78689945,
0.6670706,
0.80472845,
0.8327944,
0.8999584,
0.6943891,
0.3816492,
0.19149238,
0.08178122,
-0.050506204,
-0.037802305,
0.052217677,
0.03661052,
-0.047480952,
-0.06323573,
-0.038624637,
0.11204759,
0.026998946,
0.27658162,
0.3209714,
0.37607062,
0.44346172,
0.46661502,
0.36759615,
0.3055442,
0.42857116,
0.5948127,
0.3862716,
0.3283426,
0.3878264,
0.41613835,
0.2837367,
0.31121847,
0.16396254,
0.23675054,
0.19913253,
0.08326958,
0.0043514073,
-0.06469023,
-0.002388209,
-0.075017385,
0.034269035,
-0.0067926273,
-0.027166612,
-0.04010014,
-0.013560489,
0.03119231,
0.065147,
-0.06759955,
-0.082616016,
-0.07790804,
0.029806726,
-0.08421772,
-0.075505994,
0.11460916,
0.0020103795,
3.582239e-05,
-0.008997649,
-0.073972434,
-0.0152364,
-0.0014967918,
0.020710446,
-0.008355752,
0.06816028,
0.010318644,
-0.023903228,
-0.0757409,
-0.06331194,
0.07700615,
-0.047107767,
-0.027518947,
-0.027427375,
0.03853005,
0.020067522,
0.0065314095,
-0.035282735,
0.033857718,
-0.00046406634,
0.022985626,
-0.09880374,
-0.08372601,
-0.071196266,
0.4154389,
0.14134,
-0.071739145,
-0.083980165,
-0.13537636,
-0.059435427,
0.019402293,
-0.18142909,
-0.24334496,
-0.18380596,
0.04703571,
-0.07025703,
0.0146393925,
0.05786003,
-0.029817175,
-0.076533444,
0.113768496,
0.066589884,
-0.1863452,
0.03522459,
-0.0712181,
0.029556485,
0.055075347,
0.16364221,
0.33246616,
0.27866155,
0.34946176,
0.3984592,
0.5634729,
0.5004998,
0.3404849,
0.21768978,
0.4046243,
0.30257216,
0.49278724,
0.624178,
0.34240273,
0.32717022,
0.35156742,
0.24588202,
-0.013951436,
-0.074289575,
0.0010136366,
0.01019451,
0.06143061,
-0.088442355,
-0.007250985,
0.22204404,
0.22645964,
0.21760169,
0.25944984,
0.41384953,
0.5560164,
0.49717057,
0.49111453,
0.5999927,
0.44099084,
0.51149696,
0.42986655,
0.24261983,
0.037827663,
0.17858827,
0.2657604,
0.099053726,
0.0056545017,
0.17922245,
0.27313167,
0.23520394,
0.15293464,
-0.008196458,
-0.080303825,
-0.05690233,
0.1526035,
0.02181732,
0.34634688,
0.42068908,
0.47815263,
0.56582403,
0.6359431,
0.7226201,
0.58880866,
0.348529,
0.47659013,
0.41122296,
0.4825796,
0.31656447,
0.35918838,
0.13869871,
0.09895903,
0.0075608566,
0.030575458,
-0.23529848,
-0.21745497,
-0.3563699,
-0.19552729,
-0.04917902,
-0.04945008,
0.0613142,
-0.025163151,
0.038557306,
0.17442402,
0.15476549,
0.41509205,
0.7016418,
0.683356,
0.6413021,
0.71288586,
0.5865718,
0.314213,
0.08484245,
0.086418845,
0.04014568,
0.06759242,
0.15035787,
0.24407886,
0.25066426,
0.25768065,
0.052531537,
-0.071815744,
-0.04663442,
-0.037683968,
0.19433519,
0.043159418,
-0.10076633,
-0.23787275,
0.06909495,
0.03914301,
0.13516629,
0.07995264,
0.44804713,
0.65044487,
0.6689511,
0.78754234,
0.7053478,
0.49214372,
0.45526278,
0.13295908,
-0.16775002,
-0.3477192,
-0.37551898,
-0.5239918,
-0.41549578,
-0.24106264,
-0.2552356,
-0.14383978,
-0.076864,
-0.061149314,
0.11145418,
0.16770346,
0.039098896,
-0.37433046,
-0.43637758,
-0.3444375,
-0.0014388859,
0.01138897,
0.33984175,
0.27423376,
0.66228276,
1.0375713,
0.7897506,
0.62684876,
0.47757858,
0.23724146,
0.09737627,
-0.047366913,
-0.17819422,
-0.2658075,
-0.39755344,
-0.41873643,
-0.47527707,
-0.44511914,
-0.28007495,
-0.12832099,
-0.014622715,
0.008005938,
0.21807845,
0.19982992,
-0.34689522,
-0.9809995,
-0.8562589,
-0.32181042,
-0.030020444,
-0.1678007,
0.34877792,
0.46671218,
0.82450503,
1.0101593,
0.7198019,
0.36075297,
0.27463666,
0.13427047,
0.13123432,
-0.019729724,
-0.03415023,
0.015452358,
-0.1457121,
-0.37490422,
-0.37601888,
-0.24931847,
-0.054589648,
0.06563777,
0.26753265,
0.12481243,
0.17077704,
0.009512276,
-0.74922806,
-1.3939435,
-1.0255265,
-0.34919018,
-0.08325371,
0.11332107,
0.24582902,
0.42892185,
0.88894343,
0.8964013,
0.32808337,
0.028424937,
0.105206594,
0.027792538,
0.01410046,
-0.06141731,
-0.06614376,
-0.02811307,
-0.08506013,
-0.16870658,
-0.010021319,
0.039117735,
0.14424302,
0.043552417,
0.12641248,
0.093377344,
0.05604387,
-0.09328891,
-0.747172,
-1.3907659,
-0.94438064,
-0.399423,
-0.14634165,
0.10841241,
0.3355518,
0.6001686,
0.87148035,
0.41143548,
0.17657445,
-0.0033960748,
-0.053114746,
-0.15022464,
-0.20358136,
-0.2774293,
-0.3598501,
-0.29027665,
-0.20618604,
0.008938766,
0.1375262,
0.28648064,
0.16327368,
0.20580369,
0.17062593,
0.0059843706,
-0.06466202,
-0.2504506,
-0.7355232,
-0.98955303,
-0.7695632,
-0.29554215,
-0.0053196563,
0.0920397,
0.44646162,
0.7653472,
0.8072025,
0.41759387,
-0.09110745,
-0.38364226,
-0.31369007,
-0.36318615,
-0.20046188,
-0.23777401,
-0.45287445,
-0.4562564,
-0.4522924,
0.14390607,
0.14219297,
0.15651757,
-0.024801314,
-0.029646968,
-0.033178788,
-0.2320519,
-0.38836175,
-0.5200016,
-0.3955761,
-0.47466838,
-0.40915495,
-0.09909521,
0.22138335,
0.1947504,
0.4319022,
0.77886623,
0.36271098,
-0.025173439,
-0.4432467,
-0.6702178,
-0.40898767,
-0.23843525,
-0.21550256,
-0.3006639,
-0.32986206,
-0.38582298,
-0.27884707,
0.012448567,
0.09024811,
0.010419831,
-0.080572784,
-0.11838547,
-0.2246637,
-0.49691013,
-0.54016453,
-0.45470503,
-0.45747015,
0.15158828,
0.566097,
0.34256867,
0.44781363,
0.05916545,
0.23412858,
0.7059257,
0.08494351,
-0.41439644,
-0.59613276,
-0.48105687,
-0.28379908,
-0.2589527,
-0.1496651,
-0.18433748,
-0.23952775,
-0.40912604,
-0.13145974,
0.061337918,
0.039707784,
-0.027691932,
0.1017807,
-0.0036379122,
-0.1415329,
-0.25983348,
-0.19482003,
-0.3681992,
-0.18467928,
0.33339983,
0.81823844,
0.8056581,
0.29029587,
-0.04633309,
0.18018053,
0.38569716,
-0.049518865,
-0.27590433,
-0.37662628,
-0.1914512,
0.027028153,
-0.008101715,
-0.098228596,
-0.1279658,
-0.2769519,
-0.12572916,
0.051461633,
0.104184665,
0.05550809,
0.14128885,
0.14363699,
0.23066883,
0.20954546,
0.04711803,
0.1232563,
0.11359195,
0.26261783,
0.24641715,
0.6802074,
0.7341378,
0.3174762,
0.022239676,
0.023496233,
0.5464892,
0.26371008,
-0.17094165,
0.048163302,
0.2416794,
0.060409203,
-0.014485219,
-0.23249051,
-0.3236436,
-0.2647871,
0.075407736,
0.35644445,
0.44480965,
0.27858025,
0.20720619,
0.23148991,
0.12647657,
0.18379338,
0.37682903,
0.4382088,
0.27468958,
0.1738906,
0.29306787,
0.633431,
0.69187707,
0.31933698,
0.17181669,
0.13513309,
0.3877553,
0.3099952,
-0.08788746,
0.08617836,
0.2757772,
0.19533662,
-0.15198968,
-0.19025354,
-0.23239706,
-0.09830795,
0.13433856,
0.42678127,
0.54097223,
0.28939402,
0.37035143,
0.17551158,
0.22716308,
0.3013078,
0.35707507,
0.5287796,
0.34272823,
0.3607784,
0.40268162,
0.8016213,
0.7124573,
0.32804874,
-0.047387335,
0.24628432,
0.46370995,
0.33562365,
0.19002678,
-0.062054247,
-0.057140574,
0.018270424,
-0.13490601,
-0.19456346,
-0.27877584,
-0.106339216,
0.1763258,
0.36201444,
0.4651685,
0.28871024,
0.15545693,
0.19842066,
0.1051997,
0.21764761,
0.1060053,
0.26641294,
0.30876228,
0.37448147,
0.36151835,
0.8328964,
0.6913804,
-0.13625136,
-0.1146176,
0.10157396,
0.5960376,
0.7607011,
-0.0103628365,
-0.074685924,
-0.24545074,
-0.13370857,
-0.16286889,
-0.29290715,
-0.31323114,
-0.128291,
0.27863595,
0.34076118,
0.23434456,
0.2284693,
0.075117186,
0.11863497,
0.19280307,
0.13139784,
0.051801883,
0.3701296,
0.14776558,
0.34141558,
0.5500989,
0.85524744,
0.60928106,
0.2862204,
-0.013921898,
0.050228707,
0.12955025,
0.7845361,
-0.0046867966,
-0.12248992,
-0.14643563,
-0.31340152,
-0.39335236,
-0.28276345,
-0.13170078,
0.1695221,
0.14400572,
0.21767831,
0.15232821,
0.15640381,
0.27355036,
0.22813423,
0.15514666,
0.020339657,
0.16863875,
0.19403255,
0.09152065,
0.28418797,
0.4210364,
0.657002,
0.4951133,
0.20096639,
0.04944749,
-0.07469341,
0.28595862,
0.46889898,
0.121695064,
-0.2133082,
-0.13131924,
-0.09935427,
-0.10306533,
-0.15726094,
-0.09855444,
0.14921758,
0.20523067,
0.19470249,
0.32330927,
0.234623,
0.28239977,
0.14703126,
0.15414272,
-0.0071314597,
0.21360447,
0.062916465,
0.016776739,
0.16174765,
0.29248604,
0.21193826,
0.635936,
-0.0020349114,
0.015833968,
0.19598766,
0.31642047,
0.34664917,
0.12376305,
-0.080936834,
-0.06571098,
-0.07554488,
0.10517762,
-0.16068745,
-0.2058084,
-0.09629674,
0.09528518,
0.12777643,
0.21572515,
0.22079691,
0.1541033,
0.16192569,
0.21768315,
0.13380454,
-0.06382651,
-0.09393372,
0.015195917,
0.30300537,
0.19529118,
0.18536511,
0.13538958,
0.0024083015,
0.06473384,
0.030695284,
0.515777,
0.3195232,
0.3280719,
0.4390396,
0.14664184,
0.12076903,
0.023928815,
0.0036045527,
-0.115535565,
-0.16354871,
-0.095919356,
-0.05436079,
0.09234927,
0.16691734,
0.14513633,
0.11831685,
0.092529304,
0.075600564,
0.111084156,
-0.016717536,
0.03929753,
-0.096457176,
-0.07726566,
0.09383763,
0.2504711,
-0.102202535,
0.02744773,
-0.065169364,
0.23046273,
0.16474684,
0.35781598,
0.35237086,
0.36933136,
0.23260519,
-0.0200423,
0.1568181,
0.06454137,
0.06695397,
-0.05425778,
-0.06819023,
-0.032286443,
0.0752165,
0.053905156,
0.1784935,
0.13588744,
-0.00485606,
-0.18163235,
-0.17703731,
-0.27263406,
-0.3522994,
-0.122656725,
0.04398644,
0.36077785,
0.043517992,
0.07728332,
-0.036518414,
0.20141737,
0.1199764,
0.123622574,
0.2085766,
0.25375113,
0.07084079,
0.111146435,
0.010680471,
-0.03213689,
-0.023385683,
0.01071926,
0.080788046,
0.1058724,
-0.03161131,
-0.13477935,
-0.22459655,
-0.29173928,
-0.59103084,
-0.5933523,
-0.40441552,
-0.38721168,
-0.4427257,
-0.20744637,
0.072106086,
0.24838968,
0.01796005,
0.07231198,
-0.0073323324,
-0.21777296,
0.03955016,
0.06978198,
-0.14844328,
0.12041071,
0.07224825,
0.1769744,
0.05291205,
-0.12918214,
-0.0957638,
-0.13036235,
-0.21048403,
-0.22606975,
-0.45178813,
-0.39193764,
-0.5696269,
-0.67191374,
-0.70966035,
-0.8124421,
-0.7010478,
-0.4162482,
-0.3864142,
-0.14982736,
-0.11923666,
0.1353564,
-0.058620818,
-0.02975965,
0.040171996,
-0.040432196,
-0.16565324,
-0.24017757,
-0.10038656,
0.052637998,
0.2529932,
0.32571128,
0.07074585,
0.07127734,
-0.1095962,
-0.21386537,
-0.2565382,
-0.5409859,
-0.36541963,
-0.31190476,
-0.2875003,
-0.46230426,
-0.57235503,
-0.53668153,
-0.3533012,
0.048968177,
0.0049516107,
-0.12181876,
0.11544724,
-0.009592697,
-0.010712042,
-0.072007805,
-0.02298922,
0.041497305,
-0.0046287924,
0.2047655,
0.28385136,
0.4919608,
0.3818642,
0.44901246,
0.4487636,
0.30405036,
0.34618658,
0.34182242,
0.76052576,
0.25326017,
0.39012334,
0.69138855,
0.7058162,
0.26280755,
0.06647461,
-0.08824415,
-0.087091774,
0.26210505,
0.23602973,
0.05672528,
-0.07026932,
-0.035855953,
-0.049621228,
-0.05702019,
-0.016688697,
0.028925113,
0.016335003,
-0.062051304,
0.005454965,
-0.009777136,
0.082656965,
0.046166405,
0.06051074,
0.03710214,
-0.039709445,
-0.014848408,
0.09903036,
0.093635865,
-0.03904035,
0.02447036,
0.05295737,
0.028354868,
-0.0329282,
-0.037743356,
0.02903638,
-0.031303454,
0.081970915,
-0.016942658,
0.04763174,
-0.062602535,
-0.07733102,
0.0040749833,
-0.033637445,
0.03729394,
-0.01326137,
0.04329945,
-0.009570611,
0.073755704,
-0.0341375,
-0.0005077514,
0.08599603,
0.10937429,
0.14916119,
0.11230603,
0.16400726,
-0.1479803,
-0.22869794,
-0.011915222,
0.045947455,
0.07691841,
0.1355933,
0.065099984,
0.10483721,
-0.027293984,
-0.017435694,
0.0735268,
0.084203035,
-0.048246507,
-0.046883244,
0.07673967,
0.049940646,
0.021696089,
0.041077882,
0.09708562,
-0.0128168715,
0.03558556,
0.12162141,
0.21059586,
0.45179147,
0.43646428,
0.2874914,
0.29733407,
0.045326818,
-0.037442274,
-0.11346054,
0.05482968,
0.45462266,
0.47785896,
0.48238704,
0.30178925,
0.3182643,
0.30223885,
0.133092,
0.13130634,
0.06944572,
-0.007200867,
-0.007484421,
0.013897091,
0.023354255,
-0.19946301,
-0.103523545,
-0.06976107,
-0.14873053,
-0.233725,
-0.029980242,
0.041573472,
0.015526095,
0.15001042,
0.024716476,
-0.1775845,
-0.22519918,
-0.19727716,
-0.21842264,
-0.15026122,
0.11317181,
0.1547837,
0.43280607,
0.4127224,
0.48439398,
0.5580063,
0.6735572,
0.5388342,
0.22600766,
0.16336119,
-0.035687715,
-0.029127378,
-0.016696906,
-0.23694184,
-0.23309167,
-0.21198422,
-0.215459,
-0.20364751,
-0.16349007,
-0.09822843,
0.16585825,
0.086526945,
0.047004353,
0.03256768,
-0.027280573,
0.0060561257,
0.00064795,
0.17760882,
0.24425153,
0.1335986,
-0.012691134,
0.08635816,
0.011606043,
0.029948087,
0.16795434,
0.20968464,
0.43033445,
0.0836129,
0.11722187,
-0.07008774,
-0.08643195,
-0.18599653,
-0.26903507,
-0.3003695,
-0.39272556,
-0.29602674,
-0.1175552,
0.08913482,
0.20640159,
0.13518597,
0.14724706,
0.2671976,
0.15394829,
0.10583476,
-0.040201556,
0.14094533,
0.34168518,
0.18259539,
0.090792075,
0.1908961,
0.12295224,
-0.0027111003,
0.0729972,
0.19576137,
0.4652529,
0.24217914,
0.09699648,
0.023451418,
-0.04356941,
0.06408854,
-0.23543349,
-0.44101882,
-0.21014619,
-0.07132456,
0.1562591,
0.13231188,
0.15713204,
0.029047225,
0.10036246,
0.098635346,
0.016281595,
-0.05332737,
0.09467757,
0.08516905,
0.035782278,
0.010338198,
0.07290419,
0.1351654,
0.23088928,
0.40412,
0.43965834,
0.47176534,
0.8460601,
0.11599482,
0.04838036,
0.1306164,
0.13209097,
0.35767677,
0.040150225,
-0.30462387,
-0.17300339,
-0.027724372,
0.22204328,
0.077749215,
0.026881585,
0.008141291,
0.16835195,
0.018555181,
0.07268933,
-0.03182536,
0.019977957,
0.035730142,
-0.111009695,
-0.026936734,
0.019926853,
0.019734878,
0.2457881,
0.45137423,
0.77259666,
1.0677309,
0.61656255,
0.2032865,
0.05055333,
0.025212547,
0.39516217,
0.32068956,
0.0060977275,
-0.14626959,
-0.15066184,
0.038451828,
0.084393695,
-0.025962457,
0.13855831,
0.22436826,
0.22870271,
0.31034175,
0.24433383,
0.018881861,
-0.1826276,
-0.017282102,
-0.15865333,
-0.017271208,
0.06798981,
0.17534734,
0.329179,
0.48231807,
1.0247756,
1.0016261,
0.5870072,
0.38131148,
-0.020581223,
0.17731485,
0.3716467,
0.06494863,
-0.060639843,
-0.18330625,
0.062705696,
-0.051564347,
-0.15426612,
0.11635883,
0.227572,
0.17889315,
0.4461357,
0.44865087,
0.2399676,
-0.1611507,
-0.442606,
-0.16730617,
-0.06944883,
-0.06825873,
0.11774203,
0.10535469,
0.4015286,
0.54496443,
0.9063676,
0.9107236,
0.43137816,
0.13033348,
0.122320585,
0.1667033,
0.27386802,
0.32252523,
-0.2848933,
0.024195086,
0.11005978,
0.041237026,
0.11164806,
0.30743673,
0.41677782,
0.45596007,
0.2474492,
0.21479347,
0.12404791,
-0.2962634,
-0.42449,
-0.23432992,
-0.117731854,
-0.10363986,
-0.07800713,
0.011725527,
0.16745645,
0.4028699,
0.7471516,
0.68698984,
-0.17900504,
-0.037368346,
-0.016921563,
0.17654416,
0.28903353,
0.45507875,
0.08279522,
0.065304905,
0.238363,
0.14834452,
0.406803,
0.46609098,
0.5064004,
0.24574634,
0.004655397,
-0.069879726,
-0.15750727,
-0.559635,
-0.41681698,
-0.20494089,
-0.27168533,
-0.20739405,
-0.3133765,
-0.18774767,
0.18506865,
0.25552496,
0.61879575,
0.5362157,
-0.039013904,
0.08259498,
-0.18969531,
-0.0035880683,
0.33101073,
0.7576062,
0.52956027,
0.41947946,
0.19152512,
0.21996668,
0.22830252,
0.23659149,
-0.019771636,
-0.07955791,
-0.070995145,
-0.23377919,
-0.37177613,
-0.67716986,
-0.4816062,
-0.34548825,
-0.27644598,
-0.2998224,
-0.07699038,
-0.020294502,
0.3571116,
0.41182345,
0.39374593,
0.1368945,
-0.021102276,
0.2069119,
-0.078062065,
-0.0015923951,
0.2537397,
0.5827985,
0.55287164,
0.2930334,
0.17635782,
-0.022507375,
-0.004059425,
-0.12245948,
-0.13737746,
-0.18468839,
0.009654032,
-0.21269034,
-0.54325134,
-0.6580535,
-0.39794868,
-0.30553702,
-0.251085,
-0.16259637,
0.012464277,
0.25573522,
0.16873355,
0.22474392,
0.3332648,
0.46500698,
0.37050706,
0.20531833,
0.11496634,
0.16098623,
-0.036343947,
0.27434894,
0.12515275,
0.19268887,
0.21799731,
0.03903105,
-0.07106809,
-0.09236253,
-0.13915536,
-0.08295902,
-0.043144662,
-0.32310548,
-0.38663054,
-0.52668446,
-0.33087656,
-0.19148447,
-0.12627424,
-0.0439289,
0.11882237,
0.16182542,
-0.060354732,
-0.028749706,
0.15641664,
0.43581402,
0.54253113,
0.31574422,
0.16101542,
0.12049475,
-0.25187021,
-0.4079641,
-0.14035322,
0.19384141,
0.44672486,
0.4488165,
0.37070486,
0.1509096,
-0.039432164,
-0.11377456,
-0.32550618,
-0.38981426,
-0.46515948,
-0.37884802,
-0.27181566,
-0.051564615,
0.0016069863,
0.13096814,
0.15785368,
0.13356319,
0.029220855,
-0.20052075,
-0.16386108,
0.19405156,
0.51696897,
0.11019937,
0.12943791,
0.056391843,
-0.21261722,
-0.364573,
0.009747436,
0.20729409,
0.4605147,
0.7928381,
0.7297304,
0.7411788,
0.48538882,
0.23600623,
-0.06181789,
-0.07711814,
-0.11095318,
-0.30402225,
0.06815605,
0.1488914,
0.20518094,
0.20553769,
0.075526714,
0.13557759,
0.018575942,
-0.16292596,
-0.020379433,
0.2693526,
0.5800263,
0.09824892,
0.11612868,
0.02620551,
-0.23742345,
-0.07808999,
-0.33699837,
-0.011121496,
0.54766726,
0.5970112,
0.89989537,
1.0766853,
1.0674326,
0.85188454,
0.7901349,
0.6548737,
0.2602029,
-0.009679449,
0.23347732,
0.22480734,
0.2945213,
0.30119795,
0.106536426,
0.14266205,
0.048963346,
-0.09120368,
0.19768313,
0.5428184,
0.6622989,
0.06426049,
0.16480757,
0.08070619,
-0.19353911,
-0.14170574,
-0.6832708,
0.07902525,
0.42883068,
0.3438284,
0.70209867,
0.7808445,
1.0008243,
0.9891206,
0.9859873,
0.792776,
0.5031382,
0.18603972,
0.18790999,
0.18380606,
0.1503936,
0.14525004,
0.06497622,
0.08246004,
-0.15172417,
-0.07371619,
0.30534586,
0.59644747,
0.4916967,
0.06656812,
-0.17378084,
-0.05676612,
0.16886114,
-0.16490817,
-0.6582963,
-0.056430485,
0.17083779,
0.09552133,
0.06281071,
0.1159253,
0.21825239,
0.49155083,
0.52722496,
0.7106795,
0.29434583,
0.14114594,
0.1538886,
-0.009131479,
-0.011034516,
-0.0064080637,
-0.022021133,
-0.053089526,
-0.14851521,
0.1666152,
0.25483838,
0.6110488,
0.13690655,
0.014174411,
-0.16669235,
-0.030454237,
-0.0033135868,
-0.0033226437,
-0.4724298,
-0.030439662,
-0.018954705,
-0.08631891,
-0.1451817,
-0.20142142,
-0.06631517,
-0.07589112,
0.08893064,
0.28294998,
0.32542768,
0.13686801,
0.007186159,
-0.12382997,
-0.110981666,
-0.1898316,
-0.020280715,
-0.022720197,
-0.020831613,
0.15420073,
0.26808277,
0.4241898,
0.24759348,
-0.024818199,
-0.041361485,
-0.0422033,
-0.16366145,
-0.17399128,
-0.3668117,
-0.30632085,
-0.35637453,
-0.28861362,
-0.19315909,
-0.22108918,
-0.10896902,
-0.24855232,
0.024173398,
0.25746885,
0.2518887,
0.18557185,
0.00137543,
-0.10816789,
0.011206831,
-0.040112827,
0.008265619,
0.08961799,
0.17038235,
0.26294827,
0.36631465,
0.29477963,
0.2145092,
0.017556222,
0.051096134,
-0.050877947,
-0.017822482,
-0.07770892,
-0.4262773,
-0.29707575,
-0.5256422,
-0.35847855,
-0.29485932,
-0.060831502,
-0.0054212026,
-0.061283432,
0.06907728,
0.3259013,
0.3244159,
0.24709679,
0.189868,
0.039224073,
-0.1188133,
-0.17466572,
-0.13666084,
0.008459617,
0.1485069,
0.30180278,
0.31272435,
0.46721599,
0.26269975,
-0.28996605,
0.044198766,
0.030645125,
0.041881606,
-0.13605437,
-0.2892028,
-0.53171635,
-0.6552234,
-0.38246867,
-0.33704737,
-0.15207146,
-0.0042905584,
-0.07267994,
0.05583219,
0.15169717,
0.19449522,
0.2539852,
0.13166167,
0.1265408,
-0.071610466,
-0.13931583,
-0.134033,
0.110742375,
0.28836223,
0.35097665,
0.28145275,
0.2071578,
-0.08919223,
-0.3750061,
0.0030737966,
-0.07502854,
0.024248935,
-0.122590095,
-0.16015054,
-0.20699587,
-0.43957725,
-0.42954612,
-0.25405374,
-0.032772247,
-0.049432304,
-0.05086909,
0.037979983,
0.18878473,
0.10783108,
0.1256817,
0.24443288,
0.1497434,
-0.075165816,
0.07321786,
0.1308279,
0.11036512,
-0.1989115,
-0.021737011,
-0.07839201,
0.18932319,
-0.122212924,
-0.20581582,
-0.019042544,
0.06891875,
-0.03409062,
-0.22345197,
0.27578473,
-0.03240788,
-0.17581773,
-0.17334107,
-0.11738868,
-0.15811236,
-0.1174416,
-0.11260016,
0.0016075188,
-0.15317623,
-0.205012,
0.028238952,
0.2794593,
0.38534313,
0.33170342,
0.1800191,
0.1679928,
-0.19527297,
-0.39813355,
-0.4391009,
-0.25934485,
-0.092345536,
-0.23610947,
-0.036287762,
0.07961398,
0.020910665,
0.0024382025,
0.03866437,
0.04748568,
-0.22905625,
-0.039323714,
0.0066443463,
0.11282576,
0.026033549,
-0.058522444,
0.017917227,
0.4195785,
0.23211746,
0.24816617,
0.276509,
0.2828631,
0.18604065,
0.120752394,
0.09656389,
0.14315553,
-0.1356348,
-0.024204003,
-0.13655753,
-0.10401759,
0.007652272,
0.0429576,
0.026127666,
0.011771478,
-0.06668228,
-0.020315059,
-0.062411703,
-0.04770176,
0.11962883,
0.1602833,
0.16399759,
0.2622165,
0.28337592,
0.016621536,
0.26226944,
0.20823687,
0.17079602,
0.4616818,
0.009532548,
0.11560524,
0.36295724,
0.60737205,
0.28255725,
0.36957547,
0.1831017,
0.13195784,
0.10689196,
0.16776195,
0.068227634,
0.033841647,
-0.05543666,
0.014687337,
-0.06512605,
-0.028093323,
0.013494194,
-0.0004106611,
-0.07901259,
-0.010879457,
0.036025323,
-0.017198585,
-0.00088392943,
-0.013448909,
-0.022112668,
-0.0409125,
-0.13221179,
-0.22014615,
-0.07109391,
0.04504729,
0.05553463,
-0.00078894943,
0.011771783,
0.049019247,
-0.030244458,
0.03593625,
-0.0030321255,
0.006707862,
-0.04188137,
0.059533983,
0.059923723,
0.05789569,
-0.033626173,
-0.060980618,
-0.023677759,
0.01053974,
0.052511524,
-0.010718993,
-0.28165904,
-0.33167988,
-0.24698533,
-0.22122142,
-0.24313524,
-0.09437841,
-0.10548342,
0.0071427785,
-0.00013398138,
-0.31532034,
-0.22162616,
-0.22686775,
-0.16612664,
-0.4041857,
-0.29156712,
-0.3818005,
-0.29888275,
-0.1381011,
0.009526908,
-0.018208258,
0.0821621,
0.032723576,
0.019817762,
-0.071486145,
-0.13637234,
-0.19296208,
-0.22955473,
-0.14284681,
-0.30208087,
-0.5503844,
-0.580802,
-0.6875353,
-0.74990064,
-0.81117845,
-0.8316112,
-0.7133321,
-0.67043227,
-0.76679415,
-0.7901852,
-0.5887863,
-0.47394606,
-0.37078485,
-0.38371706,
-0.41556066,
-0.2700994,
-0.31783903,
-0.39816716,
-0.2949464,
0.0071495622,
-0.083563,
0.043854088,
-0.045080148,
-0.06606384,
-0.25369206,
-0.021347756,
0.124677815,
-0.15520224,
-0.2870063,
-0.531932,
-0.50333667,
-0.23230308,
-0.19464065,
-0.19026512,
-0.23084155,
-0.17107667,
-0.110891856,
-0.35378936,
-0.18764222,
-0.23569524,
-0.2760948,
-0.19123851,
-0.20784138,
0.023329394,
0.15010546,
0.17831033,
-0.09171385,
0.03520145,
0.010311604,
-0.03164802,
-0.0561884,
0.12622629,
-0.07369907,
0.11183322,
0.15030079,
-0.084647976,
-0.16405809,
-0.19819759,
-0.19062631,
-0.17690757,
-0.05942387,
-0.17192176,
-0.0065204753,
-0.03071425,
0.08401709,
0.07418291,
0.16751017,
0.117745444,
0.12699324,
0.014245088,
0.13511655,
0.3751813,
0.5724881,
0.5272146,
0.19833095,
0.07497906,
0.034119926,
0.043343946,
0.0066688657,
-0.2831862,
0.045565013,
0.021636037,
0.049107905,
-0.051719256,
-0.051175687,
-0.21571954,
-0.040133934,
-0.22437315,
-0.10579737,
-0.28497025,
-0.0790273,
-0.017380642,
0.17989226,
0.072861806,
-0.0145294005,
0.018867819,
0.26531225,
0.21323775,
0.41562748,
0.48116294,
0.5430454,
0.5924805,
0.31225812,
0.16978247,
-0.0700115,
-0.05766954,
0.06308748,
-0.11593449,
0.046531744,
0.13681842,
0.039963584,
-0.14016797,
-0.17525557,
-0.0119724795,
-0.124939024,
-0.13497034,
-0.13178755,
-0.033623476,
-0.1176133,
-0.2288621,
-0.2362899,
-0.23590602,
-0.2453286,
-0.21964389,
0.079242095,
0.15269223,
0.24692991,
0.53121465,
0.91419494,
0.9949302,
0.78747135,
0.36958903,
0.26835868,
0.019948104,
0.2911437,
-0.3089341,
-0.06703321,
-0.058137532,
0.07529546,
-0.1058872,
0.062176406,
-0.06053449,
-0.044744514,
0.03560329,
-0.14983672,
-0.11894467,
-0.16349253,
-0.37451228,
-0.31639996,
-0.21775614,
-0.21668676,
-0.12444633,
-0.0047490485,
0.15299107,
0.13626657,
0.34451246,
0.8721301,
1.0704904,
1.0375537,
0.62085557,
0.33274657,
0.08657006,
-0.27272335,
-0.47886252,
0.053121746,
-0.11502494,
0.04957378,
0.055639576,
0.10152189,
-0.025815092,
-0.046835512,
-0.13679247,
-0.17335425,
-0.16315521,
-0.19839084,
-0.46515733,
-0.44498414,
-0.14217244,
0.0054915124,
0.1325338,
0.08784674,
0.24207725,
0.22199835,
0.19958821,
0.4769838,
1.2385483,
1.1764641,
0.6862502,
0.22091477,
-0.017288636,
-0.36956123,
-0.24135478,
-0.040057044,
-0.02202957,
0.008837324,
0.012649582,
0.0005575429,
-0.073774986,
-0.04473191,
-0.21081442,
-0.24043585,
-0.21062022,
-0.29399195,
-0.5410105,
-0.38754016,
0.0039961603,
0.14368175,
0.096805744,
0.13848999,
0.29818758,
0.2509875,
0.18125352,
0.511086,
0.94385433,
1.0310999,
0.35841835,
-0.12293611,
-0.04696181,
-0.36646754,
-0.16642419,
-0.09187549,
0.1959095,
-0.13470659,
-0.10260152,
-0.053676505,
-0.109872095,
-0.14254524,
-0.09660837,
0.03152343,
0.16157027,
0.02866949,
-0.20360975,
0.04288192,
0.20903242,
0.10066999,
0.004306495,
-0.059768166,
-0.003914264,
0.15467638,
0.08098373,
0.19734254,
0.65519875,
0.7068872,
0.32494012,
0.07214472,
-0.10549643,
-0.19841047,
-0.09786849,
0.10259178,
0.11721505,
-0.04210354,
-0.010936617,
0.11644075,
0.026902717,
0.22560911,
0.27167708,
0.4221787,
0.60682946,
0.7677175,
0.6340815,
0.22259508,
0.17668737,
0.116087355,
-0.21651997,
-0.2333161,
-0.32684618,
-0.24902253,
-0.24180754,
0.033168454,
0.3920363,
0.4969029,
0.5432096,
0.24987884,
-0.10850345,
0.010440736,
-0.14856116,
0.035583112,
0.042287033,
0.08624194,
0.27199665,
0.23505528,
0.3648954,
0.5163894,
0.60990995,
0.6999268,
0.90079826,
0.91203725,
0.4209007,
0.096687414,
0.035933156,
-0.011240473,
-0.19359732,
-0.2824577,
-0.2290701,
-0.24447547,
-0.16148655,
-0.1221553,
0.047377698,
0.13575085,
0.1861719,
-0.2062768,
-0.032509528,
0.20591381,
-0.18210912,
-0.06179368,
0.086213656,
0.32666716,
0.2613134,
0.3169591,
0.44394487,
0.36346143,
0.35813552,
0.52905744,
0.5760788,
0.25456598,
-0.06948366,
-0.13970713,
-0.046306644,
-0.0826821,
-0.14892556,
-0.21485163,
-0.09317546,
-0.12768526,
0.033932135,
-0.13162905,
-0.25558096,
-0.272945,
-0.16938397,
-0.2814578,
0.115940824,
0.21387482,
0.091150165,
-0.04507621,
0.3863873,
0.4321646,
0.20538828,
0.2477598,
0.17525542,
0.2691042,
0.15904671,
0.26380378,
0.22356008,
-0.03411664,
-0.22136451,
-0.20136347,
-0.06388818,
-0.019633226,
-0.14237377,
-0.00072901766,
-0.12487507,
-0.1466798,
-0.14726448,
-0.10792318,
-0.1552221,
-0.5233745,
-0.54580796,
-0.2930528,
0.06905748,
0.17264713,
0.35909426,
-0.058794476,
0.13829316,
0.29329458,
-0.009285319,
0.07886834,
0.07725321,
0.11026686,
0.07331315,
-0.008153098,
0.06522257,
-0.04022363,
-0.1986202,
-0.15630917,
-0.08628767,
-0.0075381384,
-0.020062111,
0.05528867,
0.008150246,
-0.07397386,
-0.075305976,
0.0106039485,
-0.27578396,
-0.51418424,
-0.34332806,
-0.30584887,
-0.023783114,
0.24894731,
0.19723164,
0.0070683747,
-0.05188256,
-0.007878364,
0.0021101339,
-0.02247334,
0.089101456,
0.1290431,
-0.050712675,
-0.2276453,
-0.06840176,
-0.0634954,
-0.11480551,
-0.0070322747,
-0.031440414,
0.027926499,
0.14662398,
0.16138238,
0.24307132,
0.14247775,
0.07785076,
0.19655305,
-0.23405692,
-0.78720266,
-0.33787376,
-0.24384615,
-0.07339816,
0.13105182,
0.00478296,
0.05250841,
-0.025215257,
-0.0628625,
-0.056971338,
-0.021300102,
0.05602994,
0.13358021,
-0.07825508,
-0.13520753,
-0.2610595,
-0.2171525,
-0.14120144,
-0.03614922,
0.14192386,
0.0639887,
0.0798161,
0.24208537,
0.20756459,
0.19119363,
0.16259289,
0.24775426,
-0.2800349,
-0.84753823,
-0.3776337,
-0.33433762,
-0.23323849,
0.08804621,
0.34426585,
0.14281367,
-0.1793284,
-0.039949514,
-0.024681132,
0.14737245,
0.22921002,
0.17973116,
-0.1713397,
-0.25557286,
-0.3881454,
-0.32560048,
-0.18108575,
-0.11080158,
-0.011249899,
0.043098517,
0.007544758,
0.072008036,
0.1817453,
0.13274206,
0.06422807,
-0.14323144,
-0.4345703,
-0.7503056,
-0.43027684,
-0.21277507,
0.022087293,
0.22801757,
0.59636974,
0.16351035,
-0.11268198,
-0.037374306,
0.014373756,
0.0801521,
0.15318678,
0.08534289,
-0.097249694,
-0.40066144,
-0.5175245,
-0.36745366,
-0.24985728,
-0.058285505,
0.033931345,
0.016650576,
0.091469906,
0.14017133,
0.20163785,
0.3211589,
0.053345844,
-0.042675808,
-0.38542062,
-0.713161,
-0.49236,
-0.12236469,
0.077492595,
0.18140112,
0.38813263,
-0.012473216,
-0.18074197,
-0.01463119,
0.092299834,
0.19092828,
0.13252732,
0.09342156,
-0.13136111,
-0.3315198,
-0.2450198,
-0.23030181,
-0.12952213,
-0.077258974,
0.16620257,
0.26728892,
0.22451204,
0.11802849,
0.28465092,
0.13233386,
0.06721444,
-0.1635238,
-0.5254532,
-0.6550686,
-0.2454075,
-0.027092332,
0.025507182,
0.19982027,
0.19437866,
0.04969086,
-0.14468619,
0.040824402,
0.2709594,
0.21082184,
0.070575304,
0.0006006152,
-0.023377554,
0.028833417,
-0.043793272,
-0.070916235,
-0.06436731,
0.13780987,
0.21874186,
0.26527762,
0.12961765,
0.064770505,
0.08620858,
0.034762513,
-0.099577956,
-0.23748717,
-0.51624274,
-0.6395507,
-0.21878885,
-0.05289655,
0.07455232,
0.10506819,
0.3018032,
0.21513578,
-0.3261254,
-0.20858938,
0.1273788,
0.062348876,
-0.15953979,
-0.13742235,
0.17774452,
0.3661309,
0.3508591,
0.4071285,
0.33132607,
0.2403928,
0.16528134,
0.17499964,
0.04830254,
0.0039086468,
-0.042709827,
-0.0448164,
-0.12540318,
-0.19124082,
-0.31013653,
-0.30756104,
0.08519292,
0.023877174,
0.044670373,
0.04385279,
0.2854002,
0.54008776,
-0.25766772,
-0.2877962,
-0.08541252,
0.013531794,
0.070946485,
0.09699587,
0.32727808,
0.37180358,
0.37441328,
0.48938653,
0.34304547,
0.2975494,
0.15442833,
0.11541595,
0.15782224,
-0.032680888,
0.05772636,
-0.012380267,
-0.20963885,
-0.072140805,
-0.18834335,
-0.33949566,
-0.027601978,
-0.07209527,
-0.061357725,
0.07928039,
0.16700771,
0.6745588,
-0.024838397,
-0.372074,
-0.03571927,
-0.037792873,
0.05609859,
0.26381046,
0.3027986,
0.33333474,
0.1706508,
0.16460182,
0.22322768,
0.09041985,
0.082665876,
-0.123854786,
0.021707749,
-0.029880373,
-0.022912353,
-0.10825086,
0.08134293,
0.015907014,
-0.18404296,
-0.20400867,
-0.15404268,
-0.054549843,
0.047034472,
-0.08138531,
0.16642177,
0.14516364,
-0.17712633,
-0.6724671,
-0.3429872,
-0.35385844,
-0.6958124,
-0.60050213,
-0.4279304,
-0.5124674,
-0.6728307,
-0.5583163,
-0.3114932,
-0.43874997,
-0.37146097,
-0.41334015,
-0.47287533,
-0.496175,
-0.45096838,
-0.60161906,
-0.00998557,
0.36684757,
0.22757919,
-0.13236667,
-0.098473705,
0.08221398,
-0.058026828,
0.023053579,
0.06952274,
-0.0821047,
-0.38309768,
-0.5966211,
-0.83624977,
-0.77828586,
-1.0860959,
-1.306175,
-1.199272,
-1.15766,
-1.0569229,
-1.1377313,
-1.3104162,
-0.9298087,
-0.9279897,
-0.8146444,
-0.7489778,
-0.9028422,
-0.6371313,
-0.44018123,
-0.45783558,
-0.15932421,
0.017924042,
-0.0042395564,
0.06291312,
0.054571778,
0.002437681,
-0.038401913,
-0.0022423938,
0.0864622,
-0.06107198,
-0.08839621,
-0.31208125,
-0.44269684,
-0.5547134,
-0.528412,
-0.5989298,
-0.26958612,
-0.5357484,
-0.63216734,
-0.866855,
-0.62178445,
-0.6496783,
-0.7870805,
-0.72313756,
-0.5707526,
-0.37189028,
-0.3739036,
-0.35580295,
-0.14672439,
0.0089775175,
-0.036835063,
-0.08012655,
0.013184041,
-0.022132471,
-0.034994304,
-0.07668163,
-0.038234375,
-0.06836263,
0.08193107,
0.05918184,
0.048363224,
-0.01964651,
-0.0075822324,
0.0006259978,
0.0501934,
-0.22619684,
-0.120216705,
0.14018294,
0.0905516,
-0.0068328455,
-0.08608775,
0.008748181,
-0.0062546283,
0.011213638,
-0.0020148382,
-0.059157655,
0.03335505,
-0.08237227,
0.025784895,
-0.053897418,
-0.015217282,
0.013217881,
-0.056808986,
-0.043994743,
0.04533632,
-0.038083397,
-0.07371814,
-0.18878227,
-0.30291587,
-0.29307854,
-0.2657328,
-0.36029008,
-0.31880033,
-0.57303023,
-0.26785517,
-0.062399477,
0.23171753,
0.38492972,
0.27685663,
-0.16742595,
-0.3687802,
-0.22164364,
-0.2619259,
-0.12881437,
-0.20663469,
-0.073118486,
-0.07170491,
0.04476574,
-0.013352856,
-0.08151031,
0.03614907,
0.041147187,
0.03471191,
-0.15172574,
-0.25664136,
-0.38862404,
-0.37062705,
-0.451124,
-0.19987091,
-0.29703552,
-0.20529346,
0.0054844962,
-0.04086049,
-0.097515754,
0.13961758,
0.22201182,
0.18372051,
-0.026353579,
-0.28285432,
-0.32802638,
-0.45997897,
-0.62460476,
-0.35948697,
0.047401648,
0.16726102,
0.03266544,
0.0053184032,
0.038947016,
-0.04126729,
0.011313836,
0.081969924,
-0.17440622,
-0.09575806,
-0.15269628,
-0.14197524,
0.035962798,
-0.026005039,
0.106551096,
0.0792004,
0.25130567,
0.10485594,
-0.061031327,
0.14312837,
-0.018180782,
-0.116188794,
-0.081661426,
-0.3762714,
-0.3734107,
-0.46430188,
-0.45187655,
-0.578591,
-0.4512651,
-0.12594667,
-0.23812364,
0.011990033,
-0.03976214,
0.04340992,
0.15259859,
0.07791054,
-0.03985606,
0.26470888,
0.32393625,
0.25221524,
0.17424893,
0.23377809,
0.22751237,
0.29245368,
0.2418194,
0.18542196,
0.2696657,
0.065458,
0.16655056,
-0.006268704,
-0.08404388,
-0.11877267,
-0.28421563,
-0.3968178,
-0.37882116,
-0.6721587,
-0.17132515,
-0.07097528,
0.14728272,
0.016929232,
-0.008639291,
0.03842619,
0.20003194,
0.22917092,
0.27540043,
0.32443446,
0.2727795,
0.23128384,
0.15622124,
0.12683715,
0.052770324,
0.22497743,
0.23132162,
0.06796259,
0.060798194,
0.116645955,
0.115955345,
0.23374893,
0.056359988,
-0.017957147,
0.11549428,
0.075661466,
-0.054558076,
-0.1442432,
-0.26510537,
0.17584532,
0.12060967,
-0.11176021,
0.031746946,
0.15598458,
-0.14077565,
0.14745905,
0.21993001,
0.0493778,
0.03400041,
-0.079031475,
0.022276442,
0.11991507,
0.076636955,
0.12816143,
0.21954721,
0.16233619,
0.058669217,
0.2755413,
0.21187538,
0.07389407,
0.04786585,
0.22427033,
0.17890362,
0.1816203,
-0.017570276,
0.092253126,
0.17200455,
0.2190567,
0.14779867,
0.124912195,
-0.11127517,
-0.0650952,
-0.052718222,
-0.021419227,
0.20586373,
0.027454913,
-0.116576396,
-0.16063966,
0.0070628887,
-0.10046282,
0.084383905,
0.041073512,
0.075662434,
0.16972843,
0.098659806,
0.1591452,
0.14831795,
-0.0152574405,
0.05841444,
0.12187636,
0.16328457,
0.17807366,
0.111939244,
0.06900649,
0.03670146,
0.32134444,
0.120484345,
0.23484598,
-0.087188706,
-0.097323775,
-0.20097008,
-0.21103898,
0.23510279,
0.008345457,
-0.0011189184,
0.08845923,
-0.064783216,
-0.06193797,
-0.036696315,
0.010861995,
-0.032929532,
0.123885445,
0.15083858,
0.13589627,
-0.073933974,
0.032662984,
-0.052605454,
0.08509067,
-0.02299348,
0.0020713191,
0.19446325,
0.21964921,
0.22422859,
0.2621569,
0.32115093,
0.18915406,
-0.11999603,
-0.29203272,
-0.25115976,
-0.2196832,
0.08816161,
0.13787828,
0.20827577,
0.09283672,
0.0011244181,
-0.06897539,
-0.06158946,
-0.07608259,
-0.09361493,
-0.072536066,
-0.13764216,
-0.038467348,
-0.09665482,
-0.023634175,
-0.16539904,
-0.098425336,
-0.118771695,
-0.08178328,
0.0763435,
-0.04089983,
-0.098277085,
0.21480782,
0.16745457,
-0.12890892,
-0.07876695,
-0.47714618,
-0.31761122,
0.02924424,
0.09052583,
0.17783043,
0.18134712,
-0.024686713,
-0.021201847,
-0.05879468,
-0.1026402,
-0.1109617,
-0.24072802,
-0.36794028,
-0.032366566,
0.075530104,
-0.21560897,
-0.23842101,
-0.1024282,
-0.11647535,
-0.21099417,
-0.042626012,
0.028257424,
0.009440011,
-0.023106674,
-0.022893239,
0.06413624,
0.034266695,
-0.2199563,
-0.26792052,
-0.5061587,
0.017779062,
0.08307143,
0.2551989,
-0.07368578,
-0.24118024,
-0.2425678,
-0.19929707,
-0.3291905,
-0.3099013,
-0.38136312,
-0.22788735,
0.29051676,
0.1789236,
-0.1431127,
-0.18449485,
-0.1400509,
0.12155586,
-0.11597518,
-0.24963003,
-0.0776142,
-0.1552847,
0.13840945,
0.3278306,
0.22150996,
0.20876591,
-0.20521148,
-0.20710626,
-0.3740409,
0.09707515,
0.10805986,
-0.08604501,
-0.46784928,
-0.4033817,
-0.2756304,
-0.2930749,
-0.075248964,
-0.29533985,
-0.3409727,
0.103842214,
0.4668357,
0.23192555,
-0.10387726,
-0.11798348,
0.079851076,
0.22513835,
0.017969329,
-0.13575768,
-0.46211192,
-0.65311265,
-0.2733853,
0.10504984,
0.29731882,
-0.012243974,
-0.013057329,
-0.18336569,
-0.31810197,
-0.044558655,
-0.26307806,
-0.5054219,
-0.6730514,
-0.47027934,
-0.21817358,
-0.05899925,
-0.2381005,
-0.20882212,
-0.04110966,
0.5035062,
0.539559,
0.08067697,
-0.035624675,
0.008440067,
0.17931867,
0.116762646,
-0.053018816,
-0.35724694,
-0.67317075,
-0.7753716,
-0.75482655,
-0.20275414,
0.43158418,
0.1802274,
0.07303277,
-0.11371955,
-0.37899673,
-0.07425395,
-0.40192828,
-0.7276946,
-0.6963281,
-0.62379754,
-0.29899332,
-0.07891778,
-0.07992145,
-0.11145598,
0.23625273,
0.41439703,
0.53362155,
0.18588443,
0.047009673,
0.038586102,
0.15120439,
-0.049515333,
-0.37233537,
-0.59318775,
-0.75500685,
-0.84259254,
-0.76437104,
-0.16350603,
0.6838504,
0.16994093,
0.014559015,
-0.11386299,
0.25031424,
0.27974105,
-0.05095248,
-0.57272017,
-0.3709944,
-0.41561976,
-0.17677505,
-0.19818194,
-0.22607988,
-0.14757295,
0.14680314,
0.46835166,
0.427468,
0.22758123,
-0.0040511866,
-0.23212765,
-0.09785933,
-0.12677303,
-0.41265202,
-0.5255565,
-0.49191678,
-0.5858943,
-0.27485868,
0.36637422,
0.6753051,
0.32540467,
-0.10844968,
0.052832004,
0.3456022,
0.5681287,
0.29791656,
-0.09520118,
-0.07550335,
-0.29199874,
-0.3708178,
-0.29441008,
-0.37517682,
-0.3244282,
0.22141917,
0.5158514,
0.3858309,
0.20673396,
-0.06933417,
-0.19691421,
-0.20599225,
-0.08670326,
-0.17798133,
-0.058354437,
-0.0014694198,
0.07576478,
0.28202552,
0.5875458,
0.893937,
0.2980353,
0.07484448,
0.1681049,
0.26611403,
0.76102173,
0.61544234,
0.23204465,
-0.04664146,
-0.32618508,
-0.27773932,
-0.2604797,
-0.39486876,
-0.40390217,
0.076823264,
0.21861807,
0.17445275,
-0.05610432,
-0.058503706,
-0.05513391,
-0.036397807,
0.027963022,
0.08498014,
0.17051895,
0.22646159,
0.2970795,
0.5944871,
0.5668018,
0.7112328,
0.37603512,
-0.13057788,
0.118419245,
0.13335784,
0.6658143,
0.52305996,
0.51274514,
0.20929632,
-0.0466744,
-0.12274042,
-0.21745016,
-0.3347002,
-0.24483787,
0.029360425,
0.1792798,
0.049001638,
0.01467796,
-0.05545204,
0.053466834,
0.11363745,
0.15530194,
0.23120447,
0.2684087,
0.31162426,
0.54919595,
0.6857599,
0.63673985,
0.40113786,
0.22808877,
-0.016614769,
-0.2693604,
-0.00740729,
0.29794532,
0.2966871,
0.48745993,
0.21413374,
0.14179668,
0.17056347,
0.09417376,
0.04016454,
-0.22351457,
-0.13544834,
-0.006856262,
-0.01728815,
0.053949833,
0.17160395,
0.21988194,
0.14602558,
0.1689968,
0.13377647,
0.1485893,
0.25929445,
0.37419307,
0.43332922,
0.5446623,
0.3197994,
0.17713796,
0.03375276,
-0.17898056,
-0.017711451,
0.332133,
0.20043433,
0.4761109,
0.48659614,
0.4055572,
0.3662522,
0.21842949,
0.13851649,
0.014819243,
-0.18313906,
-0.22010426,
-0.13879004,
-0.0024833605,
0.057182357,
0.17832382,
0.19415238,
0.24533245,
0.29899347,
0.27548337,
0.33587962,
0.5325551,
0.305496,
0.28341335,
0.132997,
-0.052525662,
-0.026502218,
0.018911935,
0.3165241,
0.414208,
0.26292583,
0.29886898,
0.5302715,
0.35057193,
0.39184213,
0.29847842,
0.2215269,
-0.032909524,
-0.2637248,
-0.12825006,
-0.041264735,
-0.07519226,
-0.050802667,
0.096623495,
0.22764091,
0.23037572,
0.20565908,
0.29660454,
0.2358673,
0.46742138,
0.24103706,
0.49284908,
0.025213147,
0.027612314,
0.09724556,
0.11183576,
0.36675042,
0.6077764,
0.42939636,
0.1307178,
0.332647,
0.41005597,
0.16340384,
0.24660891,
0.07960651,
0.0153543865,
-0.09682366,
0.025929492,
0.02789169,
-0.1375214,
-0.10445025,
-0.010434415,
0.20622091,
0.25287327,
0.25530952,
0.14044176,
0.12358615,
0.33075857,
0.2586621,
0.2934482,
-0.09396247,
-0.090772316,
0.03488522,
0.036846377,
0.2868908,
0.4417306,
0.3329599,
0.063005984,
0.003096672,
0.025797475,
0.09013923,
0.07959945,
0.03245497,
0.11338873,
0.11081801,
0.1621405,
-0.024300309,
0.041705675,
0.072055615,
0.06661261,
0.20291954,
0.30971986,
0.2863446,
0.16607122,
0.12363947,
0.23522408,
0.29238635,
0.28450266,
0.18475096,
0.07202859,
0.013701104,
-0.014341265,
0.042801738,
0.0940487,
-0.08759975,
-0.29562277,
-0.10127931,
-0.17264427,
0.095257804,
-0.029529938,
-0.07499032,
0.08212799,
0.044393506,
0.12929529,
0.14488693,
0.10073015,
0.05250117,
0.034233246,
0.11188474,
0.1316953,
0.064220466,
0.10336313,
0.08939571,
0.19775712,
0.2960217,
0.28765753,
0.16393757,
0.03867896,
-0.026017364,
-0.037676662,
0.22771591,
-0.09523816,
-0.12978545,
-0.41099268,
-0.2698504,
-0.20415972,
-0.09393363,
-0.0035026604,
0.041496523,
-0.17148875,
-0.043529883,
-0.06508849,
-0.053659905,
-0.025682915,
-0.025664987,
0.0012360204,
0.02260774,
0.005873149,
-0.11299516,
-0.22736119,
-0.14183356,
-0.1732811,
0.10323991,
0.038551763,
0.18704675,
-0.03195441,
0.045145318,
0.057883814,
0.0022343844,
-0.11799262,
-0.36161175,
-0.48659915,
-0.5110298,
-0.22629823,
-0.20469637,
-0.30286977,
-0.25972718,
-0.38902417,
-0.47177735,
-0.40418452,
-0.53469956,
-0.6967718,
-0.3433412,
-0.22054736,
-0.2478278,
-0.25303528,
-0.07946142,
0.015307871,
0.0103700375,
0.16495635,
0.053260002,
-0.04547103,
0.041492805,
-0.073261075,
-0.066277996,
0.018144622,
-0.02632035,
-0.007315941,
0.007859173,
-0.038772453,
-0.027266305,
-0.041086048,
-0.08331387,
-0.16799122,
-0.31199247,
-0.21174441,
-0.2425012,
-0.26114365,
-0.21497798,
-0.15674368,
-0.3017388,
-0.31980103,
-0.23267862,
-0.32891977,
0.07396967,
0.09544956,
0.046946403,
-0.04042722,
-0.01193127,
-0.0027123168,
0.02637709,
0.008937709,
-0.00032470375,
-0.019326761,
-0.035108175,
0.030112006,
0.04735343,
-0.002168849,
0.071872815,
-0.0073287413,
-0.04008036,
0.06906195,
0.078225,
-0.06694824,
0.08541402,
0.16558747,
0.013749314,
0.073155686,
0.0793142,
0.06760478,
-0.006871909,
0.050958365,
0.032604113,
0.02521675,
-0.01979664,
0.07836926,
0.083498076,
0.040349633,
0.024007313,
0.009874716,
-0.07957955,
-0.06941093,
-0.068252474,
0.032517247,
-0.012526969,
0.0016950933,
-0.01914604,
0.039895043,
0.13807246,
0.31125465,
0.5071472,
0.59798706,
0.5355109,
0.34270877,
0.11851166,
0.41664535,
0.43089348,
0.42376313,
0.46806026,
0.41274992,
0.27541906,
0.1177614,
0.22215198,
0.07226152,
0.031271346,
0.04059103,
-0.06768636,
0.034645446,
-0.08492397,
0.046370402,
-0.10097663,
0.016377227,
0.22261558,
0.1995025,
0.05137059,
0.22425611,
0.4002798,
0.4884256,
0.7273485,
1.0789957,
0.41737676,
0.21514727,
0.48474345,
0.7016265,
0.43373764,
0.5136543,
0.6433145,
0.7958043,
0.48051655,
0.36150226,
0.23773684,
0.18304208,
0.13628954,
0.076883264,
0.026097476,
-0.07803284,
-0.0417988,
-0.07542954,
-0.06220869,
0.16192767,
0.096920304,
0.12933248,
-0.014367934,
0.034110695,
0.229122,
0.4575743,
0.6810961,
0.8442533,
0.7640729,
0.5930537,
0.43971074,
0.4633602,
0.4661964,
0.51273054,
0.47077832,
0.06169228,
0.10725455,
-0.019614352,
-0.04461241,
0.059120167,
-0.0046450766,
0.038713735,
0.010849455,
0.02851881,
-0.01942546,
-0.04050323,
0.12251903,
0.27947786,
-0.055458747,
-0.10511406,
-0.05786377,
-0.13116552,
-0.15770487,
0.08425739,
0.36611572,
0.4749453,
0.3671676,
0.31913167,
0.3647404,
0.56452596,
0.5368495,
0.54339576,
0.6661029,
0.27932474,
0.10805177,
-0.105889834,
-0.17574197,
-0.37062186,
-0.17663111,
0.20312975,
0.08690072,
0.04490381,
0.0005077049,
-0.033603024,
0.21850269,
